{"learner":{"attributes":{"best_iteration":"325","best_score":"0.18489048509908954","scikit_learn":"{\"_estimator_type\": \"regressor\"}"},"feature_names":[],"feature_types":[],"gradient_booster":{"model":{"cats":{"enc":[],"feature_segments":[],"sorted_idx":[]},"gbtree_model_param":{"num_parallel_tree":"1","num_trees":"376"},"iteration_indptr":[0,1,2,3,4,5,6,7,8,9,10,11,12,13,14,15,16,17,18,19,20,21,22,23,24,25,26,27,28,29,30,31,32,33,34,35,36,37,38,39,40,41,42,43,44,45,46,47,48,49,50,51,52,53,54,55,56,57,58,59,60,61,62,63,64,65,66,67,68,69,70,71,72,73,74,75,76,77,78,79,80,81,82,83,84,85,86,87,88,89,90,91,92,93,94,95,96,97,98,99,100,101,102,103,104,105,106,107,108,109,110,111,112,113,114,115,116,117,118,119,120,121,122,123,124,125,126,127,128,129,130,131,132,133,134,135,136,137,138,139,140,141,142,143,144,145,146,147,148,149,150,151,152,153,154,155,156,157,158,159,160,161,162,163,164,165,166,167,168,169,170,171,172,173,174,175,176,177,178,179,180,181,182,183,184,185,186,187,188,189,190,191,192,193,194,195,196,197,198,199,200,201,202,203,204,205,206,207,208,209,210,211,212,213,214,215,216,217,218,219,220,221,222,223,224,225,226,227,228,229,230,231,232,233,234,235,236,237,238,239,240,241,242,243,244,245,246,247,248,249,250,251,252,253,254,255,256,257,258,259,260,261,262,263,264,265,266,267,268,269,270,271,272,273,274,275,276,277,278,279,280,281,282,283,284,285,286,287,288,289,290,291,292,293,294,295,296,297,298,299,300,301,302,303,304,305,306,307,308,309,310,311,312,313,314,315,316,317,318,319,320,321,322,323,324,325,326,327,328,329,330,331,332,333,334,335,336,337,338,339,340,341,342,343,344,345,346,347,348,349,350,351,352,353,354,355,356,357,358,359,360,361,362,363,364,365,366,367,368,369,370,371,372,373,374,375,376],"tree_info":[0,0,0,0,0,0,0,0,0,0,0,0,0,0,0,0,0,0,0,0,0,0,0,0,0,0,0,0,0,0,0,0,0,0,0,0,0,0,0,0,0,0,0,0,0,0,0,0,0,0,0,0,0,0,0,0,0,0,0,0,0,0,0,0,0,0,0,0,0,0,0,0,0,0,0,0,0,0,0,0,0,0,0,0,0,0,0,0,0,0,0,0,0,0,0,0,0,0,0,0,0,0,0,0,0,0,0,0,0,0,0,0,0,0,0,0,0,0,0,0,0,0,0,0,0,0,0,0,0,0,0,0,0,0,0,0,0,0,0,0,0,0,0,0,0,0,0,0,0,0,0,0,0,0,0,0,0,0,0,0,0,0,0,0,0,0,0,0,0,0,0,0,0,0,0,0,0,0,0,0,0,0,0,0,0,0,0,0,0,0,0,0,0,0,0,0,0,0,0,0,0,0,0,0,0,0,0,0,0,0,0,0,0,0,0,0,0,0,0,0,0,0,0,0,0,0,0,0,0,0,0,0,0,0,0,0,0,0,0,0,0,0,0,0,0,0,0,0,0,0,0,0,0,0,0,0,0,0,0,0,0,0,0,0,0,0,0,0,0,0,0,0,0,0,0,0,0,0,0,0,0,0,0,0,0,0,0,0,0,0,0,0,0,0,0,0,0,0,0,0,0,0,0,0,0,0,0,0,0,0,0,0,0,0,0,0,0,0,0,0,0,0,0,0,0,0,0,0,0,0,0,0,0,0,0,0,0,0,0,0,0,0,0,0,0,0,0,0,0,0,0,0,0,0,0,0,0,0,0,0,0,0,0,0,0,0,0,0,0,0,0,0,0,0,0,0],"trees":[{"base_weights":[-3.1032998E-4,-3.4681056E-2,2.158192E-1,8.539325E-2,-4.507318E-2,3.816782E-3,8.0212766E-1,3.4939747E-2,6.7142856E-1,1.6E-1,-4.603331E-2,2.6842105E-1,-4.0707976E-2,8.8139534E-1,-1.2000003E-3,-2.0289866E-2,2.8666666E-1,-7.500002E-4,2.3749998E-2,1.4249999E-2,-1.1250003E-3,-4.698021E-2,3.749999E-2,-1.3750003E-3,7.0625E-1,-1.4866075E-3,1.4249999E-2,2.7804878E-2,-1.0000003E-3,1.4249999E-2,-3.4558836E-2,5.499999E-2,6.25E-1,-2.6171887E-2,-1.4983016E-3,1.4249999E-2,-1.3636367E-3,-7.500002E-4,2.442857E-2,1.2499999E-1,-1.4761908E-3,1.4249999E-2,-1.3333337E-3,2.2799999E-2,-7.500002E-4,-1.4863639E-3,1.105263E-1,-1.2000003E-3,1.4249999E-2,-1.4000003E-3,5.6E-1,2.1374999E-2,-7.500002E-4],"categories":[],"categories_nodes":[],"categories_segments":[],"categories_sizes":[],"default_left":[0,0,0,0,0,0,0,0,0,0,0,0,0,0,0,0,0,0,0,0,0,0,0,0,0,0,0,0,0,0,0,0,0,0,0,0,0,0,0,0,0,0,0,0,0,0,0,0,0,0,0,0,0],"id":0,"left_children":[1,3,5,7,9,11,13,15,17,19,21,23,25,27,-1,29,31,-1,-1,-1,-1,33,35,-1,37,-1,-1,-1,-1,-1,39,41,43,45,-1,-1,-1,-1,-1,47,-1,-1,-1,-1,-1,-1,49,-1,-1,-1,51,-1,-1],"loss_changes":[9.582858E0,1.392681E0,2.1997828E1,2.608051E0,2.0918465E-1,1.5542957E0,3.1726685E0,1.159747E0,6.059525E-1,3.28875E-1,8.252025E-2,2.6465733E0,5.390157E-1,1.8179665E0,0E0,5.0405747E-1,1.1413336E0,0E0,0E0,0E0,0E0,6.096816E-2,4.5710227E-1,0E0,6.523659E-1,0E0,0E0,0E0,0E0,0E0,1.6507646E-1,4.3877777E-1,5.4550004E-1,4.144522E-1,0E0,0E0,0E0,0E0,0E0,3.655E-1,0E0,0E0,0E0,0E0,0E0,0E0,1.3685614E0,0E0,0E0,0E0,4.6387494E-1,0E0,0E0],"parents":[2147483647,0,0,1,1,2,2,3,3,4,4,5,5,6,6,7,7,8,8,9,9,10,10,11,11,12,12,13,13,15,15,16,16,21,21,22,22,24,24,30,30,31,31,32,32,33,33,39,39,46,46,50,50],"right_children":[2,4,6,8,10,12,14,16,18,20,22,24,26,28,-1,30,32,-1,-1,-1,-1,34,36,-1,38,-1,-1,-1,-1,-1,40,42,44,46,-1,-1,-1,-1,-1,48,-1,-1,-1,-1,-1,-1,50,-1,-1,-1,52,-1,-1],"split_conditions":[2E4,4.015583E-2,2.573267E1,1.5289905E0,3.0541563E-1,5.408133E-3,1.0565642E1,5.7792E1,5.113712E-1,2.9825785E-3,2.57124E1,1.08397875E1,3.8448188E-1,1.7702087E0,-3.350939E-2,5.645154E0,3.0434574E1,-2.963878E-2,1.5673685E-1,3.2850122E-3,-9.243163E-2,6.9402826E-1,2.4053686E1,-6.0497187E-3,3.1104413E-1,-3.1262003E-2,1.0053248E-2,1.9588377E-1,-3.5785638E-2,2.3808717E-3,3.6036243E1,3.615722E-1,3.907475E1,5.262104E1,-7.027992E-2,2.9579457E-2,-4.189144E-2,-3.412771E-4,1.5354675E-1,3.1778082E1,-1.7664555E-2,7.078056E-3,-1.106708E-2,4.8513234E-2,-3.1086838E-2,-6.831536E-2,2.7931553E1,-1.8568182E-2,1.5164709E-3,-4.445478E-2,2.440424E1,1.8759297E-2,-3.1215385E-1],"split_indices":[42,10,0,2,46,5,30,26,7,4,3,1,19,47,0,54,0,0,0,0,0,47,1,0,2,0,0,0,0,0,50,46,0,26,0,0,0,0,0,0,0,0,0,0,0,0,0,0,0,0,1,0,0],"split_type":[0,0,0,0,0,0,0,0,0,0,0,0,0,0,0,0,0,0,0,0,0,0,0,0,0,0,0,0,0,0,0,0,0,0,0,0,0,0,0,0,0,0,0,0,0,0,0,0,0,0,0,0,0],"sum_hessian":[1.288E3,1.112E3,1.76E2,8.8E1,1.024E3,1.3E2,4.6E1,8.2E1,6E0,4E0,1.02E3,1.8E1,1.12E2,4.2E1,4E0,6.8E1,1.4E1,1E0,5E0,1E0,3E0,1.009E3,1.1E1,1.1E1,7E0,1.11E2,1E0,4E1,2E0,1E0,6.7E1,9E0,5E0,1.27E2,8.82E2,1E0,1E1,1E0,6E0,5E0,6.2E1,1E0,8E0,4E0,1E0,1.09E2,1.8E1,4E0,1E0,1.4E1,4E0,3E0,1E0],"tree_param":{"num_deleted":"0","num_feature":"56","num_nodes":"53","size_leaf_vector":"1"}},{"base_weights":[-2.6377155E-3,-3.6477998E-2,2.1016948E-1,7.415729E-2,-4.6048794E-2,-3.8168058E-3,8.0212766E-1,5.47944E-3,3.6470586E-1,1.6E-1,-4.7012746E-2,1.9199999E-1,-1.4859816E-3,8.8139534E-1,-1.2000003E-3,-1.4736844E-3,1.8823528E-1,-1.2857146E-3,5.9090906E-1,1.4249999E-2,-1.1250003E-3,-4.797031E-2,3.749999E-2,2.4999888E-3,2.3749998E-2,2.7804878E-2,-1.0000003E-3,3.076922E-2,5.6E-1,-1.0000003E-3,7.3333335E-1,-3.3984385E-2,-1.4983016E-3,1.4249999E-2,-1.3636367E-3,1.4249999E-2,-1.421053E-3,1.4249999E-2,-1.3750003E-3,2.1374999E-2,-7.500002E-4,-7.500002E-4,2.49375E-2,-4.153227E-2,1.6E-1,6.6666655E-2,-1.4870693E-3,-1.1250003E-3,1.4249999E-2,-1.3125003E-3,1.4249999E-2],"categories":[],"categories_nodes":[],"categories_segments":[],"categories_sizes":[],"default_left":[0,0,0,0,0,0,0,0,0,0,0,0,0,0,0,0,0,0,0,0,0,0,0,0,0,0,0,0,0,0,0,0,0,0,0,0,0,0,0,0,0,0,0,0,0,0,0,0,0,0,0],"id":1,"left_children":[1,3,5,7,9,11,13,15,17,19,21,23,-1,25,-1,-1,27,-1,29,-1,-1,31,33,35,-1,-1,-1,37,39,-1,41,43,-1,-1,-1,-1,-1,-1,-1,-1,-1,-1,-1,45,47,49,-1,-1,-1,-1,-1],"loss_changes":[9.290343E0,1.1819342E0,2.2423817E1,1.7739301E0,2.1110892E-1,1.182215E0,3.1726685E0,7.37705E-1,1.5925899E0,3.28875E-1,8.4424734E-2,2.8389418E0,0E0,1.8179665E0,0E0,0E0,9.7795475E-1,0E0,1.0024242E0,0E0,0E0,2.6174068E-2,4.5710227E-1,4.937566E-1,0E0,0E0,0E0,4.6415067E-1,4.6387494E-1,0E0,6.890626E-1,1.9405909E-1,0E0,0E0,0E0,0E0,0E0,0E0,0E0,0E0,0E0,0E0,0E0,1.11130446E-1,3.28875E-1,4.2656252E-1,0E0,0E0,0E0,0E0,0E0],"parents":[2147483647,0,0,1,1,2,2,3,3,4,4,5,5,6,6,7,7,8,8,9,9,10,10,11,11,13,13,16,16,18,18,21,21,22,22,23,23,27,27,28,28,30,30,31,31,43,43,44,44,45,45],"right_children":[2,4,6,8,10,12,14,16,18,20,22,24,-1,26,-1,-1,28,-1,30,-1,-1,32,34,36,-1,-1,-1,38,40,-1,42,44,-1,-1,-1,-1,-1,-1,-1,-1,-1,-1,-1,46,48,50,-1,-1,-1,-1,-1],"split_conditions":[2E4,4.015583E-2,2.573267E1,5.7792E1,3.0541563E-1,8.997037E-1,1.0565642E1,5.4392225E-1,2.5864758E1,2.9825785E-3,2.57124E1,1.880335E1,-2.7836867E-2,1.7702087E0,-3.2504108E-2,-1.529437E-2,1.713024E1,-1.0735073E-2,6.1874844E-2,3.1864643E-3,-8.965868E-2,6.9402826E-1,2.4053686E1,4.7152252E2,1.4894034E-1,1.9000725E-1,-3.471207E-2,-1.1678282E-1,-2.0715605E-2,-3.015423E-2,5.9697276E-4,2.4345299E1,-6.8171516E-2,2.8692069E-2,-4.063469E-2,9.751653E-3,-8.6164E-3,1.4709806E-3,-1.2602119E-2,1.5203474E-1,-4.851268E-2,-1.3695974E-2,1.073145E-1,-1.2375094E-1,1.6371063E1,5.4198615E-3,-5.262074E-2,-8.0734E-2,1.8196521E-2,-9.55445E-2,1.5142336E-2],"split_indices":[42,10,0,26,46,16,30,7,0,4,3,0,0,47,0,0,52,0,43,0,0,47,1,9,0,0,0,18,18,0,2,31,0,0,0,0,0,0,0,0,0,0,0,18,0,5,0,0,0,0,0],"split_type":[0,0,0,0,0,0,0,0,0,0,0,0,0,0,0,0,0,0,0,0,0,0,0,0,0,0,0,0,0,0,0,0,0,0,0,0,0,0,0,0,0,0,0,0,0,0,0,0,0,0,0],"sum_hessian":[1.288E3,1.112E3,1.76E2,8.8E1,1.024E3,1.3E2,4.6E1,7.2E1,1.6E1,4E0,1.02E3,2.4E1,1.06E2,4.2E1,4E0,5.6E1,1.6E1,6E0,1E1,1E0,3E0,1.009E3,1.1E1,1.9E1,5E0,4E1,2E0,1.2E1,4E0,2E0,8E0,1.27E2,8.82E2,1E0,1E1,1E0,1.8E1,1E0,1.1E1,3E0,1E0,1E0,7E0,1.23E2,4E0,8E0,1.15E2,3E0,1E0,7E0,1E0],"tree_param":{"num_deleted":"0","num_feature":"56","num_nodes":"51","size_leaf_vector":"1"}},{"base_weights":[-4.965101E-3,-3.9173417E-2,2.1016948E-1,2.9213471E-2,-4.507318E-2,6.6507936E-1,-4.086958E-2,-2.191782E-2,2.4705881E-1,1.6E-1,-4.603331E-2,-1.3750003E-3,8.1634617E-1,-1.4868424E-3,1.4249999E-2,-3.5416678E-2,1.4249999E-2,-1.3125003E-3,4.5499998E-1,1.4249999E-2,-1.1250003E-3,-4.698021E-2,3.749999E-2,2.4285713E-1,8.8586956E-1,1.2499999E-1,-1.4776123E-3,6.7142856E-1,-1.1250003E-3,-2.6171887E-2,-1.4983016E-3,1.4249999E-2,-1.3636367E-3,1.9E-2,-1.2000003E-3,9.0666664E-1,-7.500002E-4,-1.2000003E-3,1.4249999E-2,-7.500002E-4,2.3749998E-2,-1.4863639E-3,1.105263E-1,2.783721E-2,2.9999998E-1,-1.4000003E-3,5.6E-1,-7.500002E-4,1.4249999E-2,2.1374999E-2,-7.500002E-4],"categories":[],"categories_nodes":[],"categories_segments":[],"categories_sizes":[],"default_left":[0,0,0,0,0,0,0,0,0,0,0,0,0,0,0,0,0,0,0,0,0,0,0,0,0,0,0,0,0,0,0,0,0,0,0,0,0,0,0,0,0,0,0,0,0,0,0,0,0,0,0],"id":2,"left_children":[1,3,5,7,9,11,13,15,17,19,21,-1,23,-1,-1,25,-1,-1,27,-1,-1,29,31,33,35,37,-1,39,-1,41,-1,-1,-1,-1,-1,43,-1,-1,-1,-1,-1,-1,45,-1,47,-1,49,-1,-1,-1,-1],"loss_changes":[9.49449E0,4.5037508E-1,2.0240608E1,9.967604E-1,2.0918465E-1,6.812275E0,5.39185E-1,5.0649405E-1,1.0479156E0,3.28875E-1,8.252025E-2,0E0,1.8581505E0,0E0,0E0,1.6597483E-1,0E0,0E0,1.0910892E0,0E0,0E0,6.096816E-2,4.5710227E-1,7.9847616E-1,8.9406586E-1,3.655E-1,0E0,6.059525E-1,0E0,4.144522E-1,0E0,0E0,0E0,0E0,0E0,3.0148697E-1,0E0,0E0,0E0,0E0,0E0,0E0,1.3685614E0,0E0,1.825E-1,0E0,4.6387494E-1,0E0,0E0,0E0,0E0],"parents":[2147483647,0,0,1,1,2,2,3,3,4,4,5,5,6,6,7,7,8,8,9,9,10,10,12,12,15,15,18,18,21,21,22,22,23,23,24,24,25,25,27,27,29,29,35,35,42,42,44,44,46,46],"right_children":[2,4,6,8,10,12,14,16,18,20,22,-1,24,-1,-1,26,-1,-1,28,-1,-1,30,32,34,36,38,-1,40,-1,42,-1,-1,-1,-1,-1,44,-1,-1,-1,-1,-1,-1,46,-1,48,-1,50,-1,-1,-1,-1],"split_conditions":[2E4,4.015583E-2,5.408133E-3,5.7792E1,3.0541563E-1,1.08397875E1,3.8448188E-1,2.5961048E1,5.2278013E0,2.9825785E-3,2.57124E1,-5.0331256E-3,2.484533E-2,-3.102044E-2,9.4591E-3,3.6036243E1,1.474737E-1,-1.6455603E-3,7.7165666E0,3.090863E-3,-8.696891E-2,6.9402826E-1,2.4053686E1,2.4560226E1,1.0565642E1,3.1778082E1,-4.651086E-3,5.9697276E-4,-1.6397095E-3,5.262104E1,-6.612637E-2,2.7831301E-2,-3.9415654E-2,1.0298724E-1,-2.4899482E-3,2.4930368E1,-3.1528987E-2,-1.7552303E-2,1.4268493E-3,-1.3285088E-2,1.0409506E-1,-6.468726E-2,2.7931553E1,1.8357319E-1,3.358366E1,-4.154252E-2,2.440424E1,-5.979538E-6,4.359106E-2,1.7650623E-2,-2.999229E-1],"split_indices":[42,10,5,26,46,1,19,3,32,4,3,0,2,0,0,50,0,0,32,0,0,47,1,1,30,0,0,2,0,26,0,0,0,0,0,1,0,0,0,0,0,0,0,0,0,0,1,0,0,0,0],"split_type":[0,0,0,0,0,0,0,0,0,0,0,0,0,0,0,0,0,0,0,0,0,0,0,0,0,0,0,0,0,0,0,0,0,0,0,0,0,0,0,0,0,0,0,0,0,0,0,0,0,0,0],"sum_hessian":[1.288E3,1.112E3,1.76E2,8.8E1,1.024E3,6.2E1,1.14E2,7.2E1,1.6E1,4E0,1.02E3,1.1E1,5.1E1,1.13E2,1E0,7.1E1,1E0,7E0,9E0,1E0,3E0,1.009E3,1.1E1,6E0,4.5E1,5E0,6.6E1,6E0,3E0,1.27E2,8.82E2,1E0,1E1,2E0,4E0,4.4E1,1E0,4E0,1E0,1E0,5E0,1.09E2,1.8E1,4.2E1,2E0,1.4E1,4E0,1E0,1E0,3E0,1E0],"tree_param":{"num_deleted":"0","num_feature":"56","num_nodes":"51","size_leaf_vector":"1"}},{"base_weights":[-7.2924867E-3,-4.007189E-2,1.9887005E-1,-4.3472234E-2,6.9117635E-2,-3.8168058E-3,7.595745E-1,1.2499999E-1,-4.4372104E-2,-1.4400004E-3,3.55E-1,1.9199999E-1,-1.4859816E-3,1.7777777E-1,8.7435895E-1,1.4249999E-2,-1.2000003E-3,-1.6528938E-2,-4.7853414E-2,6.25E-1,-1.2000003E-3,2.4999888E-3,2.3749998E-2,-1.2857146E-3,1.9E-2,8.986842E-1,-7.500002E-4,-4.0948287E-2,4.583333E-1,-1.2500011E-2,-4.8868548E-2,2.2799999E-2,-7.500002E-4,1.4249999E-2,-1.421053E-3,2.7708333E-2,2.9999998E-1,-1.4863639E-3,9.999999E-2,-1.0000003E-3,2.1374999E-2,1.4249999E-2,-1.4444448E-3,-3.27869E-2,-1.4982722E-3,-7.500002E-4,1.4249999E-2,-1.2500002E-3,1.4249999E-2,-1.4732146E-3,1.2499999E-1,-1.2000003E-3,1.4249999E-2],"categories":[],"categories_nodes":[],"categories_segments":[],"categories_sizes":[],"default_left":[0,0,0,0,0,0,0,0,0,0,0,0,0,0,0,0,0,0,0,0,0,0,0,0,0,0,0,0,0,0,0,0,0,0,0,0,0,0,0,0,0,0,0,0,0,0,0,0,0,0,0,0,0],"id":3,"left_children":[1,3,5,7,9,11,13,15,17,-1,19,21,-1,23,25,-1,-1,27,29,31,-1,33,-1,-1,-1,35,-1,37,39,41,43,-1,-1,-1,-1,-1,45,-1,47,-1,-1,-1,-1,49,-1,-1,-1,-1,-1,-1,51,-1,-1],"loss_changes":[8.718883E0,4.1624177E-1,2.0118492E1,1.692779E-1,1.1554234E0,1.182215E0,2.9832764E0,3.655E-1,1.0340953E-1,0E0,1.0915E0,2.8389418E0,0E0,9.31746E-1,8.756733E-1,0E0,0E0,1.4218631E0,3.3662558E-2,5.4550004E-1,0E0,4.937566E-1,0E0,0E0,0E0,2.9000664E-1,0E0,1.4551844E-1,7.7354157E-1,5.094676E-1,1.43888E-2,0E0,0E0,0E0,0E0,0E0,1.825E-1,0E0,3.9166665E-1,0E0,0E0,0E0,0E0,1.6322088E-1,0E0,0E0,0E0,0E0,0E0,0E0,3.655E-1,0E0,0E0],"parents":[2147483647,0,0,1,1,2,2,3,3,4,4,5,5,6,6,7,7,8,8,10,10,11,11,13,13,14,14,17,17,18,18,19,19,21,21,25,25,27,27,28,28,29,29,30,30,36,36,38,38,43,43,50,50],"right_children":[2,4,6,8,10,12,14,16,18,-1,20,22,-1,24,26,-1,-1,28,30,32,-1,34,-1,-1,-1,36,-1,38,40,42,44,-1,-1,-1,-1,-1,46,-1,48,-1,-1,-1,-1,50,-1,-1,-1,-1,-1,-1,52,-1,-1],"split_conditions":[2E4,1.6819654E0,2.573267E1,3.0541563E-1,7.2691523E3,8.997037E-1,3.0073147E-2,2.9825785E-3,4.300459E-1,-7.4916924E-3,2.131425E0,1.880335E1,-2.6071144E-2,-3.2217294E-2,1.0565642E1,2.9981374E-3,-1.5905141E-3,4.2659172E-1,6.827876E-2,4.119633E1,-2.910819E-3,4.7152252E2,1.3896494E-1,-2.4152468E-3,9.989762E-2,2.4930368E1,-3.0583119E-2,6.0496758E1,2.3784958E1,9.205737E-2,-1.2375094E-1,1.4304948E-1,-4.5624605E-1,9.175329E-3,-8.206916E-3,1.8652974E-1,3.358366E1,-4.2497817E-2,5.418972E-1,-3.398816E-2,1.7121105E-2,4.0715545E-2,-4.084622E-2,-1.2488432E-1,-4.9750734E-2,-5.7935713E-6,4.228333E-2,-2.9780243E-3,5.234241E-4,-6.766882E-2,2.207022E1,-8.2306035E-2,1.4158544E-2],"split_indices":[42,2,0,46,12,16,2,4,46,0,2,0,0,18,30,0,0,46,19,0,0,9,0,0,0,1,0,26,0,45,18,0,0,0,0,0,0,0,7,0,0,0,0,18,0,0,0,0,0,0,0,0,0],"split_type":[0,0,0,0,0,0,0,0,0,0,0,0,0,0,0,0,0,0,0,0,0,0,0,0,0,0,0,0,0,0,0,0,0,0,0,0,0,0,0,0,0,0,0,0,0,0,0,0,0,0,0,0,0],"sum_hessian":[1.288E3,1.112E3,1.76E2,1.079E3,3.3E1,1.3E2,4.6E1,5E0,1.074E3,2.4E1,9E0,2.4E1,1.06E2,8E0,3.8E1,1E0,4E0,1.2E2,9.54E2,5E0,4E0,1.9E1,5E0,6E0,2E0,3.7E1,1E0,1.15E2,5E0,2.7E1,9.27E2,4E0,1E0,1E0,1.8E1,3.5E1,2E0,1.09E2,6E0,2E0,3E0,1E0,2.6E1,6E1,8.67E2,1E0,1E0,5E0,1E0,5.5E1,5E0,4E0,1E0],"tree_param":{"num_deleted":"0","num_feature":"56","num_nodes":"53","size_leaf_vector":"1"}},{"base_weights":[-8.068282E-3,-4.007189E-2,1.9322033E-1,-4.3472234E-2,6.9117635E-2,3.816782E-3,7.170213E-1,1.2499999E-1,-4.4372104E-2,-1.4400004E-3,3.55E-1,-1.4858494E-3,2.2115384E-1,7.883721E-1,-1.2000003E-3,1.4249999E-2,-1.2000003E-3,-1.6528938E-2,-4.7853414E-2,6.25E-1,-1.2000003E-3,-1.411765E-3,6.55E-1,8.292683E-1,-1.0000003E-3,-4.0948287E-2,4.583333E-1,-1.2500011E-2,-4.8868548E-2,2.2799999E-2,-7.500002E-4,-1.0000003E-3,2.49375E-2,8.680555E-1,4.583333E-1,-1.4863639E-3,9.999999E-2,-1.0000003E-3,2.1374999E-2,1.4249999E-2,-1.4444448E-3,-3.27869E-2,-1.4982722E-3,4.583333E-1,2.7580645E-2,2.1374999E-2,-1.0000003E-3,-1.2500002E-3,1.4249999E-2,-1.4732146E-3,1.2499999E-1,2.1374999E-2,-1.0000003E-3,-1.2000003E-3,1.4249999E-2],"categories":[],"categories_nodes":[],"categories_segments":[],"categories_sizes":[],"default_left":[0,0,0,0,0,0,0,0,0,0,0,0,0,0,0,0,0,0,0,0,0,0,0,0,0,0,0,0,0,0,0,0,0,0,0,0,0,0,0,0,0,0,0,0,0,0,0,0,0,0,0,0,0,0,0],"id":4,"left_children":[1,3,5,7,9,11,13,15,17,-1,19,-1,21,23,-1,-1,-1,25,27,29,-1,-1,31,33,-1,35,37,39,41,-1,-1,-1,-1,43,45,-1,47,-1,-1,-1,-1,49,-1,51,-1,-1,-1,-1,-1,-1,53,-1,-1,-1,-1],"loss_changes":[8.311432E0,4.1624177E-1,1.755739E1,1.692779E-1,1.1554234E0,1.5297498E0,2.5701962E0,3.655E-1,1.0340953E-1,0E0,1.0915E0,0E0,3.0562625E0,1.4726429E0,0E0,0E0,0E0,1.4218631E0,3.3662558E-2,5.4550004E-1,0E0,0E0,1.2408962E0,1.9202995E-1,0E0,1.4551844E-1,7.7354157E-1,5.094676E-1,1.43888E-2,0E0,0E0,0E0,0E0,3.3529282E-1,7.7354157E-1,0E0,3.9166665E-1,0E0,0E0,0E0,0E0,1.6322088E-1,0E0,7.7354157E-1,0E0,0E0,0E0,0E0,0E0,0E0,3.655E-1,0E0,0E0,0E0,0E0],"parents":[2147483647,0,0,1,1,2,2,3,3,4,4,5,5,6,6,7,7,8,8,10,10,12,12,13,13,17,17,18,18,19,19,22,22,23,23,25,25,26,26,27,27,28,28,33,33,34,34,36,36,41,41,43,43,50,50],"right_children":[2,4,6,8,10,12,14,16,18,-1,20,-1,22,24,-1,-1,-1,26,28,30,-1,-1,32,34,-1,36,38,40,42,-1,-1,-1,-1,44,46,-1,48,-1,-1,-1,-1,50,-1,52,-1,-1,-1,-1,-1,-1,54,-1,-1,-1,-1],"split_conditions":[2E4,1.6819654E0,2.573267E1,3.0541563E-1,7.2691523E3,2.577448E1,1.0565642E1,2.9825785E-3,4.300459E-1,-7.2669447E-3,2.131425E0,-2.4677675E-2,1.2995541E1,1.7702087E0,-2.9665632E-2,2.9081868E-3,-1.5427923E-3,4.2659172E-1,6.827876E-2,4.119633E1,-2.8235007E-3,-2.0097299E-2,7.44764E-1,2.4838205E-2,-3.3523556E-2,6.0496758E1,2.3784958E1,9.205737E-2,-1.2375094E-1,1.38758E-1,-4.425587E-1,-8.307338E-3,1.3479598E-1,9.895209E-2,2.9944391E1,-4.122289E-2,5.418972E-1,-3.2968517E-2,1.6607465E-2,3.9494075E-2,-3.962083E-2,-1.2488432E-1,-4.825821E-2,2.331504E1,1.9013758E-1,4.8006676E-2,-5.62191E-6,-2.888689E-3,5.0771714E-4,-6.563875E-2,2.207022E1,8.571361E-2,-1.6799927E-4,-7.983686E-2,1.3733783E-2],"split_indices":[42,2,0,46,12,52,30,4,46,0,2,0,0,47,0,0,0,46,19,0,0,0,47,17,0,26,0,45,18,0,0,0,0,44,0,0,7,0,0,0,0,18,0,1,0,0,0,0,0,0,0,0,0,0,0],"split_type":[0,0,0,0,0,0,0,0,0,0,0,0,0,0,0,0,0,0,0,0,0,0,0,0,0,0,0,0,0,0,0,0,0,0,0,0,0,0,0,0,0,0,0,0,0,0,0,0,0,0,0,0,0,0,0],"sum_hessian":[1.288E3,1.112E3,1.76E2,1.079E3,3.3E1,1.3E2,4.6E1,5E0,1.074E3,2.4E1,9E0,1.05E2,2.5E1,4.2E1,4E0,1E0,4E0,1.2E2,9.54E2,5E0,4E0,1.6E1,9E0,4E1,2E0,1.15E2,5E0,2.7E1,9.27E2,4E0,1E0,2E0,7E0,3.5E1,5E0,1.09E2,6E0,2E0,3E0,1E0,2.6E1,6E1,8.67E2,5E0,3E1,3E0,2E0,5E0,1E0,5.5E1,5E0,3E0,2E0,4E0,1E0],"tree_param":{"num_deleted":"0","num_feature":"56","num_nodes":"55","size_leaf_vector":"1"}},{"base_weights":[-8.844077E-3,-3.142377E-2,2.514563E-1,-4.2427104E-2,6.2399987E-2,1.824323E-2,8.183333E-1,1.2345667E-2,-4.6897266E-2,-1.4851488E-3,5.1199996E-1,-3.3593763E-2,3.181818E-1,-1.1250003E-3,2.7444445E-2,-1.4758068E-3,2.0249999E-1,1.6E-1,-4.7906037E-2,8.1071424E-1,1.2083332E-1,-1.4761908E-3,1.4249999E-2,2.1374999E-2,8.124999E-2,4.5624998E-1,3.076922E-2,1.4249999E-2,-1.1250003E-3,-3.3333346E-2,-1.49825E-3,2.6307693E-2,-7.500002E-4,-1.3333337E-3,4.6249998E-1,1.4249999E-2,-1.2857146E-3,-1.1250003E-3,2.2799999E-2,1.4249999E-2,-1.3750003E-3,-1.4861114E-3,7.8124985E-2,-7.500002E-4,1.9E-2,-1.3846157E-3,4.6249998E-1,1.9E-2,-7.500002E-4],"categories":[],"categories_nodes":[],"categories_segments":[],"categories_sizes":[],"default_left":[0,0,0,0,0,0,0,0,0,0,0,0,0,0,0,0,0,0,0,0,0,0,0,0,0,0,0,0,0,0,0,0,0,0,0,0,0,0,0,0,0,0,0,0,0,0,0,0,0],"id":5,"left_children":[1,3,5,7,9,11,13,15,17,-1,19,21,23,-1,-1,-1,25,27,29,31,33,-1,-1,-1,35,37,39,-1,-1,41,-1,-1,-1,-1,43,-1,-1,-1,-1,-1,-1,-1,45,-1,-1,-1,47,-1,-1],"loss_changes":[7.5840025E0,1.2280757E0,1.3601992E1,2.608472E-1,6.314405E0,1.1612345E0,2.511467E0,9.5781964E-1,2.1282911E-1,0E0,2.823215E0,5.3156316E-1,9.698012E-1,0E0,0E0,0E0,8.574951E-1,3.28875E-1,2.737689E-2,7.96566E-1,6.9819444E-1,0E0,0E0,0E0,4.1129464E-1,1.2283126E0,4.6415067E-1,0E0,0E0,2.260127E-1,0E0,0E0,0E0,0E0,3.489583E-1,0E0,0E0,0E0,0E0,0E0,0E0,0E0,7.856611E-1,0E0,0E0,0E0,3.489583E-1,0E0,0E0],"parents":[2147483647,0,0,1,1,2,2,3,3,4,4,5,5,6,6,7,7,8,8,10,10,11,11,12,12,16,16,17,17,18,18,19,19,20,20,24,24,25,25,26,26,29,29,34,34,42,42,46,46],"right_children":[2,4,6,8,10,12,14,16,18,-1,20,22,24,-1,-1,-1,26,28,30,32,34,-1,-1,-1,36,38,40,-1,-1,42,-1,-1,-1,-1,44,-1,-1,-1,-1,-1,-1,-1,46,-1,-1,-1,48,-1,-1],"split_conditions":[1.3356081E0,2E4,1.56998E1,4.015583E-2,2.6532423E1,7.2691523E3,1.1094611E1,5.454105E-1,3.0541563E-1,-3.338879E-2,2.4560226E1,3.6543858E-1,2.7619387E1,-2.2721801E-2,1.9179645E-1,-4.8319967E-3,8.35084E0,2.9825785E-3,6.9402826E-1,5.0731706E-3,6.3511217E-1,-9.773563E-3,4.856186E-3,1.3459526E-1,-1.24797955E-1,1.2452645E0,-8.735563E-2,2.82094E-3,-8.426585E-2,5.262104E1,-6.300067E-2,9.1196574E-2,-1.5322833E-1,-5.4502484E-6,3.6601562E1,1.8542131E-2,-2.7388E-3,-2.169598E-2,3.8309254E-2,8.282089E-4,-9.670501E-3,-5.9354097E-2,2.7931553E1,-1.6296386E-4,4.3091267E-2,-3.7355967E-2,2.3906078E1,1.6109247E-2,-2.4629117E-4],"split_indices":[2,42,6,10,0,12,0,7,46,0,1,19,52,0,0,0,30,4,47,4,2,0,0,0,17,28,18,0,0,26,0,0,0,0,0,0,0,0,0,0,0,0,0,0,0,0,1,0,0],"split_type":[0,0,0,0,0,0,0,0,0,0,0,0,0,0,0,0,0,0,0,0,0,0,0,0,0,0,0,0,0,0,0,0,0,0,0,0,0,0,0,0,0,0,0,0,0,0,0,0,0],"sum_hessian":[1.288E3,1.186E3,1.02E2,1.062E3,1.24E2,7.3E1,2.9E1,8E1,9.82E2,1E2,2.4E1,6.3E1,1E1,3E0,2.6E1,6.1E1,1.9E1,4E0,9.78E2,1.3E1,1.1E1,6.2E1,1E0,3E0,7E0,7E0,1.2E1,1E0,3E0,1.22E2,8.56E2,1.2E1,1E0,8E0,3E0,1E0,6E0,3E0,4E0,1E0,1.1E1,1.07E2,1.5E1,1E0,2E0,1.2E1,3E0,2E0,1E0],"tree_param":{"num_deleted":"0","num_feature":"56","num_nodes":"49","size_leaf_vector":"1"}},{"base_weights":[-1.03956675E-2,-3.310869E-2,2.514563E-1,-4.4308573E-2,6.2399987E-2,1.824323E-2,8.183333E-1,1.2499999E-1,-4.5226853E-2,-1.4851488E-3,5.1199996E-1,-3.3593763E-2,3.181818E-1,-1.1250003E-3,2.7444445E-2,1.4249999E-2,-1.2000003E-3,-1.9776132E-2,-4.8864875E-2,8.1071424E-1,1.2083332E-1,-1.4761908E-3,1.4249999E-2,2.1374999E-2,8.124999E-2,-1.4869568E-3,1.5249999E-1,5.2631465E-3,-1.4983466E-3,2.6307693E-2,-7.500002E-4,-1.3333337E-3,4.6249998E-1,1.4249999E-2,-1.2857146E-3,-1.3928575E-3,5.285714E-1,-1.416667E-3,1.4249999E-2,-7.500002E-4,1.9E-2,2.2799999E-2,-1.0000003E-3],"categories":[],"categories_nodes":[],"categories_segments":[],"categories_sizes":[],"default_left":[0,0,0,0,0,0,0,0,0,0,0,0,0,0,0,0,0,0,0,0,0,0,0,0,0,0,0,0,0,0,0,0,0,0,0,0,0,0,0,0,0,0,0],"id":6,"left_children":[1,3,5,7,9,11,13,15,17,-1,19,21,23,-1,-1,-1,-1,25,27,29,31,-1,-1,-1,33,-1,35,37,-1,-1,-1,-1,39,-1,-1,-1,41,-1,-1,-1,-1,-1,-1],"loss_changes":[7.6745872E0,1.2724823E0,1.3601992E1,1.7092133E-1,6.314405E0,1.1612345E0,2.511467E0,3.655E-1,9.699416E-2,0E0,2.823215E0,5.3156316E-1,9.698012E-1,0E0,0E0,0E0,0E0,6.9524E-1,5.4337263E-2,7.96566E-1,6.9819444E-1,0E0,0E0,0E0,4.1129464E-1,0E0,1.5207678E0,4.9086258E-1,0E0,0E0,0E0,0E0,3.489583E-1,0E0,0E0,0E0,9.356191E-1,0E0,0E0,0E0,0E0,0E0,0E0],"parents":[2147483647,0,0,1,1,2,2,3,3,4,4,5,5,6,6,7,7,8,8,10,10,11,11,12,12,17,17,18,18,19,19,20,20,24,24,26,26,27,27,32,32,36,36],"right_children":[2,4,6,8,10,12,14,16,18,-1,20,22,24,-1,-1,-1,-1,26,28,30,32,-1,-1,-1,34,-1,36,38,-1,-1,-1,-1,40,-1,-1,-1,42,-1,-1,-1,-1,-1,-1],"split_conditions":[1.3356081E0,2E4,1.56998E1,3.0541563E-1,2.6532423E1,7.2691523E3,1.1094611E1,2.9825785E-3,6.9402826E-1,-3.238713E-2,2.4560226E1,3.6543858E-1,2.7619387E1,-2.2040147E-2,1.8604256E-1,2.736311E-3,-1.3515615E-3,5.262104E1,5.645154E0,5.0731706E-3,6.3511217E-1,-9.480351E-3,4.7105025E-3,1.305574E-1,-1.24797955E-1,-4.561202E-2,2.7931553E1,3.2164267E-1,-4.394798E-2,8.8460684E-2,-1.4863148E-1,-5.292892E-6,3.6601562E1,1.7985864E-2,-2.6566314E-3,-3.623529E-2,2.3556721E-1,-3.654765E-2,8.0336095E-4,-1.5807152E-4,4.179853E-2,3.715998E-2,-2.3889542E-4],"split_indices":[2,42,6,46,0,12,0,4,47,0,1,19,52,0,0,0,0,26,54,4,2,0,0,0,17,0,0,2,0,0,0,0,0,0,0,0,19,0,0,0,0,0,0],"split_type":[0,0,0,0,0,0,0,0,0,0,0,0,0,0,0,0,0,0,0,0,0,0,0,0,0,0,0,0,0,0,0,0,0,0,0,0,0,0,0,0,0,0,0],"sum_hessian":[1.288E3,1.186E3,1.02E2,1.062E3,1.24E2,7.3E1,2.9E1,5E0,1.057E3,1E2,2.4E1,6.3E1,1E1,3E0,2.6E1,1E0,4E0,1.33E2,9.24E2,1.3E1,1.1E1,6.2E1,1E0,3E0,7E0,1.14E2,1.9E1,1.8E1,9.06E2,1.2E1,1E0,8E0,3E0,1E0,6E0,1.3E1,6E0,1.7E1,1E0,1E0,2E0,4E0,2E0],"tree_param":{"num_deleted":"0","num_feature":"56","num_nodes":"43","size_leaf_vector":"1"}},{"base_weights":[-9.619872E-3,-3.226623E-2,2.514563E-1,-4.336784E-2,6.2399987E-2,1.824323E-2,8.183333E-1,1.2499999E-1,-4.4281676E-2,-1.4851488E-3,5.1199996E-1,-3.3593763E-2,3.181818E-1,-1.1250003E-3,2.7444445E-2,1.4249999E-2,-1.2000003E-3,6.249882E-4,-4.7906037E-2,8.1071424E-1,1.2083332E-1,-1.4761908E-3,1.4249999E-2,2.1374999E-2,8.124999E-2,-1.4754102E-3,1.5249999E-1,-3.3333346E-2,-1.49825E-3,2.6307693E-2,-7.500002E-4,-1.3333337E-3,4.6249998E-1,1.4249999E-2,-1.2857146E-3,1.5624989E-2,5.6E-1,-1.4861114E-3,7.8124985E-2,-7.500002E-4,1.9E-2,1.4249999E-2,-1.4000003E-3,2.1374999E-2,-7.500002E-4,-1.3846157E-3,4.6249998E-1,1.9E-2,-7.500002E-4],"categories":[],"categories_nodes":[],"categories_segments":[],"categories_sizes":[],"default_left":[0,0,0,0,0,0,0,0,0,0,0,0,0,0,0,0,0,0,0,0,0,0,0,0,0,0,0,0,0,0,0,0,0,0,0,0,0,0,0,0,0,0,0,0,0,0,0,0,0],"id":7,"left_children":[1,3,5,7,9,11,13,15,17,-1,19,21,23,-1,-1,-1,-1,25,27,29,31,-1,-1,-1,33,-1,35,37,-1,-1,-1,-1,39,-1,-1,41,43,-1,45,-1,-1,-1,-1,-1,-1,-1,47,-1,-1],"loss_changes":[7.629228E0,1.2501806E0,1.3601992E1,1.6908896E-1,6.314405E0,1.1612345E0,2.511467E0,3.655E-1,1.722281E-1,0E0,2.823215E0,5.3156316E-1,9.698012E-1,0E0,0E0,0E0,0E0,6.126348E-1,2.737689E-2,7.96566E-1,6.9819444E-1,0E0,0E0,0E0,4.1129464E-1,0E0,1.1067812E0,2.260127E-1,0E0,0E0,0E0,0E0,3.489583E-1,0E0,0E0,4.8001042E-1,4.6387494E-1,0E0,7.856611E-1,0E0,0E0,0E0,0E0,0E0,0E0,0E0,3.489583E-1,0E0,0E0],"parents":[2147483647,0,0,1,1,2,2,3,3,4,4,5,5,6,6,7,7,8,8,10,10,11,11,12,12,17,17,18,18,19,19,20,20,24,24,26,26,27,27,32,32,35,35,36,36,38,38,46,46],"right_children":[2,4,6,8,10,12,14,16,18,-1,20,22,24,-1,-1,-1,-1,26,28,30,32,-1,-1,-1,34,-1,36,38,-1,-1,-1,-1,40,-1,-1,42,44,-1,46,-1,-1,-1,-1,-1,-1,-1,48,-1,-1],"split_conditions":[1.3356081E0,2E4,1.56998E1,3.0541563E-1,2.6532423E1,7.2691523E3,1.1094611E1,2.9825785E-3,4.015583E-2,-3.141551E-2,2.4560226E1,3.6543858E-1,2.7619387E1,-2.1378936E-2,1.8046127E-1,2.6542281E-3,-1.3110208E-3,5.454105E-1,6.9402826E-1,5.0731706E-3,6.3511217E-1,-9.195937E-3,4.569182E-3,1.2664068E-1,-1.24797955E-1,-6.2243445E-3,-9.37822E-3,5.262104E1,-5.9792206E-2,8.5806854E-2,-1.4417253E-1,-5.135536E-6,3.6601562E1,1.7446289E-2,-2.5769377E-3,-8.735563E-2,2.0668343E-1,-5.6205112E-2,2.7931553E1,-1.5332221E-4,4.054457E-2,7.792568E-4,-9.1999053E-4,3.6045182E-2,-8.061933E-3,-3.514823E-2,2.3906078E1,1.4511165E-2,-2.3172855E-4],"split_indices":[2,42,6,46,0,12,0,4,10,0,1,19,52,0,0,0,0,7,47,4,2,0,0,0,17,0,17,26,0,0,0,0,0,0,0,18,2,0,0,0,0,0,0,0,0,0,1,0,0],"split_type":[0,0,0,0,0,0,0,0,0,0,0,0,0,0,0,0,0,0,0,0,0,0,0,0,0,0,0,0,0,0,0,0,0,0,0,0,0,0,0,0,0,0,0,0,0,0,0,0,0],"sum_hessian":[1.288E3,1.186E3,1.02E2,1.062E3,1.24E2,7.3E1,2.9E1,5E0,1.057E3,1E2,2.4E1,6.3E1,1E1,3E0,2.6E1,1E0,4E0,7.9E1,9.78E2,1.3E1,1.1E1,6.2E1,1E0,3E0,7E0,6E1,1.9E1,1.22E2,8.56E2,1.2E1,1E0,8E0,3E0,1E0,6E0,1.5E1,4E0,1.07E2,1.5E1,1E0,2E0,1E0,1.4E1,3E0,1E0,1.2E1,3E0,2E0,1E0],"tree_param":{"num_deleted":"0","num_feature":"56","num_nodes":"49","size_leaf_vector":"1"}},{"base_weights":[-1.2723053E-2,-3.3388577E-2,2.879518E-1,-4.531106E-2,6.488548E-2,5.4310333E-2,7.980769E-1,1.2499999E-1,-4.6222027E-2,-1.4852944E-3,4.5166665E-1,-1.0576935E-2,5.285714E-1,-1.1250003E-3,2.7260868E-2,1.4249999E-2,-1.2000003E-3,-2.7407419E-2,-4.888061E-2,6.894737E-1,3.749999E-2,-1.469388E-3,4.6249998E-1,2.2799999E-2,-1.0000003E-3,-1.4870693E-3,1.0249999E-1,5.2631465E-3,-1.4983698E-3,2.6464285E-2,1.2499999E-1,1.4249999E-2,-1.3636367E-3,-7.500002E-4,1.9E-2,-1.4000003E-3,4.583333E-1,-1.416667E-3,1.4249999E-2,-1.2000003E-3,1.4249999E-2,-1.0000003E-3,2.1374999E-2],"categories":[],"categories_nodes":[],"categories_segments":[],"categories_sizes":[],"default_left":[0,0,0,0,0,0,0,0,0,0,0,0,0,0,0,0,0,0,0,0,0,0,0,0,0,0,0,0,0,0,0,0,0,0,0,0,0,0,0,0,0,0,0],"id":8,"left_children":[1,3,5,7,9,11,13,15,17,-1,19,21,23,-1,-1,-1,-1,25,27,29,31,-1,33,-1,-1,-1,35,37,-1,-1,39,-1,-1,-1,-1,-1,41,-1,-1,-1,-1,-1,-1],"loss_changes":[8.0189495E0,1.4171466E0,9.849127E0,1.7287183E-1,5.8185816E0,1.790454E0,2.4372673E0,3.655E-1,5.2282095E-2,0E0,2.9288974E0,9.6735877E-1,9.356191E-1,0E0,0E0,0E0,0E0,3.9373913E-1,5.4353714E-2,1.9561081E0,4.5710227E-1,0E0,3.489583E-1,0E0,0E0,0E0,1.0829583E0,4.9086258E-1,0E0,0E0,3.655E-1,0E0,0E0,0E0,0E0,0E0,7.7354157E-1,0E0,0E0,0E0,0E0,0E0,0E0],"parents":[2147483647,0,0,1,1,2,2,3,3,4,4,5,5,6,6,7,7,8,8,10,10,11,11,12,12,17,17,18,18,19,19,20,20,22,22,26,26,27,27,30,30,36,36],"right_children":[2,4,6,8,10,12,14,16,18,-1,20,22,24,-1,-1,-1,-1,26,28,30,32,-1,34,-1,-1,-1,36,38,-1,-1,40,-1,-1,-1,-1,-1,42,-1,-1,-1,-1,-1,-1],"split_conditions":[1.6447039E0,2E4,1.56998E1,3.0541563E-1,2.573267E1,6.045095E-3,1.1094611E1,2.9825785E-3,6.9402826E-1,-2.0432275E-2,1.6877403E1,3.1246123E-1,9.229102E0,-2.0737566E-2,1.8241042E-1,2.5746059E-3,-1.2716961E-3,5.262104E1,5.645154E0,8.34937E3,-1.1641704E-1,-1.235094E-2,8.304022E0,1.2284145E-1,-2.4996328E-3,-4.3039642E-2,6.561353E-1,3.2164267E-1,-4.1483767E-2,8.323265E-2,3.7191853E1,3.154767E-2,-4.9781797E-6,-7.325018E-2,1.6922893E-2,-2.2477626E-4,1.6371063E1,-3.3657458E-2,7.5588224E-4,-1.4871598E-4,3.9328236E-2,-7.086326E-2,3.496383E-2],"split_indices":[2,42,6,46,0,5,0,4,47,0,32,19,30,0,0,0,0,26,54,12,17,0,0,0,0,0,47,2,0,0,0,0,0,0,0,0,0,0,0,0,0,0,0],"split_type":[0,0,0,0,0,0,0,0,0,0,0,0,0,0,0,0,0,0,0,0,0,0,0,0,0,0,0,0,0,0,0,0,0,0,0,0,0,0,0,0,0,0,0],"sum_hessian":[1.288E3,1.206E3,8.2E1,1.076E3,1.3E2,5.7E1,2.5E1,5E0,1.071E3,1.01E2,2.9E1,5.1E1,6E0,3E0,2.2E1,1E0,4E0,1.34E2,9.37E2,1.8E1,1.1E1,4.8E1,3E0,4E0,2E0,1.15E2,1.9E1,1.8E1,9.19E2,1.3E1,5E0,1E0,1E1,1E0,2E0,1.4E1,5E0,1.7E1,1E0,4E0,1E0,2E0,3E0],"tree_param":{"num_deleted":"0","num_feature":"56","num_nodes":"43","size_leaf_vector":"1"}},{"base_weights":[-9.619872E-3,-3.9173417E-2,1.7627117E-1,4.0449426E-2,-4.6048794E-2,5.6984127E-1,-4.086958E-2,1.8499999E-1,-3.250001E-2,1.6E-1,-4.7012746E-2,-1.3636367E-3,6.8679243E-1,-1.4868424E-3,1.4249999E-2,6.222222E-1,-2.2727386E-3,-1.4741382E-3,2.9999998E-1,1.4249999E-2,-1.1250003E-3,-4.797031E-2,3.749999E-2,8.292683E-1,1.8461537E-1,-1.0000003E-3,2.442857E-2,1.4249999E-2,-1.4285718E-3,-7.500002E-4,1.4249999E-2,-3.3984385E-2,-1.4983016E-3,1.4249999E-2,-1.3636367E-3,-7.500002E-4,8.5125E-1,-1.3333337E-3,5.6E-1,-4.153227E-2,1.6E-1,-7.500002E-4,8.7435895E-1,2.1374999E-2,-7.500002E-4,6.6666655E-2,-1.4870693E-3,-1.1250003E-3,1.4249999E-2,8.9729726E-1,2.9999998E-1,-1.3125003E-3,1.4249999E-2,2.7685713E-2,9E-3,-7.500002E-4,1.4249999E-2],"categories":[],"categories_nodes":[],"categories_segments":[],"categories_sizes":[],"default_left":[0,0,0,0,0,0,0,0,0,0,0,0,0,0,0,0,0,0,0,0,0,0,0,0,0,0,0,0,0,0,0,0,0,0,0,0,0,0,0,0,0,0,0,0,0,0,0,0,0,0,0,0,0,0,0,0,0],"id":9,"left_children":[1,3,5,7,9,11,13,15,17,19,21,-1,23,-1,-1,25,27,-1,29,-1,-1,31,33,35,37,-1,-1,-1,-1,-1,-1,39,-1,-1,-1,-1,41,-1,43,45,47,-1,49,-1,-1,51,-1,-1,-1,53,55,-1,-1,-1,-1,-1,-1],"loss_changes":[7.0883355E0,6.111598E-1,1.5149727E1,9.4450694E-1,2.1110892E-1,4.5646725E0,5.39185E-1,2.4578083E0,3.4666812E-1,3.28875E-1,8.4424734E-2,0E0,3.6389542E0,0E0,0E0,1.1603177E0,4.9875543E-1,0E0,1.825E-1,0E0,0E0,2.6174068E-2,4.5710227E-1,7.911892E-1,1.1427009E0,0E0,0E0,0E0,0E0,0E0,0E0,1.9405909E-1,0E0,0E0,0E0,0E0,8.3182716E-1,0E0,4.6387494E-1,1.11130446E-1,3.28875E-1,0E0,2.4463081E-1,0E0,0E0,4.2656252E-1,0E0,0E0,0E0,2.8801346E-1,1.825E-1,0E0,0E0,0E0,0E0,0E0,0E0],"parents":[2147483647,0,0,1,1,2,2,3,3,4,4,5,5,6,6,7,7,8,8,9,9,10,10,12,12,15,15,16,16,18,18,21,21,22,22,23,23,24,24,31,31,36,36,38,38,39,39,40,40,42,42,45,45,49,49,50,50],"right_children":[2,4,6,8,10,12,14,16,18,20,22,-1,24,-1,-1,26,28,-1,30,-1,-1,32,34,36,38,-1,-1,-1,-1,-1,-1,40,-1,-1,-1,-1,42,-1,44,46,48,-1,50,-1,-1,52,-1,-1,-1,54,56,-1,-1,-1,-1,-1,-1],"split_conditions":[2E4,4.015583E-2,5.408133E-3,9.0981394E-2,3.0541563E-1,1.0615198E1,3.8448188E-1,9.983738E-1,6.707077E-2,2.9825785E-3,2.57124E1,-3.6916637E-3,1.8381443E1,-2.6144208E-2,3.924422E-3,1.0660142E-1,9.205737E-2,-2.3471238E-3,1.6893522E1,2.4973727E-3,-8.161986E-2,6.9402826E-1,2.4053686E1,7.963724E-1,6.3511217E-1,-1.0616322E-1,1.1915621E-1,3.3914924E-2,-1.5006465E-3,-6.0425904E-2,5.305202E-2,2.4345299E1,-5.5255756E-2,1.6415205E-2,-3.319489E-2,-5.1131058E-3,6.500687E-2,-4.8351285E-6,-4.388001E-2,-1.2375094E-1,1.6371063E1,-1.2289524E-3,2.488374E1,9.5907554E-2,-4.755263E-3,5.4198615E-3,-4.0745232E-2,-6.8737365E-2,1.3026924E-2,5.3085095E-1,3.6601562E1,-8.0612E-2,1.0239444E-2,1.5484914E-1,6.092089E-2,-1.4425277E-4,3.8148392E-2],"split_indices":[42,10,5,44,46,1,19,14,18,4,3,0,32,0,0,19,45,0,0,0,0,47,1,16,2,0,0,0,0,0,0,31,0,0,0,0,43,0,18,18,0,0,1,0,0,5,0,0,0,7,0,0,0,0,0,0,0],"split_type":[0,0,0,0,0,0,0,0,0,0,0,0,0,0,0,0,0,0,0,0,0,0,0,0,0,0,0,0,0,0,0,0,0,0,0,0,0,0,0,0,0,0,0,0,0,0,0,0,0,0,0,0,0,0,0,0,0],"sum_hessian":[1.288E3,1.112E3,1.76E2,8.8E1,1.024E3,6.2E1,1.14E2,2.9E1,5.9E1,4E0,1.02E3,1E1,5.2E1,1.13E2,1E0,8E0,2.1E1,5.7E1,2E0,1E0,3E0,1.009E3,1.1E1,4E1,1.2E1,2E0,6E0,1E0,2E1,1E0,1E0,1.27E2,8.82E2,1E0,1E1,1E0,3.9E1,8E0,4E0,1.23E2,4E0,1E0,3.8E1,3E0,1E0,8E0,1.15E2,3E0,1E0,3.6E1,2E0,7E0,1E0,3.4E1,2E0,1E0,1E0],"tree_param":{"num_deleted":"0","num_feature":"56","num_nodes":"57","size_leaf_vector":"1"}},{"base_weights":[-1.5826235E-2,-3.421708E-2,2.518072E-1,1.7407407E-1,-3.8950056E-2,3.7068956E-2,7.2115386E-1,-1.411765E-3,5E-1,-4.4351086E-2,1.3513502E-2,-2.857144E-2,3.55E-1,-1.2000003E-3,8.6136365E-1,2.442857E-2,-1.2000003E-3,1.2499999E-1,-4.5262676E-2,-1.4836959E-3,3.0249998E-1,-1.4687503E-3,1.4249999E-2,6.25E-1,-1.2000003E-3,-7.500002E-4,2.7142856E-2,1.4249999E-2,-1.2000003E-3,-2.0000013E-2,-4.8873402E-2,2.3749998E-2,8.666666E-2,2.2799999E-2,-7.500002E-4,-1.4870693E-3,1.5249999E-1,-1.4981756E-3,-4.0540554E-2,-1.3636367E-3,3.5999998E-1,-1.3928575E-3,5.285714E-1,1.6E-1,-1.4859816E-3,1.9E-2,-1.0000003E-3,-1.0000003E-3,2.2799999E-2,-1.1250003E-3,1.4249999E-2],"categories":[],"categories_nodes":[],"categories_segments":[],"categories_sizes":[],"default_left":[0,0,0,0,0,0,0,0,0,0,0,0,0,0,0,0,0,0,0,0,0,0,0,0,0,0,0,0,0,0,0,0,0,0,0,0,0,0,0,0,0,0,0,0,0,0,0,0,0,0,0],"id":10,"left_children":[1,3,5,7,9,11,13,-1,15,17,19,21,23,-1,25,-1,-1,27,29,-1,31,-1,-1,33,-1,-1,-1,-1,-1,35,37,-1,39,-1,-1,-1,41,-1,43,-1,45,-1,47,49,-1,-1,-1,-1,-1,-1,-1],"loss_changes":[6.353081E0,1.1966851E0,8.338563E0,1.9694988E0,3.3524442E-1,1.2205517E0,2.809204E0,0E0,1.8994286E0,1.7099762E-1,2.0348818E0,5.263021E-1,1.0915E0,0E0,8.6888504E-1,0E0,0E0,3.655E-1,9.6259356E-2,0E0,2.0429585E0,0E0,0E0,5.4550004E-1,0E0,0E0,0E0,0E0,0E0,6.9614655E-1,6.2527657E-3,0E0,5.5806065E-1,0E0,0E0,0E0,1.5207678E0,0E0,2.0809096E-1,0E0,5.5866665E-1,0E0,9.356191E-1,3.28875E-1,0E0,0E0,0E0,0E0,0E0,0E0,0E0],"parents":[2147483647,0,0,1,1,2,2,3,3,4,4,5,5,6,6,8,8,9,9,10,10,11,11,12,12,14,14,17,17,18,18,20,20,23,23,29,29,30,30,32,32,36,36,38,38,40,40,42,42,43,43],"right_children":[2,4,6,8,10,12,14,-1,16,18,20,22,24,-1,26,-1,-1,28,30,-1,32,-1,-1,34,-1,-1,-1,-1,-1,36,38,-1,40,-1,-1,-1,42,-1,44,-1,46,-1,48,50,-1,-1,-1,-1,-1,-1,-1],"split_conditions":[1.6447039E0,2.946391E1,1.56998E1,2.5226948E1,2E4,7.2691523E3,1.9225191E1,-4.3007038E-3,3.2811424E1,3.0541563E-1,2.6532423E1,3.6543858E-1,2.131425E0,-4.959712E-3,2.0367717E2,7.6090194E-2,-4.6920777E-6,2.9825785E-3,6.9402826E-1,-3.9300084E-2,8.705849E0,-4.5798956E-3,3.8066912E-3,4.119633E1,-2.3542356E-3,-5.3714274E-4,1.7597413E-1,2.4224566E-3,-1.1885262E-3,5.262104E1,2.8034323E-1,5.9268635E-2,6.3511217E-1,1.1558152E-1,-4.276764E-1,-4.0756475E-2,2.7931553E1,-4.2640526E-2,2.8262892E-1,-1.1920881E-3,1.2705716E0,-3.286469E-2,5.5425876E-1,1.0972735E1,-2.4469392E-2,3.700394E-2,-3.3774662E-3,-8.1524847E-4,3.2897472E-2,-9.971112E-2,7.282448E-4],"split_indices":[2,50,6,0,42,12,0,0,0,46,0,19,2,0,20,0,0,4,47,0,30,0,0,0,0,0,0,0,0,26,19,0,2,0,0,0,0,0,19,0,2,0,7,0,0,0,0,0,0,0,0],"split_type":[0,0,0,0,0,0,0,0,0,0,0,0,0,0,0,0,0,0,0,0,0,0,0,0,0,0,0,0,0,0,0,0,0,0,0,0,0,0,0,0,0,0,0,0,0,0,0,0,0,0,0],"sum_hessian":[1.288E3,1.206E3,8.2E1,2.6E1,1.18E3,5.7E1,2.5E1,1.6E1,1E1,1.07E3,1.1E2,4.8E1,9E0,4E0,2.1E1,6E0,4E0,5E0,1.065E3,9.1E1,1.9E1,4.7E1,1E0,5E0,4E0,1E0,2E1,1E0,4E0,1.34E2,9.31E2,5E0,1.4E1,4E0,1E0,1.15E2,1.9E1,8.21E2,1.1E2,1E1,4E0,1.3E1,6E0,4E0,1.06E2,2E0,2E0,2E0,4E0,3E0,1E0],"tree_param":{"num_deleted":"0","num_feature":"56","num_nodes":"51","size_leaf_vector":"1"}},{"base_weights":[-1.5050438E-2,-3.3388577E-2,2.518072E-1,1.7407407E-1,-3.8103316E-2,3.7068956E-2,7.2115386E-1,-1.411765E-3,5E-1,-4.341738E-2,1.3513502E-2,-2.857144E-2,3.55E-1,-1.2000003E-3,8.6136365E-1,2.442857E-2,-1.2000003E-3,1.2499999E-1,-4.4324588E-2,-1.4836959E-3,3.0249998E-1,-1.4687503E-3,1.4249999E-2,6.25E-1,-1.2000003E-3,-7.500002E-4,2.7142856E-2,1.4249999E-2,-1.2000003E-3,-2.783884E-2,-1.4981112E-3,2.3749998E-2,8.666666E-2,2.2799999E-2,-7.500002E-4,1.2608695E-1,-4.183268E-2,-1.3636367E-3,3.5999998E-1,-1.4062503E-3,4.5624998E-1,1.4249999E-2,-4.580001E-2,1.9E-2,-1.0000003E-3,-1.1250003E-3,2.2799999E-2,-6.8182155E-5,-1.4934501E-3],"categories":[],"categories_nodes":[],"categories_segments":[],"categories_sizes":[],"default_left":[0,0,0,0,0,0,0,0,0,0,0,0,0,0,0,0,0,0,0,0,0,0,0,0,0,0,0,0,0,0,0,0,0,0,0,0,0,0,0,0,0,0,0,0,0,0,0,0,0],"id":11,"left_children":[1,3,5,7,9,11,13,-1,15,17,19,21,23,-1,25,-1,-1,27,29,-1,31,-1,-1,33,-1,-1,-1,-1,-1,35,-1,-1,37,-1,-1,39,41,-1,43,-1,45,-1,47,-1,-1,-1,-1,-1,-1],"loss_changes":[6.316352E0,1.1872376E0,8.338563E0,1.9694988E0,3.245294E-1,1.2205517E0,2.809204E0,0E0,1.8994286E0,1.6917872E-1,2.0348818E0,5.263021E-1,1.0915E0,0E0,8.6888504E-1,0E0,0E0,3.655E-1,9.724188E-2,0E0,2.0429585E0,0E0,0E0,5.4550004E-1,0E0,0E0,0E0,0E0,0E0,5.9332013E-1,0E0,0E0,5.5806065E-1,0E0,0E0,1.3348166E0,5.3641707E-1,0E0,5.5866665E-1,0E0,1.2283126E0,0E0,4.321456E-2,0E0,0E0,0E0,0E0,0E0,0E0],"parents":[2147483647,0,0,1,1,2,2,3,3,4,4,5,5,6,6,8,8,9,9,10,10,11,11,12,12,14,14,17,17,18,18,20,20,23,23,29,29,32,32,35,35,36,36,38,38,40,40,42,42],"right_children":[2,4,6,8,10,12,14,-1,16,18,20,22,24,-1,26,-1,-1,28,30,-1,32,-1,-1,34,-1,-1,-1,-1,-1,36,-1,-1,38,-1,-1,40,42,-1,44,-1,46,-1,48,-1,-1,-1,-1,-1,-1],"split_conditions":[1.6447039E0,2.946391E1,1.56998E1,2.5226948E1,2E4,7.2691523E3,1.9225191E1,-4.1716862E-3,3.2811424E1,3.0541563E-1,2.6532423E1,3.6543858E-1,2.131425E0,-4.8109246E-3,2.0367717E2,7.380748E-2,-4.5490265E-6,2.9825785E-3,8.842061E1,-3.8121086E-2,8.705849E0,-4.442495E-3,3.6924933E-3,4.119633E1,-2.2836113E-3,-5.2103517E-4,1.7069492E-1,2.3497867E-3,-1.1528635E-3,6.9402826E-1,-4.63933E-2,5.749058E-2,6.3511217E-1,1.1211407E-1,-4.148461E-1,3.0305447E1,4.0368497E-2,-1.1563253E-3,1.2705716E0,-2.280643E-2,5.5425876E-1,5.64394E-4,3.427828E-2,3.589382E-2,-3.276143E-3,-7.907867E-4,3.1910546E-2,4.3418095E-4,-2.7608413E-2],"split_indices":[2,50,6,0,42,12,0,0,0,46,0,19,2,0,20,0,0,4,29,0,30,0,0,0,0,0,0,0,0,47,0,0,2,0,0,0,43,0,2,0,7,0,49,0,0,0,0,0,0],"split_type":[0,0,0,0,0,0,0,0,0,0,0,0,0,0,0,0,0,0,0,0,0,0,0,0,0,0,0,0,0,0,0,0,0,0,0,0,0,0,0,0,0,0,0,0,0,0,0,0,0],"sum_hessian":[1.288E3,1.206E3,8.2E1,2.6E1,1.18E3,5.7E1,2.5E1,1.6E1,1E1,1.07E3,1.1E2,4.8E1,9E0,4E0,2.1E1,6E0,4E0,5E0,1.065E3,9.1E1,1.9E1,4.7E1,1E0,5E0,4E0,1E0,2E1,1E0,4E0,2.72E2,7.93E2,5E0,1.4E1,4E0,1E0,2.2E1,2.5E2,1E1,4E0,1.5E1,7E0,1E0,2.49E2,2E0,2E0,3E0,4E0,2.1E1,2.28E2],"tree_param":{"num_deleted":"0","num_feature":"56","num_nodes":"49","size_leaf_vector":"1"}},{"base_weights":[-1.5826235E-2,-3.3388577E-2,2.3975903E-1,1.7407407E-1,-3.8103316E-2,3.7068956E-2,6.826923E-1,-1.411765E-3,5E-1,-4.341738E-2,1.3513502E-2,-2.857144E-2,3.55E-1,8.5714287E-1,-1.2500002E-3,2.442857E-2,-1.2000003E-3,1.2499999E-1,-4.4324588E-2,-1.4836959E-3,3.0249998E-1,-1.4687503E-3,1.4249999E-2,6.25E-1,-1.2000003E-3,-7.500002E-4,2.7074998E-2,1.4249999E-2,-1.2000003E-3,-2.783884E-2,-1.4981112E-3,2.3749998E-2,8.666666E-2,2.2799999E-2,-7.500002E-4,1.4249999E-2,-3.1433836E-2,-1.3636367E-3,3.5999998E-1,1.4249999E-2,-3.505536E-2,1.9E-2,-1.0000003E-3,-1.1573037E-3,4.7999998E-3],"categories":[],"categories_nodes":[],"categories_segments":[],"categories_sizes":[],"default_left":[0,0,0,0,0,0,0,0,0,0,0,0,0,0,0,0,0,0,0,0,0,0,0,0,0,0,0,0,0,0,0,0,0,0,0,0,0,0,0,0,0,0,0,0,0],"id":12,"left_children":[1,3,5,7,9,11,13,-1,15,17,19,21,23,25,-1,-1,-1,27,29,-1,31,-1,-1,33,-1,-1,-1,-1,-1,35,-1,-1,37,-1,-1,-1,39,-1,41,-1,43,-1,-1,-1,-1],"loss_changes":[5.7939086E0,1.1872376E0,7.426283E0,1.9694988E0,3.245294E-1,1.2205517E0,3.3212004E0,0E0,1.8994286E0,1.6917872E-1,2.0348818E0,5.263021E-1,1.0915E0,8.628025E-1,0E0,0E0,0E0,3.655E-1,9.724188E-2,0E0,2.0429585E0,0E0,0E0,5.4550004E-1,0E0,0E0,0E0,0E0,0E0,5.084341E-1,0E0,0E0,5.5806065E-1,0E0,0E0,0E0,5.1551664E-1,0E0,5.5866665E-1,0E0,1.9231498E-1,0E0,0E0,0E0,0E0],"parents":[2147483647,0,0,1,1,2,2,3,3,4,4,5,5,6,6,8,8,9,9,10,10,11,11,12,12,13,13,17,17,18,18,20,20,23,23,29,29,32,32,36,36,38,38,40,40],"right_children":[2,4,6,8,10,12,14,-1,16,18,20,22,24,26,-1,-1,-1,28,30,-1,32,-1,-1,34,-1,-1,-1,-1,-1,36,-1,-1,38,-1,-1,-1,40,-1,42,-1,44,-1,-1,-1,-1],"split_conditions":[1.6447039E0,2.946391E1,1.56998E1,2.5226948E1,2E4,7.2691523E3,2.8017512E-1,-4.0465305E-3,3.2811424E1,3.0541563E-1,2.6532423E1,3.6543858E-1,2.131425E0,2.0367717E2,-3.8223265E-5,7.159326E-2,-4.4059752E-6,2.9825785E-3,8.842061E1,-3.6977448E-2,8.705849E0,-4.309214E-3,3.5817146E-3,4.119633E1,-2.215104E-3,-5.053997E-4,1.6741481E-1,2.2792912E-3,-1.1182737E-3,4.0368497E-2,-4.50015E-2,5.576587E-2,6.3511217E-1,1.08750656E-1,-4.0240073E-1,5.4745673E-4,9.205737E-2,-1.1216354E-3,1.2705716E0,3.0953234E-2,2.4492199E1,3.4817003E-2,-3.1778526E-3,-1.4527522E-2,1.0691886E-2],"split_indices":[2,50,6,0,42,12,15,0,0,46,0,19,2,20,0,0,0,4,29,0,30,0,0,0,0,0,0,0,0,43,0,0,2,0,0,0,45,0,2,0,31,0,0,0,0],"split_type":[0,0,0,0,0,0,0,0,0,0,0,0,0,0,0,0,0,0,0,0,0,0,0,0,0,0,0,0,0,0,0,0,0,0,0,0,0,0,0,0,0,0,0,0,0],"sum_hessian":[1.288E3,1.206E3,8.2E1,2.6E1,1.18E3,5.7E1,2.5E1,1.6E1,1E1,1.07E3,1.1E2,4.8E1,9E0,2E1,5E0,6E0,4E0,5E0,1.065E3,9.1E1,1.9E1,4.7E1,1E0,5E0,4E0,1E0,1.9E1,1E0,4E0,2.72E2,7.93E2,5E0,1.4E1,4E0,1E0,1E0,2.71E2,1E1,4E0,1E0,2.7E2,2E0,2E0,2.66E2,4E0],"tree_param":{"num_deleted":"0","num_feature":"56","num_nodes":"45","size_leaf_vector":"1"}},{"base_weights":[-1.4274644E-2,-3.173158E-2,2.3975903E-1,1.7407407E-1,-3.6409833E-2,3.7068956E-2,6.826923E-1,-1.411765E-3,5E-1,-4.765983E-2,-4.084979E-3,-2.857144E-2,3.55E-1,8.5714287E-1,-1.2500002E-3,2.442857E-2,-1.2000003E-3,2.1249999E-1,-4.879726E-2,-2.482144E-2,2.111111E-1,-1.4687503E-3,1.4249999E-2,6.25E-1,-1.2000003E-3,-7.500002E-4,2.7074998E-2,1.4249999E-2,-1.0000003E-3,-4.000001E-2,-1.4980497E-3,1.7777777E-1,-3.1433836E-2,1.9999988E-2,4.153846E-1,2.2799999E-2,-7.500002E-4,-1.4851488E-3,1.6E-1,4.6249998E-1,-1.2500002E-3,1.7333321E-2,-1.4924245E-3,1.4249999E-2,-1.3928575E-3,7.0625E-1,-1.2500002E-3,-1.1250003E-3,1.4249999E-2,-7.500002E-4,1.9E-2,-8.21919E-3,1.9E-2,-7.500002E-4,2.442857E-2,5.333333E-3,-1.0153849E-3],"categories":[],"categories_nodes":[],"categories_segments":[],"categories_sizes":[],"default_left":[0,0,0,0,0,0,0,0,0,0,0,0,0,0,0,0,0,0,0,0,0,0,0,0,0,0,0,0,0,0,0,0,0,0,0,0,0,0,0,0,0,0,0,0,0,0,0,0,0,0,0,0,0,0,0,0,0],"id":13,"left_children":[1,3,5,7,9,11,13,-1,15,17,19,21,23,25,-1,-1,-1,27,29,31,33,-1,-1,35,-1,-1,-1,-1,-1,37,-1,39,41,43,45,-1,-1,-1,47,49,-1,51,-1,-1,-1,53,-1,-1,-1,-1,-1,55,-1,-1,-1,-1,-1],"loss_changes":[5.72387E0,1.1684515E0,7.426283E0,1.9694988E0,4.2928112E-1,1.2205517E0,3.3212004E0,0E0,1.8994286E0,2.6959062E-1,1.3707361E0,5.263021E-1,1.0915E0,8.628025E-1,0E0,0E0,0E0,2.7395833E-1,6.740093E-3,3.8069472E-1,1.0457436E0,0E0,0E0,5.4550004E-1,0E0,0E0,0E0,0E0,0E0,2.0752478E-1,0E0,5.815972E-1,2.4378678E-1,4.7542858E-1,1.7576523E0,0E0,0E0,0E0,3.28875E-1,3.489583E-1,0E0,1.1857315E0,0E0,0E0,0E0,6.523659E-1,0E0,0E0,0E0,0E0,0E0,3.5397452E-1,0E0,0E0,0E0,0E0,0E0],"parents":[2147483647,0,0,1,1,2,2,3,3,4,4,5,5,6,6,8,8,9,9,10,10,11,11,12,12,13,13,17,17,18,18,19,19,20,20,23,23,29,29,31,31,32,32,33,33,34,34,38,38,39,39,41,41,45,45,51,51],"right_children":[2,4,6,8,10,12,14,-1,16,18,20,22,24,26,-1,-1,-1,28,30,32,34,-1,-1,36,-1,-1,-1,-1,-1,38,-1,40,42,44,46,-1,-1,-1,48,50,-1,52,-1,-1,-1,54,-1,-1,-1,-1,-1,56,-1,-1,-1,-1,-1],"split_conditions":[1.6447039E0,2.946391E1,1.56998E1,2.5226948E1,7E-1,7.2691523E3,2.8017512E-1,-3.925137E-3,3.2811424E1,3.0541563E-1,3.902439E-3,3.6543858E-1,2.131425E0,2.0367717E2,-3.7078855E-5,6.944547E-2,-4.2772294E-6,1.3233959E-3,4.3355706E-1,3.5045962E-3,3.960549E-1,-4.1799387E-3,3.4742688E-3,4.119633E1,-2.1486569E-3,-4.9023627E-4,1.6239238E-1,2.2109128E-3,-1.0841758E-1,4.300459E-1,-5.488262E-2,5.633729E-1,8.74342E0,1.02552675E-1,1.218768E0,1.0548813E-1,-3.903287E-1,-4.0812876E-2,4.706726E-3,8.66112E0,-2.0430386E-2,8.749434E0,-1.8477276E-2,5.2371025E-3,-1.0444736E-3,1.0273885E1,-1.4895915E-4,-6.6574976E-2,1.1291885E-3,-9.895726E-2,3.0024633E-2,-1.1678282E-1,1.03711225E-2,-6.442163E-2,5.4092888E-2,8.423839E-3,-1.809798E-3],"split_indices":[2,50,6,0,39,12,15,0,0,46,4,19,2,20,0,0,0,2,46,21,2,0,0,0,0,0,0,0,0,46,0,7,30,19,47,0,0,0,5,0,0,33,0,0,0,0,0,0,0,0,0,18,0,0,0,0,0],"split_type":[0,0,0,0,0,0,0,0,0,0,0,0,0,0,0,0,0,0,0,0,0,0,0,0,0,0,0,0,0,0,0,0,0,0,0,0,0,0,0,0,0,0,0,0,0,0,0,0,0,0,0,0,0,0,0,0,0],"sum_hessian":[1.288E3,1.206E3,8.2E1,2.6E1,1.18E3,5.7E1,2.5E1,1.6E1,1E1,8.75E2,3.05E2,4.8E1,9E0,2E1,5E0,6E0,4E0,3E0,8.72E2,2.79E2,2.6E1,4.7E1,1E0,5E0,4E0,1E0,1.9E1,1E0,2E0,1.04E2,7.68E2,8E0,2.71E2,1.4E1,1.2E1,4E0,1E0,1E2,4E0,3E0,5E0,7.4E1,1.97E2,1E0,1.3E1,7E0,5E0,3E0,1E0,1E0,2E0,7.2E1,2E0,1E0,6E0,8E0,6.4E1],"tree_param":{"num_deleted":"0","num_feature":"56","num_nodes":"57","size_leaf_vector":"1"}},{"base_weights":[-1.3498848E-2,-3.0903077E-2,2.3975903E-1,1.7407407E-1,-3.5563093E-2,3.7068956E-2,6.826923E-1,-1.411765E-3,5E-1,-4.8674256E-2,-8.846166E-3,-2.857144E-2,3.55E-1,8.5714287E-1,-1.2500002E-3,2.442857E-2,-1.2000003E-3,-3.6363646E-2,-1.4979054E-3,-2.5606481E-2,3.0249998E-1,-1.4687503E-3,1.4249999E-2,6.25E-1,-1.2000003E-3,-7.500002E-4,2.7074998E-2,-1.4794524E-3,1.6E-1,2.3577224E-2,-1.4939762E-3,2.3749998E-2,8.666666E-2,2.2799999E-2,-7.500002E-4,-1.1250003E-3,1.4249999E-2,2.5652173E-1,-2.9702982E-2,-1.3636367E-3,3.5999998E-1,7.058822E-2,6.7142856E-1,2.9999998E-1,-3.939395E-2,1.9E-2,-1.0000003E-3,1.0799999E-2,-1.3846157E-3,2.3749998E-2,-7.500002E-4,1.4249999E-2,-7.500002E-4,-1.4842108E-3,4.7999998E-3],"categories":[],"categories_nodes":[],"categories_segments":[],"categories_sizes":[],"default_left":[0,0,0,0,0,0,0,0,0,0,0,0,0,0,0,0,0,0,0,0,0,0,0,0,0,0,0,0,0,0,0,0,0,0,0,0,0,0,0,0,0,0,0,0,0,0,0,0,0,0,0,0,0,0,0],"id":14,"left_children":[1,3,5,7,9,11,13,-1,15,17,19,21,23,25,-1,-1,-1,27,-1,29,31,-1,-1,33,-1,-1,-1,-1,35,37,-1,-1,39,-1,-1,-1,-1,41,43,-1,45,47,49,51,53,-1,-1,-1,-1,-1,-1,-1,-1,-1,-1],"loss_changes":[5.689009E0,1.1591134E0,7.426283E0,1.9694988E0,4.132619E-1,1.2205517E0,3.3212004E0,0E0,1.8994286E0,1.0429621E-2,2.0428672E0,5.263021E-1,1.0915E0,8.628025E-1,0E0,0E0,0E0,2.0371605E-1,0E0,4.4262254E-1,2.0429585E0,0E0,0E0,5.4550004E-1,0E0,0E0,0E0,0E0,3.28875E-1,1.5342132E0,0E0,0E0,5.5806065E-1,0E0,0E0,0E0,0E0,1.726942E0,3.3452743E-1,0E0,5.5866665E-1,5.909864E-1,6.059525E-1,1.825E-1,2.0688996E-1,0E0,0E0,0E0,0E0,0E0,0E0,0E0,0E0,0E0,0E0],"parents":[2147483647,0,0,1,1,2,2,3,3,4,4,5,5,6,6,8,8,9,9,10,10,11,11,12,12,13,13,17,17,19,19,20,20,23,23,28,28,29,29,32,32,37,37,38,38,40,40,41,41,42,42,43,43,44,44],"right_children":[2,4,6,8,10,12,14,-1,16,18,20,22,24,26,-1,-1,-1,28,-1,30,32,-1,-1,34,-1,-1,-1,-1,36,38,-1,-1,40,-1,-1,-1,-1,42,44,-1,46,48,50,52,54,-1,-1,-1,-1,-1,-1,-1,-1,-1,-1],"split_conditions":[1.6447039E0,2.946391E1,1.56998E1,2.5226948E1,2.6695808E1,7.2691523E3,2.8017512E-1,-3.8073778E-3,3.2811424E1,4.3355706E-1,2E4,3.6543858E-1,2.131425E0,2.0367717E2,-3.5963058E-5,6.73621E-2,-4.148483E-6,4.300459E-1,-4.7491785E-2,6.0060922E-2,8.705849E0,-4.0545403E-3,3.3700417E-3,4.119633E1,-2.084198E-3,-4.755306E-4,1.575206E-1,-4.0223785E-2,1.5429657E1,8.499785E0,-1.09120786E-1,5.2470103E-2,6.3511217E-1,1.0232348E-1,-3.7861884E-1,-6.457772E-2,1.095314E-3,5.5425876E-1,9.6091986E-1,-1.0566616E-3,1.2705716E0,6.915646E-2,3.907475E1,3.0434574E1,3.907475E1,3.21497E-2,-3.07806E-3,1.018567E-3,-2.7696133E-4,2.9123897E-2,-1.9817468E-2,2.788496E-4,-3.645102E-2,-1.50554245E-2,1.0059986E-2],"split_indices":[2,50,6,0,0,12,15,0,0,46,42,19,2,20,0,0,0,46,0,10,30,0,0,0,0,0,0,0,0,30,0,0,2,0,0,0,0,7,16,0,2,43,0,0,0,0,0,0,0,0,0,0,0,0,0],"split_type":[0,0,0,0,0,0,0,0,0,0,0,0,0,0,0,0,0,0,0,0,0,0,0,0,0,0,0,0,0,0,0,0,0,0,0,0,0,0,0,0,0,0,0,0,0,0,0,0,0,0,0,0,0,0,0],"sum_hessian":[1.288E3,1.206E3,8.2E1,2.6E1,1.18E3,5.7E1,2.5E1,1.6E1,1E1,7.91E2,3.89E2,4.8E1,9E0,2E1,5E0,6E0,4E0,7.6E1,7.15E2,3.7E2,1.9E1,4.7E1,1E0,5E0,4E0,1E0,1.9E1,7.2E1,4E0,1.22E2,2.48E2,5E0,1.4E1,4E0,1E0,3E0,1E0,2.2E1,1E2,1E1,4E0,1.6E1,6E0,2E0,9.8E1,2E0,2E0,4E0,1.2E1,5E0,1E0,1E0,1E0,9.4E1,4E0],"tree_param":{"num_deleted":"0","num_feature":"56","num_nodes":"55","size_leaf_vector":"1"}},{"base_weights":[-1.5826235E-2,-4.007189E-2,1.3672315E-1,2.9213471E-2,-4.6048794E-2,4.5873016E-1,-4.086958E-2,-1.2048311E-3,3.8571426E-1,1.6E-1,-4.7012746E-2,1.9999988E-2,5.836735E-1,-1.4868424E-3,1.4249999E-2,8.965516E-2,-1.4727276E-3,2.1374999E-2,-1.1250003E-3,1.4249999E-2,-1.1250003E-3,-3.2017555E-2,-4.8843626E-2,-1.3928575E-3,1.4249999E-2,3.3653846E-1,8.2708335E-1,2.5925914E-2,1.9E-2,-1.4859816E-3,2.0624998E-1,-3.1578958E-2,-1.4982398E-3,2.499999E-2,6.461538E-1,2.7142856E-2,2.1249999E-1,2.0624998E-1,-1.4250003E-3,4.6249998E-1,-1.2000003E-3,-1.4711542E-3,1.2499999E-1,1.4249999E-2,-1.3846157E-3,-7.500002E-4,7.0416665E-1,1.4249999E-2,-1.0000003E-3,-1.2500002E-3,1.9E-2,-7.500002E-4,1.9E-2,-1.2000003E-3,1.4249999E-2,2.1249999E-1,2.5333334E-2,-1.0000003E-3,1.4249999E-2],"categories":[],"categories_nodes":[],"categories_segments":[],"categories_sizes":[],"default_left":[0,0,0,0,0,0,0,0,0,0,0,0,0,0,0,0,0,0,0,0,0,0,0,0,0,0,0,0,0,0,0,0,0,0,0,0,0,0,0,0,0,0,0,0,0,0,0,0,0,0,0,0,0,0,0,0,0,0,0],"id":15,"left_children":[1,3,5,7,9,11,13,15,17,19,21,23,25,-1,-1,27,-1,-1,-1,-1,-1,29,31,-1,-1,33,35,37,-1,-1,39,41,-1,43,45,-1,47,49,-1,51,-1,-1,53,-1,-1,-1,55,-1,-1,-1,-1,-1,-1,-1,-1,57,-1,-1,-1],"loss_changes":[4.7730513E0,4.6225154E-1,1.0140689E1,9.65594E-1,2.1110892E-1,3.441759E0,5.39185E-1,3.6552843E-1,9.948214E-1,3.28875E-1,2.6467085E-2,4.7542858E-1,2.6692562E0,0E0,0E0,9.8837805E-1,0E0,0E0,0E0,0E0,0E0,4.8597184E-1,1.563096E-2,0E0,0E0,2.4917307E0,9.5349693E-1,3.6728936E-1,0E0,0E0,5.2331257E-1,1.6195598E-1,0E0,4.701923E-1,5.2376604E-1,0E0,2.7395833E-1,8.734374E-1,0E0,3.489583E-1,0E0,0E0,3.655E-1,0E0,0E0,0E0,6.481943E-1,0E0,0E0,0E0,0E0,0E0,0E0,0E0,0E0,2.7395833E-1,0E0,0E0,0E0],"parents":[2147483647,0,0,1,1,2,2,3,3,4,4,5,5,6,6,7,7,8,8,9,9,10,10,11,11,12,12,15,15,21,21,22,22,25,25,26,26,27,27,30,30,31,31,33,33,34,34,36,36,37,37,39,39,42,42,46,46,55,55],"right_children":[2,4,6,8,10,12,14,16,18,20,22,24,26,-1,-1,28,-1,-1,-1,-1,-1,30,32,-1,-1,34,36,38,-1,-1,40,42,-1,44,46,-1,48,50,-1,52,-1,-1,54,-1,-1,-1,56,-1,-1,-1,-1,-1,-1,-1,-1,58,-1,-1,-1],"split_conditions":[2E4,4.015583E-2,5.408133E-3,1.5289905E0,3.0541563E-1,4.370025E3,3.8448188E-1,1.0536462E2,2.131425E0,2.9825785E-3,4.3355706E-1,6.0581703E-2,6.011545E-2,-2.0613559E-2,3.2689476E-3,1.01771355E2,-1.2421347E-3,9.925377E-2,-2.0216703E-3,1.2708664E-3,-7.730644E-2,4.2659172E-1,-1.2375094E-1,-2.5573825E-3,4.1160107E-4,3.489605E1,1.0938852E0,1.9391415E1,2.8250184E-2,-2.932266E-2,2.3906078E1,-1.2488432E-1,-4.975606E-2,2.7138498E1,4.7329122E-1,1.5095425E-1,2.3784958E1,1.7213303E1,-1.5034819E-3,1.5429657E1,-1.5342236E-4,-5.348519E-2,2.207022E1,1.4218668E-2,-4.019737E-6,-4.203844E-4,1.4224634E-1,3.7504677E-2,-3.4890174E-5,-5.364282E-2,8.676338E-4,-6.264039E-2,9.758191E-3,-6.3537195E-2,7.2974106E-3,3.7191853E1,6.534123E-2,-1.0249615E-3,3.1185206E-2],"split_indices":[42,10,5,2,46,12,19,54,2,4,46,17,15,0,0,54,0,0,0,0,0,46,18,0,0,26,14,31,0,0,1,18,0,0,7,0,0,0,0,0,0,0,0,0,0,0,45,0,0,0,0,0,0,0,0,0,0,0,0],"split_type":[0,0,0,0,0,0,0,0,0,0,0,0,0,0,0,0,0,0,0,0,0,0,0,0,0,0,0,0,0,0,0,0,0,0,0,0,0,0,0,0,0,0,0,0,0,0,0,0,0,0,0,0,0,0,0,0,0,0,0],"sum_hessian":[1.288E3,1.112E3,1.76E2,8.8E1,1.024E3,6.2E1,1.14E2,8.2E1,6E0,4E0,1.02E3,1.4E1,4.8E1,1.13E2,1E0,2.8E1,5.4E1,3E0,3E0,1E0,3E0,1.13E2,9.07E2,1.3E1,1E0,2.5E1,2.3E1,2.6E1,2E0,1.06E2,7E0,5.6E1,8.51E2,1.3E1,1.2E1,2E1,3E0,7E0,1.9E1,3E0,4E0,5.1E1,5E0,1E0,1.2E1,1E0,1.1E1,1E0,2E0,5E0,2E0,1E0,2E0,4E0,1E0,3E0,8E0,2E0,1E0],"tree_param":{"num_deleted":"0","num_feature":"56","num_nodes":"59","size_leaf_vector":"1"}},{"base_weights":[-1.5050438E-2,-3.173158E-2,2.2771083E-1,-4.1597042E-2,4.9618308E-2,-2.8125012E-2,5.625E-1,1.2499999E-1,-4.2490683E-2,-3.9705895E-2,3.5166666E-1,-1.4680853E-3,1.4249999E-2,2.0312499E-1,8.095238E-1,1.4249999E-2,-1.2000003E-3,-6.0976786E-4,-4.591323E-2,-1.4851488E-3,1.4249999E-2,2.49375E-2,1.695652E-1,2.1374999E-2,3.076922E-2,2.6916666E-2,2.1249999E-1,8.965516E-2,-1.4722226E-3,-4.7805153E-2,-1.4655184E-2,1.5624989E-2,4.5624998E-1,1.4249999E-2,-1.3750003E-3,1.4249999E-2,-1.0000003E-3,2.5925914E-2,1.9E-2,-1.4979455E-3,-4.000001E-2,-3.1578958E-2,1.4249999E-2,1.4249999E-2,-1.4000003E-3,2.2799999E-2,-1.1250003E-3,2.0624998E-1,-1.4250003E-3,1.2499999E-1,-4.4750012E-2,1.4249999E-2,-1.4732146E-3,-1.2500002E-3,1.9E-2,-1.2000003E-3,1.4249999E-2,5.999996E-4,-1.4919358E-3],"categories":[],"categories_nodes":[],"categories_segments":[],"categories_sizes":[],"default_left":[0,0,0,0,0,0,0,0,0,0,0,0,0,0,0,0,0,0,0,0,0,0,0,0,0,0,0,0,0,0,0,0,0,0,0,0,0,0,0,0,0,0,0,0,0,0,0,0,0,0,0,0,0,0,0,0,0,0,0],"id":16,"left_children":[1,3,5,7,9,11,13,15,17,19,21,-1,-1,23,25,-1,-1,27,29,-1,-1,-1,31,-1,33,-1,35,37,-1,39,41,43,45,-1,-1,-1,-1,47,-1,-1,49,51,-1,-1,-1,-1,-1,53,-1,55,57,-1,-1,-1,-1,-1,-1,-1,-1],"loss_changes":[5.2270756E0,9.70747E-1,7.1248584E0,1.6565335E-1,3.5483732E0,5.2583444E-1,3.031437E0,3.655E-1,1.5363169E-1,5.3796595E-1,2.479034E0,0E0,0E0,1.3827763E0,9.088583E-1,0E0,0E0,3.6311927E-1,5.790496E-2,0E0,0E0,0E0,1.0079143E0,0E0,4.6415067E-1,0E0,2.7395833E-1,9.8837805E-1,0E0,1.3504028E-2,4.9563524E-1,4.8001042E-1,1.2283126E0,0E0,0E0,0E0,0E0,3.6728936E-1,0E0,0E0,1.6626248E-1,5.2945256E-1,0E0,0E0,0E0,0E0,0E0,8.734374E-1,0E0,3.655E-1,6.5500945E-2,0E0,0E0,0E0,0E0,0E0,0E0,0E0,0E0],"parents":[2147483647,0,0,1,1,2,2,3,3,4,4,5,5,6,6,7,7,8,8,9,9,10,10,13,13,14,14,17,17,18,18,22,22,24,24,26,26,27,27,29,29,30,30,31,31,32,32,37,37,40,40,41,41,47,47,49,49,50,50],"right_children":[2,4,6,8,10,12,14,16,18,20,22,-1,-1,24,26,-1,-1,28,30,-1,-1,-1,32,-1,34,-1,36,38,-1,40,42,44,46,-1,-1,-1,-1,48,-1,-1,50,52,-1,-1,-1,-1,-1,54,-1,56,58,-1,-1,-1,-1,-1,-1,-1,-1],"split_conditions":[1.6447039E0,2E4,4.9224487E3,3.0541563E-1,2.573267E1,3.6543858E-1,1.56998E1,2.9825785E-3,4.015583E-2,9.3287684E-2,7.699192E0,-3.2177249E-3,3.170886E-3,2.7619387E1,1.0938852E0,1.2327433E-3,-1.2918663E-3,1.0536462E2,4.828237E-1,-2.2055708E-2,3.9925575E-4,6.3381E-2,6.3511217E-1,9.6276164E-2,-1.24797955E-1,1.4826638E-1,2.3784958E1,1.01771355E2,-1.4669099E-3,2.8454263E2,3.332262E1,1.02552675E-1,1.0923864E0,1.0876894E-3,-1.9610166E-3,3.637954E-2,-3.38459E-5,1.9391415E1,2.7402677E-2,-4.9605202E-2,2.869211E2,4.0368497E-2,9.465451E-3,1.5456533E-3,-3.905296E-6,3.0249652E-2,-1.3913155E-4,1.7213303E1,-1.4583778E-3,4.994469E-3,-1.2375094E-1,8.388662E-4,-2.4580482E-2,-5.2033536E-2,8.415985E-4,-2.228467E-1,7.697153E-4,7.0784856E-3,-3.6735423E-2],"split_indices":[2,42,12,46,0,19,6,4,10,17,32,0,0,52,14,0,0,54,48,0,0,0,2,0,17,0,0,54,0,54,0,19,47,0,0,0,0,31,0,0,54,43,0,0,0,0,0,0,0,5,18,0,0,0,0,0,0,0,0],"split_type":[0,0,0,0,0,0,0,0,0,0,0,0,0,0,0,0,0,0,0,0,0,0,0,0,0,0,0,0,0,0,0,0,0,0,0,0,0,0,0,0,0,0,0,0,0,0,0,0,0,0,0,0,0,0,0,0,0,0,0],"sum_hessian":[1.288E3,1.206E3,8.2E1,1.076E3,1.3E2,4.7E1,3.5E1,5E0,1.071E3,1.01E2,2.9E1,4.6E1,1E0,1.5E1,2E1,1E0,4E0,8.1E1,9.9E2,1E2,1E0,7E0,2.2E1,3E0,1.2E1,1.7E1,3E0,2.8E1,5.3E1,9.33E2,5.7E1,1.5E1,7E0,1E0,1.1E1,1E0,2E0,2.6E1,2E0,7.29E2,2.04E2,5.6E1,1E0,1E0,1.4E1,4E0,3E0,7E0,1.9E1,5E0,1.99E2,1E0,5.5E1,5E0,2E0,4E0,1E0,1.4E1,1.85E2],"tree_param":{"num_deleted":"0","num_feature":"56","num_nodes":"59","size_leaf_vector":"1"}},{"base_weights":[-1.5050438E-2,-3.173158E-2,2.2771083E-1,-4.1597042E-2,4.9618308E-2,-2.8125012E-2,5.625E-1,1.2499999E-1,-4.2490683E-2,-3.9705895E-2,3.5166666E-1,-1.4680853E-3,1.4249999E-2,2.0312499E-1,8.095238E-1,1.4249999E-2,-1.2000003E-3,-3.1365752E-2,-1.4976602E-3,-1.4851488E-3,1.4249999E-2,2.49375E-2,1.695652E-1,2.1374999E-2,3.076922E-2,2.6916666E-2,2.1249999E-1,1.7777777E-1,-3.5731144E-2,1.5624989E-2,4.5624998E-1,1.4249999E-2,-1.3750003E-3,1.4249999E-2,-1.0000003E-3,4.6249998E-1,-1.2500002E-3,3.265305E-2,-4.4547886E-2,1.4249999E-2,-1.4000003E-3,2.2799999E-2,-1.1250003E-3,-7.500002E-4,1.9E-2,-1.4659094E-3,6.25E-1,-4.7185E-2,2.1249999E-1,-7.500002E-4,2.2799999E-2,1.5789439E-4,-1.495775E-3,-1.0000003E-3,1.4249999E-2],"categories":[],"categories_nodes":[],"categories_segments":[],"categories_sizes":[],"default_left":[0,0,0,0,0,0,0,0,0,0,0,0,0,0,0,0,0,0,0,0,0,0,0,0,0,0,0,0,0,0,0,0,0,0,0,0,0,0,0,0,0,0,0,0,0,0,0,0,0,0,0,0,0,0,0],"id":17,"left_children":[1,3,5,7,9,11,13,15,17,19,21,-1,-1,23,25,-1,-1,27,-1,-1,-1,-1,29,-1,31,-1,33,35,37,39,41,-1,-1,-1,-1,43,-1,45,47,-1,-1,-1,-1,-1,-1,-1,49,51,53,-1,-1,-1,-1,-1,-1],"loss_changes":[5.2270756E0,9.70747E-1,7.1248584E0,1.6565335E-1,3.5483732E0,5.2583444E-1,3.031437E0,3.655E-1,8.70595E-2,5.3796595E-1,2.479034E0,0E0,0E0,1.3827763E0,9.088583E-1,0E0,0E0,4.0076533E-1,0E0,0E0,0E0,0E0,1.0079143E0,0E0,4.6415067E-1,0E0,2.7395833E-1,5.815972E-1,2.570951E-1,4.8001042E-1,1.2283126E0,0E0,0E0,0E0,0E0,3.489583E-1,0E0,2.3965619E0,2.6490396E-1,0E0,0E0,0E0,0E0,0E0,0E0,0E0,5.4550004E-1,5.2577615E-2,2.7395833E-1,0E0,0E0,0E0,0E0,0E0,0E0],"parents":[2147483647,0,0,1,1,2,2,3,3,4,4,5,5,6,6,7,7,8,8,9,9,10,10,13,13,14,14,17,17,22,22,24,24,26,26,27,27,28,28,29,29,30,30,35,35,37,37,38,38,46,46,47,47,48,48],"right_children":[2,4,6,8,10,12,14,16,18,20,22,-1,-1,24,26,-1,-1,28,-1,-1,-1,-1,30,-1,32,-1,34,36,38,40,42,-1,-1,-1,-1,44,-1,46,48,-1,-1,-1,-1,-1,-1,-1,50,52,54,-1,-1,-1,-1,-1,-1],"split_conditions":[1.6447039E0,2E4,4.9224487E3,3.0541563E-1,2.573267E1,3.6543858E-1,1.56998E1,2.9825785E-3,6.408547E-1,9.3287684E-2,7.699192E0,-3.121194E-3,3.075757E-3,2.7619387E1,1.0938852E0,1.1957645E-3,-1.2531137E-3,3.5045962E-3,-6.691337E-2,-2.1394039E-2,3.8728237E-4,6.147956E-2,6.3511217E-1,9.338788E-2,-1.24797955E-1,1.4381838E-1,2.3784958E1,5.633729E-1,4.3355706E-1,1.02552675E-1,1.0923864E0,1.0550594E-3,-1.9021797E-3,3.5288155E-2,-3.2830238E-5,8.66112E0,-1.9141681E-2,4.2659172E-1,5.125101E-1,1.4992905E-3,-3.7908553E-6,2.9342165E-2,-1.3495445E-4,-9.448253E-2,2.658059E-2,-3.011682E-3,1.7163694E1,-1.2375094E-1,1.9573965E1,-2.419622E-2,9.181495E-3,6.866126E-3,-1.4742543E-2,-4.1105304E-2,8.137035E-4],"split_indices":[2,42,12,46,0,19,6,4,13,17,32,0,0,52,14,0,0,21,0,0,0,0,2,0,17,0,0,7,46,19,47,0,0,0,0,0,0,46,48,0,0,0,0,0,0,0,1,18,0,0,0,0,0,0,0],"split_type":[0,0,0,0,0,0,0,0,0,0,0,0,0,0,0,0,0,0,0,0,0,0,0,0,0,0,0,0,0,0,0,0,0,0,0,0,0,0,0,0,0,0,0,0,0,0,0,0,0,0,0,0,0,0,0],"sum_hessian":[1.288E3,1.206E3,8.2E1,1.076E3,1.3E2,4.7E1,3.5E1,5E0,1.071E3,1.01E2,2.9E1,4.6E1,1E0,1.5E1,2E1,1E0,4E0,4.31E2,6.4E2,1E2,1E0,7E0,2.2E1,3E0,1.2E1,1.7E1,3E0,8E0,4.23E2,1.5E1,7E0,1E0,1.1E1,1E0,2E0,3E0,5E0,4.8E1,3.75E2,1E0,1.4E1,4E0,3E0,1E0,2E0,4.3E1,5E0,3.72E2,3E0,1E0,4E0,1.8E1,3.54E2,2E0,1E0],"tree_param":{"num_deleted":"0","num_feature":"56","num_nodes":"55","size_leaf_vector":"1"}},{"base_weights":[-1.6602028E-2,-3.2560077E-2,2.1566264E-1,-4.1597042E-2,4.1984722E-2,-2.8125012E-2,5.347222E-1,1.2499999E-1,-4.2490683E-2,-3.9705895E-2,3.1833333E-1,-1.4680853E-3,1.4249999E-2,5.499999E-2,6.9259256E-1,1.4249999E-2,-1.2000003E-3,-1.2592604E-2,-4.674841E-2,-1.4851488E-3,1.4249999E-2,9.523808E-2,7.55E-1,1.4249999E-2,-1.3333337E-3,8.095238E-1,2.4285713E-1,-1.4870693E-3,2.0249999E-1,-1.1353266E-8,-4.7766898E-2,5.2631465E-3,1.9E-2,2.5333334E-2,-7.500002E-4,2.6916666E-2,2.1249999E-1,-1.2000003E-3,1.9E-2,-1.3928575E-3,6.7142856E-1,1.4249999E-2,-1.4250003E-3,-3.1018531E-2,-1.4981508E-3,1.4249999E-2,-1.416667E-3,1.4249999E-2,-1.0000003E-3,-7.500002E-4,2.3749998E-2,-1.4850002E-3,1.7777777E-1,-1.2500002E-3,1.3874999E-2],"categories":[],"categories_nodes":[],"categories_segments":[],"categories_sizes":[],"default_left":[0,0,0,0,0,0,0,0,0,0,0,0,0,0,0,0,0,0,0,0,0,0,0,0,0,0,0,0,0,0,0,0,0,0,0,0,0,0,0,0,0,0,0,0,0,0,0,0,0,0,0,0,0,0,0],"id":18,"left_children":[1,3,5,7,9,11,13,15,17,19,21,-1,-1,23,25,-1,-1,27,29,-1,-1,31,33,-1,-1,35,37,-1,39,41,43,45,-1,-1,-1,-1,47,-1,-1,-1,49,-1,-1,51,-1,-1,-1,-1,-1,-1,-1,-1,53,-1,-1],"loss_changes":[4.784689E0,8.1485236E-1,6.4710093E0,1.6565335E-1,2.969976E0,5.2583444E-1,2.6883297E0,3.655E-1,1.3587451E-1,5.3796595E-1,2.8506424E0,0E0,0E0,4.3877777E-1,1.22328E0,0E0,0E0,1.0837392E0,4.466057E-2,0E0,0E0,1.0133834E0,7.1877766E-1,0E0,0E0,9.088583E-1,7.9847616E-1,0E0,2.365768E0,4.9637502E-1,3.1837225E-2,4.9086258E-1,0E0,0E0,0E0,0E0,2.7395833E-1,0E0,0E0,0E0,6.059525E-1,0E0,0E0,4.2555743E-1,0E0,0E0,0E0,0E0,0E0,0E0,0E0,0E0,5.815972E-1,0E0,0E0],"parents":[2147483647,0,0,1,1,2,2,3,3,4,4,5,5,6,6,7,7,8,8,9,9,10,10,13,13,14,14,17,17,18,18,21,21,22,22,25,25,26,26,28,28,29,29,30,30,31,31,36,36,40,40,43,43,52,52],"right_children":[2,4,6,8,10,12,14,16,18,20,22,-1,-1,24,26,-1,-1,28,30,-1,-1,32,34,-1,-1,36,38,-1,40,42,44,46,-1,-1,-1,-1,48,-1,-1,-1,50,-1,-1,52,-1,-1,-1,-1,-1,-1,-1,-1,54,-1,-1],"split_conditions":[1.6447039E0,2E4,4.9224487E3,3.0541563E-1,2.573267E1,3.6543858E-1,4.832515E-3,2.9825785E-3,6.9402826E-1,9.3287684E-2,4.1862495E1,-3.0275527E-3,2.983489E-3,-1.24797955E-1,9.211356E0,1.1598873E-3,-1.2155198E-3,5.262104E1,4.0368497E-2,-2.0752212E-2,3.756666E-4,1.0150946E0,5.275367E-1,1.0234022E-3,-1.8997432E-1,1.0938852E0,2.5961048E1,-3.4086313E-2,2.7931553E1,5.805896E-1,4.3355706E-1,-1.1641704E-1,1.2004351E-2,5.9635174E-2,-9.939766E-4,1.3950382E-1,2.3784958E1,-1.1140823E-4,5.471925E-2,-2.3028666E-2,5.275367E-1,7.8929897E-4,-3.8680837E-2,4.2659172E-1,-3.5153076E-2,1.560339E-2,-3.6764145E-6,3.4229506E-2,-3.1843185E-5,-1.1874633E-2,2.5783166E-2,-2.283474E-2,1.3915266E-1,-2.3470337E-2,5.40905E-4],"split_indices":[2,42,12,46,0,19,5,4,47,17,26,0,0,17,30,0,0,26,43,0,0,14,7,0,0,14,3,0,0,7,46,17,0,0,0,0,0,0,0,0,7,0,0,46,0,0,0,0,0,0,0,0,2,0,0],"split_type":[0,0,0,0,0,0,0,0,0,0,0,0,0,0,0,0,0,0,0,0,0,0,0,0,0,0,0,0,0,0,0,0,0,0,0,0,0,0,0,0,0,0,0,0,0,0,0,0,0,0,0,0,0,0,0],"sum_hessian":[1.288E3,1.206E3,8.2E1,1.076E3,1.3E2,4.7E1,3.5E1,5E0,1.071E3,1.01E2,2.9E1,4.6E1,1E0,9E0,2.6E1,1E0,4E0,1.34E2,9.37E2,1E2,1E0,2E1,9E0,1E0,8E0,2E1,6E0,1.15E2,1.9E1,2E1,9.17E2,1.8E1,2E0,8E0,1E0,1.7E1,3E0,4E0,2E0,1.3E1,6E0,1E0,1.9E1,1.07E2,8.1E2,1E0,1.7E1,1E0,2E0,1E0,5E0,9.9E1,8E0,5E0,3E0],"tree_param":{"num_deleted":"0","num_feature":"56","num_nodes":"55","size_leaf_vector":"1"}},{"base_weights":[-1.5050438E-2,-3.0903077E-2,2.1566264E-1,-4.657689E-2,1.32492E-2,-2.8125012E-2,5.347222E-1,2.1249999E-1,-4.7691453E-2,-1.4107155E-2,2.1447368E-1,-1.4680853E-3,1.4249999E-2,5.499999E-2,6.9259256E-1,1.4249999E-2,-1.0000003E-3,5.2631465E-3,-4.8793115E-2,-2.6908409E-2,1.6315788E-1,6.730768E-2,4.923077E-1,1.4249999E-2,-1.3333337E-3,8.095238E-1,2.4285713E-1,-1.416667E-3,1.4249999E-2,-3.9903857E-2,-1.4980447E-3,-3.744857E-2,1.0249999E-1,1.5624989E-2,2.1374999E-2,-6.2500113E-3,1.9E-2,2.0624998E-1,2.3749998E-2,2.6916666E-2,2.1249999E-1,-1.2000003E-3,1.9E-2,-1.4850002E-3,1.6E-1,1.5499999E-1,-4.5512833E-2,-1.4000003E-3,4.583333E-1,1.4249999E-2,-1.4000003E-3,1.4249999E-2,-1.434783E-3,-1.2000003E-3,4.6249998E-1,1.4249999E-2,-1.0000003E-3,-1.1250003E-3,1.4249999E-2,-1.2857146E-3,4.6249998E-1,3.076922E-2,-1.4932436E-3,-1.0000003E-3,2.1374999E-2,-7.500002E-4,1.9E-2,1.9E-2,-7.500002E-4,1.4249999E-2,-1.3750003E-3],"categories":[],"categories_nodes":[],"categories_segments":[],"categories_sizes":[],"default_left":[0,0,0,0,0,0,0,0,0,0,0,0,0,0,0,0,0,0,0,0,0,0,0,0,0,0,0,0,0,0,0,0,0,0,0,0,0,0,0,0,0,0,0,0,0,0,0,0,0,0,0,0,0,0,0,0,0,0,0,0,0,0,0,0,0,0,0,0,0,0,0],"id":19,"left_children":[1,3,5,7,9,11,13,15,17,19,21,-1,-1,23,25,-1,-1,27,29,31,33,35,37,-1,-1,39,41,-1,-1,43,-1,45,47,49,-1,51,-1,53,-1,-1,55,-1,-1,-1,57,59,61,-1,63,-1,-1,-1,-1,-1,65,-1,-1,-1,-1,-1,67,69,-1,-1,-1,-1,-1,-1,-1,-1,-1],"loss_changes":[4.7210674E0,8.359028E-1,6.4710093E0,2.674172E-1,1.7480371E0,5.2583444E-1,2.6883297E0,2.7395833E-1,5.206108E-2,6.3977045E-1,1.5205972E0,0E0,0E0,4.3877777E-1,1.22328E0,0E0,0E0,4.9086258E-1,6.836891E-3,3.6120266E-1,1.5287417E0,1.0864823E0,9.4995975E-1,0E0,0E0,9.088583E-1,7.9847616E-1,0E0,0E0,2.0742407E-1,0E0,3.8417965E-1,1.0829583E0,4.8001042E-1,0E0,5.0292116E-1,0E0,5.2331257E-1,0E0,0E0,2.7395833E-1,0E0,0E0,0E0,3.28875E-1,6.282321E-1,7.760742E-2,0E0,7.7354157E-1,0E0,0E0,0E0,0E0,0E0,3.489583E-1,0E0,0E0,0E0,0E0,0E0,3.489583E-1,4.6415067E-1,0E0,0E0,0E0,0E0,0E0,0E0,0E0,0E0,0E0],"parents":[2147483647,0,0,1,1,2,2,3,3,4,4,5,5,6,6,7,7,8,8,9,9,10,10,13,13,14,14,17,17,18,18,19,19,20,20,21,21,22,22,25,25,26,26,29,29,31,31,32,32,33,33,35,35,37,37,40,40,44,44,45,45,46,46,48,48,54,54,60,60,61,61],"right_children":[2,4,6,8,10,12,14,16,18,20,22,-1,-1,24,26,-1,-1,28,30,32,34,36,38,-1,-1,40,42,-1,-1,44,-1,46,48,50,-1,52,-1,54,-1,-1,56,-1,-1,-1,58,60,62,-1,64,-1,-1,-1,-1,-1,66,-1,-1,-1,-1,-1,68,70,-1,-1,-1,-1,-1,-1,-1,-1,-1],"split_conditions":[1.6447039E0,7E-1,4.9224487E3,3.0541563E-1,3.902439E-3,3.6543858E-1,4.832515E-3,1.3233959E-3,5.4262197E-1,1.6333456E3,4.2807163E1,-2.9367295E-3,2.8939818E-3,-1.24797955E-1,9.211356E0,1.1250973E-3,-1.0141386E-1,5.262104E1,4.3355706E-1,1.8801269E-1,-9.37822E-3,1.0150946E0,-2.8389664E-2,9.927034E-4,-1.8427509E-1,1.0938852E0,2.5961048E1,-6.396854E-2,2.9040812E-4,4.300459E-1,-4.623575E-2,7.7407556E0,4.5455845E1,-8.735563E-2,2.5009675E-2,-1.1641704E-1,1.164422E-2,1.6699636E-1,2.9872341E-2,1.3531871E-1,2.3784958E1,-1.08060834E-4,5.3077668E-2,-3.6244445E-2,4.706726E-3,1.0002623E0,-1.2375094E-1,-2.5782393E-2,2.778582E1,4.7636032E-4,-5.186033E-4,1.5135284E-2,-2.2646462E-5,-1.9012927E-4,1.6720829E1,3.320263E-2,-3.088474E-5,-5.6561522E-2,4.5495987E-4,-8.716679E-4,2.7377825E1,9.9605906E-1,-1.54144615E-2,-1.1487279E-2,8.132557E-3,-1.6903639E-3,5.784612E-2,8.152771E-4,-3.336205E-1,5.886655E-3,-1.1790561E-3],"split_indices":[2,39,12,46,4,19,5,2,47,9,26,0,0,17,30,0,0,26,46,49,17,14,17,0,0,14,3,0,0,46,0,33,26,18,0,17,0,19,0,0,0,0,0,0,5,14,18,0,0,0,0,0,0,0,0,0,0,0,0,0,0,14,0,0,0,0,0,0,0,0,0],"split_type":[0,0,0,0,0,0,0,0,0,0,0,0,0,0,0,0,0,0,0,0,0,0,0,0,0,0,0,0,0,0,0,0,0,0,0,0,0,0,0,0,0,0,0,0,0,0,0,0,0,0,0,0,0,0,0,0,0,0,0,0,0,0,0,0,0,0,0,0,0,0,0],"sum_hessian":[1.288E3,1.206E3,8.2E1,8.9E2,3.16E2,4.7E1,3.5E1,3E0,8.87E2,2.79E2,3.7E1,4.6E1,1E0,9E0,2.6E1,1E0,2E0,1.8E1,8.69E2,2.61E2,1.8E1,2.5E1,1.2E1,1E0,8E0,2E1,6E0,1.7E1,1E0,1.03E2,7.66E2,2.42E2,1.9E1,1.5E1,3E0,2.3E1,2E0,7E0,5E0,1.7E1,3E0,4E0,2E0,9.9E1,4E0,9E0,2.33E2,1.4E1,5E0,1E0,1.4E1,1E0,2.2E1,4E0,3E0,1E0,2E0,3E0,1E0,6E0,3E0,1.2E1,2.21E2,2E0,3E0,1E0,2E0,2E0,1E0,1E0,1.1E1],"tree_param":{"num_deleted":"0","num_feature":"56","num_nodes":"71","size_leaf_vector":"1"}},{"base_weights":[-1.6602028E-2,-3.3388577E-2,2.2771083E-1,-4.657689E-2,3.785477E-3,-7.2916783E-3,5.347222E-1,2.1249999E-1,-4.7691453E-2,-2.1250011E-2,1.8815789E-1,4.6249998E-1,-1.4666669E-3,5.499999E-2,6.9259256E-1,1.4249999E-2,-1.0000003E-3,5.2631465E-3,-4.8793115E-2,1.7777777E-1,-2.7757365E-2,1.2285713E-1,2.1374999E-2,-7.500002E-4,1.9E-2,1.4249999E-2,-1.3333337E-3,8.095238E-1,2.4285713E-1,-1.416667E-3,1.4249999E-2,-3.9903857E-2,-1.4980447E-3,4.6249998E-1,-1.2500002E-3,-3.7944674E-2,1.0249999E-1,-6.2500113E-3,3.7083334E-1,2.6916666E-2,2.1249999E-1,-1.2000003E-3,1.9E-2,-1.4850002E-3,1.6E-1,-7.500002E-4,1.9E-2,1.3636363E-1,-4.5679025E-2,-1.4000003E-3,4.583333E-1,1.4249999E-2,-1.434783E-3,-1.1250003E-3,5.111111E-1,1.4249999E-2,-1.0000003E-3,-1.1250003E-3,1.4249999E-2,-1.3125003E-3,4.6249998E-1,3.076922E-2,-1.4935068E-3,-1.0000003E-3,2.1374999E-2,-1.0000003E-3,6.7142856E-1,1.9E-2,-7.500002E-4,1.4249999E-2,-1.3750003E-3,-7.500002E-4,2.3749998E-2],"categories":[],"categories_nodes":[],"categories_segments":[],"categories_sizes":[],"default_left":[0,0,0,0,0,0,0,0,0,0,0,0,0,0,0,0,0,0,0,0,0,0,0,0,0,0,0,0,0,0,0,0,0,0,0,0,0,0,0,0,0,0,0,0,0,0,0,0,0,0,0,0,0,0,0,0,0,0,0,0,0,0,0,0,0,0,0,0,0,0,0,0,0],"id":20,"left_children":[1,3,5,7,9,11,13,15,17,19,21,23,-1,25,27,-1,-1,29,31,33,35,37,-1,-1,-1,-1,-1,39,41,-1,-1,43,-1,45,-1,47,49,51,53,-1,55,-1,-1,-1,57,-1,-1,59,61,-1,63,-1,-1,-1,65,-1,-1,-1,-1,-1,67,69,-1,-1,-1,-1,71,-1,-1,-1,-1,-1,-1],"loss_changes":[5.2940106E0,5.9192383E-1,5.9922194E0,2.674172E-1,1.4672239E0,9.606285E-1,2.6883297E0,2.7395833E-1,5.206108E-2,3.6757496E-1,1.2135816E0,3.489583E-1,0E0,4.3877777E-1,1.22328E0,0E0,0E0,4.9086258E-1,6.836891E-3,5.815972E-1,3.6482573E-1,1.1228602E0,0E0,0E0,0E0,0E0,0E0,9.088583E-1,7.9847616E-1,0E0,0E0,2.0742407E-1,0E0,3.489583E-1,0E0,3.473138E-1,1.0829583E0,5.0292116E-1,7.065278E-1,0E0,2.7395833E-1,0E0,0E0,0E0,3.28875E-1,0E0,0E0,6.66392E-1,7.778144E-2,0E0,7.7354157E-1,0E0,0E0,0E0,8.0793643E-1,0E0,0E0,0E0,0E0,0E0,3.489583E-1,4.6415067E-1,0E0,0E0,0E0,0E0,6.059525E-1,0E0,0E0,0E0,0E0,0E0,0E0],"parents":[2147483647,0,0,1,1,2,2,3,3,4,4,5,5,6,6,7,7,8,8,9,9,10,10,11,11,13,13,14,14,17,17,18,18,19,19,20,20,21,21,27,27,28,28,31,31,33,33,35,35,36,36,37,37,38,38,40,40,44,44,47,47,48,48,50,50,54,54,60,60,61,61,66,66],"right_children":[2,4,6,8,10,12,14,16,18,20,22,24,-1,26,28,-1,-1,30,32,34,36,38,-1,-1,-1,-1,-1,40,42,-1,-1,44,-1,46,-1,48,50,52,54,-1,56,-1,-1,-1,58,-1,-1,60,62,-1,64,-1,-1,-1,66,-1,-1,-1,-1,-1,68,70,-1,-1,-1,-1,72,-1,-1,-1,-1,-1,-1],"split_conditions":[1.6447039E0,7E-1,4.9224487E3,3.0541563E-1,3.902439E-3,5.3654844E-1,4.832515E-3,1.3233959E-3,5.4262197E-1,3.5045962E-3,1.0150946E0,8.304022E0,-4.266901E-3,-1.24797955E-1,9.211356E0,1.0913515E-3,-9.837145E-2,5.262104E1,4.3355706E-1,5.633729E-1,1.8801269E-1,4.2807163E1,2.6174897E-2,-6.863385E-2,2.807164E-3,9.629202E-4,-1.7874683E-1,1.0938852E0,2.5961048E1,-6.204948E-2,2.8169632E-4,4.300459E-1,-4.4848684E-2,8.66112E0,-1.7497279E-2,7.7407556E0,4.5455845E1,-1.1641704E-1,1.6720829E1,1.3125916E-1,2.3784958E1,-1.0482788E-4,5.1485337E-2,-3.515711E-2,4.706726E-3,-9.057791E-2,2.4259385E-2,1.0002623E0,-1.2375094E-1,-2.5008917E-2,2.778582E1,1.4681225E-2,-2.1974121E-5,-5.317783E-4,-1.2649055E-1,3.220655E-2,-2.995491E-5,-5.486468E-2,4.413128E-4,-8.455181E-4,2.7377825E1,9.9605906E-1,-1.1450011E-2,-1.1142654E-2,7.888584E-3,-1.8442153E-4,-9.6931577E-1,7.9081533E-4,-3.2361192E-1,5.710058E-3,-1.1436796E-3,-3.2903193E-4,5.611074E-2],"split_indices":[2,39,12,46,4,46,5,2,47,21,14,0,0,17,30,0,0,26,46,7,49,26,0,0,0,0,0,14,3,0,0,46,0,0,0,33,26,17,0,0,0,0,0,0,5,0,0,14,18,0,0,0,0,0,17,0,0,0,0,0,0,14,0,0,0,0,24,0,0,0,0,0,0],"split_type":[0,0,0,0,0,0,0,0,0,0,0,0,0,0,0,0,0,0,0,0,0,0,0,0,0,0,0,0,0,0,0,0,0,0,0,0,0,0,0,0,0,0,0,0,0,0,0,0,0,0,0,0,0,0,0,0,0,0,0,0,0,0,0,0,0,0,0,0,0,0,0,0,0],"sum_hessian":[1.288E3,1.206E3,8.2E1,8.9E2,3.16E2,4.7E1,3.5E1,3E0,8.87E2,2.79E2,3.7E1,3E0,4.4E1,9E0,2.6E1,1E0,2E0,1.8E1,8.69E2,8E0,2.71E2,3.4E1,3E0,1E0,2E0,1E0,8E0,2E1,6E0,1.7E1,1E0,1.03E2,7.66E2,3E0,5E0,2.52E2,1.9E1,2.3E1,1.1E1,1.7E1,3E0,4E0,2E0,9.9E1,4E0,1E0,2E0,1E1,2.42E2,1.4E1,5E0,1E0,2.2E1,3E0,8E0,1E0,2E0,3E0,1E0,7E0,3E0,1.2E1,2.3E2,2E0,3E0,2E0,6E0,2E0,1E0,1E0,1.1E1,1E0,5E0],"tree_param":{"num_deleted":"0","num_feature":"56","num_nodes":"73","size_leaf_vector":"1"}},{"base_weights":[-1.6602028E-2,-3.2560077E-2,2.1566264E-1,-4.657689E-2,6.940051E-3,-2.8125012E-2,5.347222E-1,2.1249999E-1,-4.7691453E-2,-1.7678583E-2,1.8815789E-1,-1.4680853E-3,1.4249999E-2,5.499999E-2,6.9259256E-1,1.4249999E-2,-1.0000003E-3,5.2631465E-3,-4.8793115E-2,5.3205118E-2,-4.48276E-2,1.2285713E-1,2.1374999E-2,1.4249999E-2,-1.3333337E-3,8.095238E-1,2.4285713E-1,-1.416667E-3,1.4249999E-2,-3.9903857E-2,-1.4980447E-3,3.1071427E-1,-3.0769347E-3,-1.4923861E-3,9.999999E-2,-6.2500113E-3,3.7083334E-1,2.6916666E-2,2.1249999E-1,-1.2000003E-3,1.9E-2,-1.4850002E-3,1.6E-1,5.8125E-1,-1.2857146E-3,2.4285713E-1,-3.2203402E-2,1.4249999E-2,-1.2500002E-3,1.4249999E-2,-1.434783E-3,-1.1250003E-3,5.111111E-1,1.4249999E-2,-1.0000003E-3,-1.1250003E-3,1.4249999E-2,2.3749998E-2,-1.0000003E-3,-1.2000003E-3,1.9E-2,-1.4741382E-3,1.4249999E-2,-1.0000003E-3,6.7142856E-1,-7.500002E-4,2.3749998E-2],"categories":[],"categories_nodes":[],"categories_segments":[],"categories_sizes":[],"default_left":[0,0,0,0,0,0,0,0,0,0,0,0,0,0,0,0,0,0,0,0,0,0,0,0,0,0,0,0,0,0,0,0,0,0,0,0,0,0,0,0,0,0,0,0,0,0,0,0,0,0,0,0,0,0,0,0,0,0,0,0,0,0,0,0,0,0,0],"id":21,"left_children":[1,3,5,7,9,11,13,15,17,19,21,-1,-1,23,25,-1,-1,27,29,31,33,35,-1,-1,-1,37,39,-1,-1,41,-1,43,45,-1,47,49,51,-1,53,-1,-1,-1,55,57,-1,59,61,-1,-1,-1,-1,-1,63,-1,-1,-1,-1,-1,-1,-1,-1,-1,-1,-1,65,-1,-1],"loss_changes":[4.784689E0,6.6859806E-1,6.4710093E0,2.674172E-1,1.4175698E0,5.2583444E-1,2.6883297E0,2.7395833E-1,5.206108E-2,5.412234E-1,1.2135816E0,0E0,0E0,4.3877777E-1,1.22328E0,0E0,0E0,4.9086258E-1,6.836891E-3,1.1314212E0,1.4958164E-1,1.1228602E0,0E0,0E0,0E0,9.088583E-1,7.9847616E-1,0E0,0E0,2.0742407E-1,0E0,1.3640625E0,4.7342822E-1,0E0,3.9166665E-1,5.0292116E-1,7.065278E-1,0E0,2.7395833E-1,0E0,0E0,0E0,3.28875E-1,1.0609376E0,0E0,7.9847616E-1,5.3010666E-1,0E0,0E0,0E0,0E0,0E0,8.0793643E-1,0E0,0E0,0E0,0E0,0E0,0E0,0E0,0E0,0E0,0E0,0E0,6.059525E-1,0E0,0E0],"parents":[2147483647,0,0,1,1,2,2,3,3,4,4,5,5,6,6,7,7,8,8,9,9,10,10,13,13,14,14,17,17,18,18,19,19,20,20,21,21,25,25,26,26,29,29,31,31,32,32,34,34,35,35,36,36,38,38,42,42,43,43,45,45,46,46,52,52,64,64],"right_children":[2,4,6,8,10,12,14,16,18,20,22,-1,-1,24,26,-1,-1,28,30,32,34,36,-1,-1,-1,38,40,-1,-1,42,-1,44,46,-1,48,50,52,-1,54,-1,-1,-1,56,58,-1,60,62,-1,-1,-1,-1,-1,64,-1,-1,-1,-1,-1,-1,-1,-1,-1,-1,-1,66,-1,-1],"split_conditions":[1.6447039E0,7E-1,4.9224487E3,3.0541563E-1,3.902439E-3,3.6543858E-1,4.832515E-3,1.3233959E-3,5.4262197E-1,8.74342E0,1.0150946E0,-2.720622E-3,2.72295E-3,-1.24797955E-1,9.211356E0,1.0586071E-3,-9.542031E-2,5.262104E1,4.3355706E-1,5.286987E-1,5.5053665E1,4.2807163E1,2.5389647E-2,9.3403814E-4,-1.7338444E-1,1.0938852E0,2.5961048E1,-6.0187995E-2,2.7324198E-4,4.300459E-1,-4.3503214E-2,2.1331029E2,6.6614217E-1,-1.4418394E-2,9.186209E-2,-1.1641704E-1,1.6720829E1,1.2732138E-1,2.3784958E1,-1.0168075E-4,4.9940784E-2,-3.4102395E-2,4.706726E-3,2.0668343E-1,-1.109376E-3,6.477846E-1,8.749434E0,4.7093868E-4,-2.951043E-2,1.4240785E-2,-2.1316086E-5,-5.1582814E-4,-1.2649055E-1,3.1240353E-2,-2.9053688E-5,-5.3218737E-2,4.2806624E-4,7.65192E-3,-8.2015514E-4,-1.5954494E-4,2.3531599E-2,-1.0416026E-2,2.8498648E-4,-1.7888546E-4,-9.6931577E-1,-3.191614E-4,5.442741E-2],"split_indices":[2,39,12,46,4,19,5,2,47,30,14,0,0,17,30,0,0,26,46,46,26,26,0,0,0,14,3,0,0,46,0,54,47,0,2,17,0,0,0,0,0,0,5,2,0,47,33,0,0,0,0,0,17,0,0,0,0,0,0,0,0,0,0,0,24,0,0],"split_type":[0,0,0,0,0,0,0,0,0,0,0,0,0,0,0,0,0,0,0,0,0,0,0,0,0,0,0,0,0,0,0,0,0,0,0,0,0,0,0,0,0,0,0,0,0,0,0,0,0,0,0,0,0,0,0,0,0,0,0,0,0,0,0,0,0,0,0],"sum_hessian":[1.288E3,1.206E3,8.2E1,8.9E2,3.16E2,4.7E1,3.5E1,3E0,8.87E2,2.79E2,3.7E1,4.6E1,1E0,9E0,2.6E1,1E0,2E0,1.8E1,8.69E2,7.7E1,2.02E2,3.4E1,3E0,1E0,8E0,2E1,6E0,1.7E1,1E0,1.03E2,7.66E2,1.3E1,6.4E1,1.96E2,6E0,2.3E1,1.1E1,1.7E1,3E0,4E0,2E0,9.9E1,4E0,7E0,6E0,6E0,5.8E1,1E0,5E0,1E0,2.2E1,3E0,8E0,1E0,2E0,3E0,1E0,5E0,2E0,4E0,2E0,5.7E1,1E0,2E0,6E0,1E0,5E0],"tree_param":{"num_deleted":"0","num_feature":"56","num_nodes":"67","size_leaf_vector":"1"}},{"base_weights":[-1.5826235E-2,-3.2560077E-2,2.2771083E-1,-4.657689E-2,6.940051E-3,-7.2916783E-3,5.347222E-1,2.1249999E-1,-4.7691453E-2,-1.7678583E-2,1.8815789E-1,4.6249998E-1,-1.4666669E-3,5.499999E-2,6.9259256E-1,1.4249999E-2,-1.0000003E-3,5.2631465E-3,-4.8793115E-2,-2.725565E-2,1.5333332E-1,1.2285713E-1,2.1374999E-2,-7.500002E-4,1.9E-2,1.4249999E-2,-1.3333337E-3,8.095238E-1,2.4285713E-1,-1.416667E-3,1.4249999E-2,-3.9903857E-2,-1.4980447E-3,-3.7651833E-2,1.0249999E-1,-1.3500003E-3,4.583333E-1,-6.2500113E-3,3.7083334E-1,2.6916666E-2,2.1249999E-1,-1.2000003E-3,1.9E-2,-1.4850002E-3,1.6E-1,1.3636363E-1,-4.5569632E-2,-1.4000003E-3,4.583333E-1,2.1374999E-2,-1.0000003E-3,1.4249999E-2,-1.434783E-3,-1.1250003E-3,5.111111E-1,1.4249999E-2,-1.0000003E-3,-1.1250003E-3,1.4249999E-2,-1.3125003E-3,4.6249998E-1,3.076922E-2,-1.4933337E-3,-1.0000003E-3,2.1374999E-2,-1.0000003E-3,6.7142856E-1,1.9E-2,-7.500002E-4,1.4249999E-2,-1.3750003E-3,-7.500002E-4,2.3749998E-2],"categories":[],"categories_nodes":[],"categories_segments":[],"categories_sizes":[],"default_left":[0,0,0,0,0,0,0,0,0,0,0,0,0,0,0,0,0,0,0,0,0,0,0,0,0,0,0,0,0,0,0,0,0,0,0,0,0,0,0,0,0,0,0,0,0,0,0,0,0,0,0,0,0,0,0,0,0,0,0,0,0,0,0,0,0,0,0,0,0,0,0,0,0],"id":22,"left_children":[1,3,5,7,9,11,13,15,17,19,21,23,-1,25,27,-1,-1,29,31,33,35,37,-1,-1,-1,-1,-1,39,41,-1,-1,43,-1,45,47,-1,49,51,53,-1,55,-1,-1,-1,57,59,61,-1,63,-1,-1,-1,-1,-1,65,-1,-1,-1,-1,-1,67,69,-1,-1,-1,-1,71,-1,-1,-1,-1,-1,-1],"loss_changes":[5.2604904E0,6.6859806E-1,5.9922194E0,2.674172E-1,1.4175698E0,9.606285E-1,2.6883297E0,2.7395833E-1,5.206108E-2,4.627611E-1,1.2135816E0,3.489583E-1,0E0,4.3877777E-1,1.22328E0,0E0,0E0,4.9086258E-1,6.836891E-3,3.6268356E-1,9.28E-1,1.1228602E0,0E0,0E0,0E0,0E0,0E0,9.088583E-1,7.9847616E-1,0E0,0E0,2.0742407E-1,0E0,3.4653544E-1,1.0829583E0,0E0,7.7354157E-1,5.0292116E-1,7.065278E-1,0E0,2.7395833E-1,0E0,0E0,0E0,3.28875E-1,6.66392E-1,7.766694E-2,0E0,7.7354157E-1,0E0,0E0,0E0,0E0,0E0,8.0793643E-1,0E0,0E0,0E0,0E0,0E0,3.489583E-1,4.6415067E-1,0E0,0E0,0E0,0E0,6.059525E-1,0E0,0E0,0E0,0E0,0E0,0E0],"parents":[2147483647,0,0,1,1,2,2,3,3,4,4,5,5,6,6,7,7,8,8,9,9,10,10,11,11,13,13,14,14,17,17,18,18,19,19,20,20,21,21,27,27,28,28,31,31,33,33,34,34,36,36,37,37,38,38,40,40,44,44,45,45,46,46,48,48,54,54,60,60,61,61,66,66],"right_children":[2,4,6,8,10,12,14,16,18,20,22,24,-1,26,28,-1,-1,30,32,34,36,38,-1,-1,-1,-1,-1,40,42,-1,-1,44,-1,46,48,-1,50,52,54,-1,56,-1,-1,-1,58,60,62,-1,64,-1,-1,-1,-1,-1,66,-1,-1,-1,-1,-1,68,70,-1,-1,-1,-1,72,-1,-1,-1,-1,-1,-1],"split_conditions":[1.6447039E0,7E-1,4.9224487E3,3.0541563E-1,3.902439E-3,5.3654844E-1,4.832515E-3,1.3233959E-3,5.4262197E-1,1.640039E3,1.0150946E0,8.304022E0,-4.0572737E-3,-1.24797955E-1,9.211356E0,1.0268497E-3,-9.25577E-2,5.262104E1,4.3355706E-1,1.8801269E-1,-3.3960305E-2,4.2807163E1,2.4627957E-2,-6.6493206E-2,2.6412676E-3,9.060144E-4,-1.681829E-1,1.0938852E0,2.5961048E1,-5.838236E-2,2.6504515E-4,4.300459E-1,-4.2198118E-2,7.7407556E0,4.5455845E1,-1.5475272E-4,1.9866877E1,-1.1641704E-1,1.6720829E1,1.2350175E-1,2.3784958E1,-9.861946E-5,4.8442554E-2,-3.3079322E-2,4.706726E-3,1.0002623E0,-1.2375094E-1,-2.3826098E-2,2.778582E1,2.2825655E-2,-4.1125543E-2,1.3813562E-2,-2.0672356E-5,-5.0034997E-4,-1.2649055E-1,3.030314E-2,-2.8181075E-5,-5.162217E-2,4.1522025E-4,-7.9555035E-4,2.7377825E1,9.9605906E-1,-1.3789271E-2,-1.0495892E-2,7.422366E-3,-1.7352104E-4,-9.6931577E-1,5.3754327E-4,-3.1359106E-1,4.832811E-3,-1.0760879E-3,-3.095913E-4,5.2794583E-2],"split_indices":[2,39,12,46,4,46,5,2,47,9,14,0,0,17,30,0,0,26,46,49,17,26,0,0,0,0,0,14,3,0,0,46,0,33,26,0,31,17,0,0,0,0,0,0,5,14,18,0,0,0,0,0,0,0,17,0,0,0,0,0,0,14,0,0,0,0,24,0,0,0,0,0,0],"split_type":[0,0,0,0,0,0,0,0,0,0,0,0,0,0,0,0,0,0,0,0,0,0,0,0,0,0,0,0,0,0,0,0,0,0,0,0,0,0,0,0,0,0,0,0,0,0,0,0,0,0,0,0,0,0,0,0,0,0,0,0,0,0,0,0,0,0,0,0,0,0,0,0,0],"sum_hessian":[1.288E3,1.206E3,8.2E1,8.9E2,3.16E2,4.7E1,3.5E1,3E0,8.87E2,2.79E2,3.7E1,3E0,4.4E1,9E0,2.6E1,1E0,2E0,1.8E1,8.69E2,2.65E2,1.4E1,3.4E1,3E0,1E0,2E0,1E0,8E0,2E1,6E0,1.7E1,1E0,1.03E2,7.66E2,2.46E2,1.9E1,9E0,5E0,2.3E1,1.1E1,1.7E1,3E0,4E0,2E0,9.9E1,4E0,1E1,2.36E2,1.4E1,5E0,3E0,2E0,1E0,2.2E1,3E0,8E0,1E0,2E0,3E0,1E0,7E0,3E0,1.2E1,2.24E2,2E0,3E0,2E0,6E0,2E0,1E0,1E0,1.1E1,1E0,5E0],"tree_param":{"num_deleted":"0","num_feature":"56","num_nodes":"73","size_leaf_vector":"1"}},{"base_weights":[-1.6602028E-2,-3.2560077E-2,2.1566264E-1,-4.657689E-2,6.940051E-3,-2.8125012E-2,5.347222E-1,2.1249999E-1,-4.7691453E-2,-1.7678583E-2,1.8815789E-1,-1.4680853E-3,1.4249999E-2,5.499999E-2,6.9259256E-1,1.4249999E-2,-1.0000003E-3,5.2631465E-3,-4.8793115E-2,5.3205118E-2,-4.48276E-2,1.2285713E-1,2.1374999E-2,1.4249999E-2,-1.3333337E-3,8.095238E-1,2.4285713E-1,-1.416667E-3,1.4249999E-2,-3.9903857E-2,-1.4980447E-3,3.1071427E-1,-3.0769347E-3,-1.4923861E-3,9.999999E-2,-6.2500113E-3,3.7083334E-1,2.6916666E-2,2.1249999E-1,-1.2000003E-3,1.9E-2,-1.4850002E-3,1.6E-1,5.8125E-1,-1.2857146E-3,2.4285713E-1,-3.2203402E-2,1.4249999E-2,-1.2500002E-3,1.4249999E-2,-1.434783E-3,-1.1250003E-3,5.111111E-1,1.4249999E-2,-1.0000003E-3,-1.1250003E-3,1.4249999E-2,2.3749998E-2,-1.0000003E-3,-1.2000003E-3,1.9E-2,-1.4741382E-3,1.4249999E-2,-1.0000003E-3,6.7142856E-1,-7.500002E-4,2.3749998E-2],"categories":[],"categories_nodes":[],"categories_segments":[],"categories_sizes":[],"default_left":[0,0,0,0,0,0,0,0,0,0,0,0,0,0,0,0,0,0,0,0,0,0,0,0,0,0,0,0,0,0,0,0,0,0,0,0,0,0,0,0,0,0,0,0,0,0,0,0,0,0,0,0,0,0,0,0,0,0,0,0,0,0,0,0,0,0,0],"id":23,"left_children":[1,3,5,7,9,11,13,15,17,19,21,-1,-1,23,25,-1,-1,27,29,31,33,35,-1,-1,-1,37,39,-1,-1,41,-1,43,45,-1,47,49,51,-1,53,-1,-1,-1,55,57,-1,59,61,-1,-1,-1,-1,-1,63,-1,-1,-1,-1,-1,-1,-1,-1,-1,-1,-1,65,-1,-1],"loss_changes":[4.784689E0,6.6859806E-1,6.4710093E0,2.674172E-1,1.4175698E0,5.2583444E-1,2.6883297E0,2.7395833E-1,5.206108E-2,5.412234E-1,1.2135816E0,0E0,0E0,4.3877777E-1,1.22328E0,0E0,0E0,4.9086258E-1,6.836891E-3,1.1314212E0,1.4958164E-1,1.1228602E0,0E0,0E0,0E0,9.088583E-1,7.9847616E-1,0E0,0E0,2.0742407E-1,0E0,1.3640625E0,4.7342822E-1,0E0,3.9166665E-1,5.0292116E-1,7.065278E-1,0E0,2.7395833E-1,0E0,0E0,0E0,3.28875E-1,1.0609376E0,0E0,7.9847616E-1,5.3010666E-1,0E0,0E0,0E0,0E0,0E0,8.0793643E-1,0E0,0E0,0E0,0E0,0E0,0E0,0E0,0E0,0E0,0E0,0E0,6.059525E-1,0E0,0E0],"parents":[2147483647,0,0,1,1,2,2,3,3,4,4,5,5,6,6,7,7,8,8,9,9,10,10,13,13,14,14,17,17,18,18,19,19,20,20,21,21,25,25,26,26,29,29,31,31,32,32,34,34,35,35,36,36,38,38,42,42,43,43,45,45,46,46,52,52,64,64],"right_children":[2,4,6,8,10,12,14,16,18,20,22,-1,-1,24,26,-1,-1,28,30,32,34,36,-1,-1,-1,38,40,-1,-1,42,-1,44,46,-1,48,50,52,-1,54,-1,-1,-1,56,58,-1,60,62,-1,-1,-1,-1,-1,64,-1,-1,-1,-1,-1,-1,-1,-1,-1,-1,-1,66,-1,-1],"split_conditions":[1.6447039E0,7E-1,4.9224487E3,3.0541563E-1,3.902439E-3,3.6543858E-1,4.832515E-3,1.3233959E-3,5.4262197E-1,8.74342E0,1.0150946E0,-2.517275E-3,2.5620316E-3,-1.24797955E-1,9.211356E0,9.960508E-4,-8.9780964E-2,5.262104E1,4.3355706E-1,5.286987E-1,5.5053665E1,4.2807163E1,2.3889111E-2,8.788347E-4,-1.631374E-1,1.0938852E0,2.5961048E1,-5.663089E-2,2.570915E-4,4.300459E-1,-4.093217E-2,2.1331029E2,6.6614217E-1,-1.357216E-2,9.186209E-2,-1.1641704E-1,1.6720829E1,1.1979669E-1,2.3784958E1,-9.567261E-5,4.698927E-2,-3.208694E-2,4.706726E-3,2.0668343E-1,-1.0438013E-3,6.477846E-1,8.749434E0,2.341318E-4,-2.8211437E-2,1.3399158E-2,-2.0057236E-5,-4.8534392E-4,-1.2649055E-1,2.939405E-2,-2.7337073E-5,-5.007351E-2,4.027605E-4,7.1996925E-3,-7.716894E-4,-1.5010356E-4,2.2140885E-2,-9.817775E-3,5.375862E-5,-1.6831397E-4,-9.6931577E-1,-3.0030726E-4,5.121075E-2],"split_indices":[2,39,12,46,4,19,5,2,47,30,14,0,0,17,30,0,0,26,46,46,26,26,0,0,0,14,3,0,0,46,0,54,47,0,2,17,0,0,0,0,0,0,5,2,0,47,33,0,0,0,0,0,17,0,0,0,0,0,0,0,0,0,0,0,24,0,0],"split_type":[0,0,0,0,0,0,0,0,0,0,0,0,0,0,0,0,0,0,0,0,0,0,0,0,0,0,0,0,0,0,0,0,0,0,0,0,0,0,0,0,0,0,0,0,0,0,0,0,0,0,0,0,0,0,0,0,0,0,0,0,0,0,0,0,0,0,0],"sum_hessian":[1.288E3,1.206E3,8.2E1,8.9E2,3.16E2,4.7E1,3.5E1,3E0,8.87E2,2.79E2,3.7E1,4.6E1,1E0,9E0,2.6E1,1E0,2E0,1.8E1,8.69E2,7.7E1,2.02E2,3.4E1,3E0,1E0,8E0,2E1,6E0,1.7E1,1E0,1.03E2,7.66E2,1.3E1,6.4E1,1.96E2,6E0,2.3E1,1.1E1,1.7E1,3E0,4E0,2E0,9.9E1,4E0,7E0,6E0,6E0,5.8E1,1E0,5E0,1E0,2.2E1,3E0,8E0,1E0,2E0,3E0,1E0,5E0,2E0,4E0,2E0,5.7E1,1E0,2E0,6E0,1E0,5E0],"tree_param":{"num_deleted":"0","num_feature":"56","num_nodes":"67","size_leaf_vector":"1"}},{"base_weights":[-1.5050438E-2,-3.173158E-2,2.2771083E-1,-4.5454558E-2,6.940051E-3,-7.2916783E-3,5.347222E-1,2.1249999E-1,-4.6565328E-2,-1.7678583E-2,1.8815789E-1,4.6249998E-1,-1.4666669E-3,5.499999E-2,6.9259256E-1,1.4249999E-2,-1.0000003E-3,5.2631465E-3,-4.764369E-2,5.3205118E-2,-4.48276E-2,1.2285713E-1,2.1374999E-2,-7.500002E-4,1.9E-2,1.4249999E-2,-1.3333337E-3,8.095238E-1,2.4285713E-1,-1.416667E-3,1.4249999E-2,-1.1111123E-2,-4.8755936E-2,3.1071427E-1,-3.0769347E-3,-1.4923861E-3,9.999999E-2,-6.2500113E-3,3.7083334E-1,2.6916666E-2,2.1249999E-1,-1.2000003E-3,1.9E-2,1.4249999E-2,-1.4423081E-3,-3.9705895E-2,-1.4979815E-3,5.8125E-1,-1.2857146E-3,2.4285713E-1,-3.2203402E-2,1.4249999E-2,-1.2500002E-3,1.4249999E-2,-1.434783E-3,-1.1250003E-3,5.111111E-1,1.4249999E-2,-1.0000003E-3,-1.4846942E-3,1.6E-1,2.3749998E-2,-1.0000003E-3,-1.2000003E-3,1.9E-2,-1.4741382E-3,1.4249999E-2,-1.0000003E-3,6.7142856E-1,-1.1250003E-3,1.4249999E-2,-7.500002E-4,2.3749998E-2],"categories":[],"categories_nodes":[],"categories_segments":[],"categories_sizes":[],"default_left":[0,0,0,0,0,0,0,0,0,0,0,0,0,0,0,0,0,0,0,0,0,0,0,0,0,0,0,0,0,0,0,0,0,0,0,0,0,0,0,0,0,0,0,0,0,0,0,0,0,0,0,0,0,0,0,0,0,0,0,0,0,0,0,0,0,0,0,0,0,0,0,0,0],"id":24,"left_children":[1,3,5,7,9,11,13,15,17,19,21,23,-1,25,27,-1,-1,29,31,33,35,37,-1,-1,-1,-1,-1,39,41,-1,-1,43,45,47,49,-1,51,53,55,-1,57,-1,-1,-1,-1,59,-1,61,-1,63,65,-1,-1,-1,-1,-1,67,-1,-1,-1,69,-1,-1,-1,-1,-1,-1,-1,71,-1,-1,-1,-1],"loss_changes":[5.2270756E0,6.408583E-1,5.9922194E0,2.6519167E-1,1.4175698E0,9.606285E-1,2.6883297E0,2.7395833E-1,4.988098E-2,5.412234E-1,1.2135816E0,3.489583E-1,0E0,4.3877777E-1,1.22328E0,0E0,0E0,4.9086258E-1,3.480923E-2,1.1314212E0,1.4958164E-1,1.1228602E0,0E0,0E0,0E0,0E0,0E0,9.088583E-1,7.9847616E-1,0E0,0E0,5.0801283E-1,7.00593E-3,1.3640625E0,4.7342822E-1,0E0,3.9166665E-1,5.0292116E-1,7.065278E-1,0E0,2.7395833E-1,0E0,0E0,0E0,0E0,2.0721668E-1,0E0,1.0609376E0,0E0,7.9847616E-1,5.3010666E-1,0E0,0E0,0E0,0E0,0E0,8.0793643E-1,0E0,0E0,0E0,3.28875E-1,0E0,0E0,0E0,0E0,0E0,0E0,0E0,6.059525E-1,0E0,0E0,0E0,0E0],"parents":[2147483647,0,0,1,1,2,2,3,3,4,4,5,5,6,6,7,7,8,8,9,9,10,10,11,11,13,13,14,14,17,17,18,18,19,19,20,20,21,21,27,27,28,28,31,31,32,32,33,33,34,34,36,36,37,37,38,38,40,40,45,45,47,47,49,49,50,50,56,56,60,60,68,68],"right_children":[2,4,6,8,10,12,14,16,18,20,22,24,-1,26,28,-1,-1,30,32,34,36,38,-1,-1,-1,-1,-1,40,42,-1,-1,44,46,48,50,-1,52,54,56,-1,58,-1,-1,-1,-1,60,-1,62,-1,64,66,-1,-1,-1,-1,-1,68,-1,-1,-1,70,-1,-1,-1,-1,-1,-1,-1,72,-1,-1,-1,-1],"split_conditions":[1.6447039E0,7E-1,4.9224487E3,3.0541563E-1,3.902439E-3,5.3654844E-1,4.832515E-3,1.3233959E-3,5.4262197E-1,8.74342E0,1.0150946E0,8.304022E0,-3.8600347E-3,-1.24797955E-1,9.211356E0,9.661674E-4,-8.7087534E-2,5.262104E1,9.1289416E-2,5.286987E-1,5.5053665E1,4.2807163E1,2.317244E-2,-6.44229E-2,2.4851703E-3,8.524704E-4,-1.5824328E-1,1.0938852E0,2.5961048E1,-5.4931965E-2,2.4938106E-4,6.756604E-1,4.3355706E-1,2.1331029E2,6.6614217E-1,-1.3164994E-2,9.186209E-2,-1.1641704E-1,1.6720829E1,1.16202794E-1,2.3784958E1,-9.2811584E-5,4.5579586E-2,1.0462546E-3,-8.501871E-2,4.300459E-1,-3.968295E-2,2.0668343E-1,-1.0124873E-3,6.477846E-1,8.749434E0,2.27108E-4,-2.736509E-2,1.2997184E-2,-1.945642E-5,-4.7078132E-4,-1.2649055E-1,2.8512225E-2,-2.6521682E-5,-3.105705E-2,4.706726E-3,6.9836997E-3,-7.485437E-4,-1.4559746E-4,2.1476654E-2,-9.523247E-3,5.2142143E-5,-1.6326427E-4,-9.6931577E-1,-4.85713E-2,3.9067268E-4,-2.9129506E-4,4.9674425E-2],"split_indices":[2,39,12,46,4,46,5,2,47,30,14,0,0,17,30,0,0,26,45,46,26,26,0,0,0,0,0,14,3,0,0,13,46,54,47,0,2,17,0,0,0,0,0,0,0,46,0,2,0,47,33,0,0,0,0,0,17,0,0,0,5,0,0,0,0,0,0,0,24,0,0,0,0],"split_type":[0,0,0,0,0,0,0,0,0,0,0,0,0,0,0,0,0,0,0,0,0,0,0,0,0,0,0,0,0,0,0,0,0,0,0,0,0,0,0,0,0,0,0,0,0,0,0,0,0,0,0,0,0,0,0,0,0,0,0,0,0,0,0,0,0,0,0,0,0,0,0,0,0],"sum_hessian":[1.288E3,1.206E3,8.2E1,8.9E2,3.16E2,4.7E1,3.5E1,3E0,8.87E2,2.79E2,3.7E1,3E0,4.4E1,9E0,2.6E1,1E0,2E0,1.8E1,8.69E2,7.7E1,2.02E2,3.4E1,3E0,1E0,2E0,1E0,8E0,2E1,6E0,1.7E1,1E0,2.6E1,8.43E2,1.3E1,6.4E1,1.96E2,6E0,2.3E1,1.1E1,1.7E1,3E0,4E0,2E0,1E0,2.5E1,1.01E2,7.42E2,7E0,6E0,6E0,5.8E1,1E0,5E0,1E0,2.2E1,3E0,8E0,1E0,2E0,9.7E1,4E0,5E0,2E0,4E0,2E0,5.7E1,1E0,2E0,6E0,3E0,1E0,1E0,5E0],"tree_param":{"num_deleted":"0","num_feature":"56","num_nodes":"73","size_leaf_vector":"1"}},{"base_weights":[-1.5826235E-2,-3.0074578E-2,1.9156626E-1,-4.3209888E-2,6.940051E-3,1.9827574E-2,5.673077E-1,2.1249999E-1,-4.4313073E-2,-2.1250011E-2,2.1447368E-1,-2.9411776E-2,3.3124998E-1,-1.2500002E-3,7.1428573E-1,1.4249999E-2,-1.0000003E-3,-2.9960329E-2,-1.4976455E-3,-3.101505E-2,1.5333332E-1,4.0249997E-1,5.2631465E-3,-1.4700003E-3,1.4249999E-2,5.6E-1,-1.1250003E-3,8.4166664E-1,-1.1250003E-3,1.4249999E-2,-3.3864554E-2,-4.1700415E-2,1.0249999E-1,-1.3500003E-3,4.583333E-1,1.2083332E-1,7.3333335E-1,1.4249999E-2,-1.416667E-3,2.1374999E-2,-7.500002E-4,2.6823528E-2,-7.500002E-4,3.8043465E-2,-1.4927188E-3,1.2499999E-1,-4.566117E-2,-1.4000003E-3,4.583333E-1,2.1374999E-2,-1.0000003E-3,1.9E-2,-1.3500003E-3,-7.500002E-4,2.49375E-2,2.3928571E-1,-1.4545458E-3,1.4249999E-2,-1.2000003E-3,2.499999E-2,-1.4934501E-3,-1.0000003E-3,2.1374999E-2,-1.3125003E-3,1.5857143E-2,1.4249999E-2,-1.3846157E-3],"categories":[],"categories_nodes":[],"categories_segments":[],"categories_sizes":[],"default_left":[0,0,0,0,0,0,0,0,0,0,0,0,0,0,0,0,0,0,0,0,0,0,0,0,0,0,0,0,0,0,0,0,0,0,0,0,0,0,0,0,0,0,0,0,0,0,0,0,0,0,0,0,0,0,0,0,0,0,0,0,0,0,0,0,0,0,0],"id":25,"left_children":[1,3,5,7,9,11,13,15,17,19,21,23,25,-1,27,-1,-1,29,-1,31,33,35,37,-1,-1,39,-1,41,-1,-1,43,45,47,-1,49,51,53,-1,-1,-1,-1,-1,-1,55,-1,57,59,-1,61,-1,-1,-1,-1,-1,-1,63,-1,-1,-1,65,-1,-1,-1,-1,-1,-1,-1],"loss_changes":[3.8147554E0,5.8714175E-1,5.3446865E0,2.6076365E-1,1.8591299E0,8.9912844E-1,2.3569145E0,2.7395833E-1,6.998527E-2,4.821032E-1,1.492691E0,5.2718234E-1,6.958125E-1,0E0,2.0425882E0,0E0,0E0,5.128982E-1,0E0,3.8376513E-1,9.28E-1,1.7750828E0,4.9086258E-1,0E0,0E0,4.6387494E-1,0E0,8.4058857E-1,0E0,0E0,2.8873962E-1,1.6879165E-1,1.0829583E0,0E0,7.7354157E-1,1.0483749E0,6.890626E-1,0E0,0E0,0E0,0E0,0E0,0E0,8.126068E-1,0E0,3.655E-1,7.170516E-2,0E0,7.7354157E-1,0E0,0E0,0E0,0E0,0E0,0E0,1.1694198E0,0E0,0E0,0E0,4.701923E-1,0E0,0E0,0E0,0E0,0E0,0E0,0E0],"parents":[2147483647,0,0,1,1,2,2,3,3,4,4,5,5,6,6,7,7,8,8,9,9,10,10,11,11,12,12,14,14,17,17,19,19,20,20,21,21,22,22,25,25,27,27,30,30,31,31,32,32,34,34,35,35,36,36,43,43,45,45,46,46,48,48,55,55,59,59],"right_children":[2,4,6,8,10,12,14,16,18,20,22,24,26,-1,28,-1,-1,30,-1,32,34,36,38,-1,-1,40,-1,42,-1,-1,44,46,48,-1,50,52,54,-1,-1,-1,-1,-1,-1,56,-1,58,60,-1,62,-1,-1,-1,-1,-1,-1,64,-1,-1,-1,66,-1,-1,-1,-1,-1,-1,-1],"split_conditions":[1.6447039E0,7E-1,1.56998E1,3.0541563E-1,3.902439E-3,8.161948E3,2.0759043E1,1.3233959E-3,8.8793594E1,1.640039E3,1.218768E0,3.6543858E-1,1.9214879E0,-1.5888977E-3,2.314829E-1,9.3718525E-4,-8.447491E-2,9.1289416E-2,-4.5842983E-2,1.8801269E-1,-3.3960305E-2,4.4004962E-1,8.913616E-2,-1.5384878E-3,2.410612E-3,4.119633E1,-1.8237018E-3,1.1477594E0,-9.003639E-5,1.0148692E-3,6.408547E-1,-1.0784733E-1,4.5455845E1,-1.412344E-4,1.9866877E1,1.696391E1,1.0273885E1,8.064794E-4,-1.2701511E-4,6.379912E-2,-3.2917336E-1,1.1271672E-1,-2.5720596E-5,6.82283E-1,-4.1131202E-2,5.3031224E-1,-1.2375094E-1,-2.2309197E-2,2.778582E1,2.0832352E-2,-3.9089654E-2,4.818419E-2,-3.940916E-4,-5.905767E-2,3.3738956E-2,1.4535732E1,-7.855741E-3,9.591579E-5,-2.9257521E-2,4.010864E1,-1.066459E-2,-9.600792E-3,6.774187E-3,-3.5356555E-2,7.444668E-4,3.3792972E-3,-7.260847E-4],"split_indices":[2,39,6,46,4,12,0,2,29,9,47,19,2,0,19,0,0,45,0,49,17,2,19,0,0,0,0,14,0,0,13,17,26,0,31,25,0,0,0,0,0,0,0,46,0,7,18,0,0,0,0,0,0,0,0,0,0,0,0,50,0,0,0,0,0,0,0],"split_type":[0,0,0,0,0,0,0,0,0,0,0,0,0,0,0,0,0,0,0,0,0,0,0,0,0,0,0,0,0,0,0,0,0,0,0,0,0,0,0,0,0,0,0,0,0,0,0,0,0,0,0,0,0,0,0,0,0,0,0,0,0,0,0,0,0,0,0],"sum_hessian":[1.288E3,1.206E3,8.2E1,8.9E2,3.16E2,5.7E1,2.5E1,3E0,8.87E2,2.79E2,3.7E1,5E1,7E0,5E0,2E1,1E0,2E0,2.51E2,6.36E2,2.65E2,1.4E1,1.9E1,1.8E1,4.9E1,1E0,4E0,3E0,1.7E1,3E0,1E0,2.5E2,2.46E2,1.9E1,9E0,5E0,1.1E1,8E0,1E0,1.7E1,3E0,1E0,1.6E1,1E0,4.5E1,2.05E2,5E0,2.41E2,1.4E1,5E0,3E0,2E0,2E0,9E0,1E0,7E0,1.3E1,3.2E1,1E0,4E0,1.3E1,2.28E2,2E0,3E0,7E0,6E0,1E0,1.2E1],"tree_param":{"num_deleted":"0","num_feature":"56","num_nodes":"67","size_leaf_vector":"1"}},{"base_weights":[-1.7377824E-2,2.953125E-1,-2.5317976E-2,5.2499987E-2,6.461538E-1,-4.343819E-2,2.4332331E-2,-1.4062503E-3,3.5999998E-1,7.7272725E-1,-1.0000003E-3,2.1249999E-1,-4.4504907E-2,-1.5104178E-2,2.51E-1,-1.0000003E-3,1.9E-2,2.565E-2,-7.500002E-4,1.4249999E-2,-1.0000003E-3,-3.0725203E-2,-1.4977207E-3,4.7572803E-2,-1.4919358E-3,3.9130423E-2,4.1607141E-1,1.4249999E-2,-3.448277E-2,2.8571427E-1,-1.3253024E-2,4.6249998E-1,-1.4250003E-3,5.7142854E-1,-1.3125003E-3,3.265305E-2,-1.492958E-3,-1.3636367E-3,5.9090906E-1,-2.5000012E-2,1.4249999E-2,-7.500002E-4,1.9E-2,7.176471E-1,-1.2000003E-3,2.3928571E-1,-1.4583337E-3,2.49375E-2,-1.1250003E-3,1.7777777E-1,-1.4797301E-3,-7.500002E-4,7.65625E-1,-1.3125003E-3,1.5857143E-2,-1.2857146E-3,1.9E-2,2.46E-2,-7.500002E-4],"categories":[],"categories_nodes":[],"categories_segments":[],"categories_sizes":[],"default_left":[0,0,0,0,0,0,0,0,0,0,0,0,0,0,0,0,0,0,0,0,0,0,0,0,0,0,0,0,0,0,0,0,0,0,0,0,0,0,0,0,0,0,0,0,0,0,0,0,0,0,0,0,0,0,0,0,0,0,0],"id":26,"left_children":[1,3,5,7,9,11,13,-1,15,17,-1,19,21,23,25,-1,-1,-1,-1,-1,-1,27,-1,29,-1,31,33,-1,35,37,39,41,-1,43,-1,45,-1,-1,47,49,-1,-1,-1,51,-1,53,-1,-1,-1,55,-1,-1,57,-1,-1,-1,-1,-1,-1],"loss_changes":[3.207817E0,2.6921139E0,1.1328471E0,6.280312E-1,1.1438236E0,2.611761E-1,3.0162277E0,0E0,5.5866665E-1,7.433181E-1,0E0,2.7395833E-1,6.7091346E-2,6.2741715E-1,1.7323995E0,0E0,0E0,0E0,0E0,0E0,0E0,5.14257E-1,0E0,1.4957571E0,0E0,8.6553264E-1,2.0252237E0,0E0,2.6941183E-1,2.1493506E0,4.879217E-1,3.489583E-1,0E0,1.9061513E0,0E0,8.344317E-1,0E0,0E0,1.6925282E0,4.1322824E-1,0E0,0E0,0E0,6.248627E-1,0E0,1.1694198E0,0E0,0E0,0E0,9.31746E-1,0E0,0E0,7.083435E-1,0E0,0E0,0E0,0E0,0E0,0E0],"parents":[2147483647,0,0,1,1,2,2,3,3,4,4,5,5,6,6,8,8,9,9,11,11,12,12,13,13,14,14,21,21,23,23,25,25,26,26,28,28,29,29,30,30,31,31,33,33,35,35,38,38,39,39,43,43,45,45,49,49,52,52],"right_children":[2,4,6,8,10,12,14,-1,16,18,-1,20,22,24,26,-1,-1,-1,-1,-1,-1,28,-1,30,-1,32,34,-1,36,38,40,42,-1,44,-1,46,-1,-1,48,50,-1,-1,-1,52,-1,54,-1,-1,-1,56,-1,-1,58,-1,-1,-1,-1,-1,-1],"split_conditions":[9.313827E-1,4.9224487E3,7E-1,2.164339E-1,4.319174E1,3.0541563E-1,3.902439E-3,-1.3147258E-3,8.895306E0,2.3306961E1,-2.6688772E-1,1.3233959E-3,8.8793594E1,8.991459E0,4.4004962E-1,-6.9064245E-2,2.3382998E-3,1.0933522E-1,-8.583641E-4,9.090757E-4,-8.194066E-2,9.1289416E-2,-4.1489158E-2,8.440266E-2,-9.311487E-3,7.5382195E0,1.5073547E0,9.844208E-4,6.408547E-1,5.4284346E-1,3.6092865E1,3.0891504E1,-2.7874947E-4,2.3185559E-1,-3.3419608E-4,6.82283E-1,-4.0654175E-2,-7.04298E-4,5.2510934E4,5.286987E-1,1.7066002E-5,-1.5456676E-4,4.6738658E-2,1.0273885E1,-2.494812E-5,1.4535732E1,-9.144735E-3,2.0207375E-2,-1.6070774E-2,4.9141276E-1,-4.0366077E-3,-5.728594E-2,9.257947E0,-3.429586E-2,7.221293E-4,-1.3759289E-2,1.9755363E-4,6.518183E-2,-8.734703E-5],"split_indices":[14,12,39,19,0,46,4,0,0,31,0,2,29,30,2,0,0,0,0,0,0,45,0,44,0,30,47,0,13,7,25,0,0,15,0,46,0,0,22,46,0,0,0,0,0,0,0,0,0,46,0,0,30,0,0,0,0,0,0],"split_type":[0,0,0,0,0,0,0,0,0,0,0,0,0,0,0,0,0,0,0,0,0,0,0,0,0,0,0,0,0,0,0,0,0,0,0,0,0,0,0,0,0,0,0,0,0,0,0,0,0,0,0,0,0,0,0,0,0,0,0],"sum_hessian":[1.288E3,3.1E1,1.257E3,1.9E1,1.2E1,9.21E2,3.36E2,1.5E1,4E0,1E1,2E0,3E0,9.18E2,2.87E2,4.9E1,2E0,2E0,9E0,1E0,1E0,2E0,2.61E2,6.57E2,1.02E2,1.85E2,2.2E1,2.7E1,1E0,2.6E2,2E1,8.2E1,3E0,1.9E1,2E1,7E0,4.8E1,2.12E2,1E1,1E1,8.1E1,1E0,1E0,2E0,1.6E1,4E0,1.3E1,3.5E1,7E0,3E0,8E0,7.3E1,1E0,1.5E1,7E0,6E0,6E0,2E0,1.4E1,1E0],"tree_param":{"num_deleted":"0","num_feature":"56","num_nodes":"59","size_leaf_vector":"1"}},{"base_weights":[-1.8929414E-2,-3.173158E-2,1.6746987E-1,-4.5224067E-2,1.38877E-4,-2.8125012E-2,4.236111E-1,-1.4980598E-3,3.2894618E-3,-1.9076934E-2,1.736111E-1,-1.4680853E-3,1.4249999E-2,1.4062499E-1,6.190476E-1,-3.409092E-2,2.2727272E-1,-4.176708E-2,5.4545444E-2,-1.4250003E-3,4.235294E-1,4.583333E-1,-1.3636367E-3,7.3055553E-1,-1.1250003E-3,1.4249999E-2,-1.4769234E-3,5.6E-1,-1.2857146E-3,2.3214275E-2,-1.4932436E-3,3.1756744E-2,4.6249998E-1,8.124999E-2,6.55E-1,2.1374999E-2,-1.0000003E-3,8.28125E-1,-1.0000003E-3,-7.500002E-4,2.1374999E-2,2.0624998E-1,-1.4285718E-3,2.1999998E-1,-1.5833344E-2,1.9E-2,-7.500002E-4,-1.2857146E-3,1.4249999E-2,2.49375E-2,-1.0000003E-3,2.66E-2,-7.500002E-4,-1.2500002E-3,1.9E-2,-1.3500003E-3,6.25E-1,-3.1578958E-2,2.1249999E-1,-7.500002E-4,2.2799999E-2,-1.4716984E-3,4.7999998E-3,-1.0000003E-3,1.4249999E-2],"categories":[],"categories_nodes":[],"categories_segments":[],"categories_sizes":[],"default_left":[0,0,0,0,0,0,0,0,0,0,0,0,0,0,0,0,0,0,0,0,0,0,0,0,0,0,0,0,0,0,0,0,0,0,0,0,0,0,0,0,0,0,0,0,0,0,0,0,0,0,0,0,0,0,0,0,0,0,0,0,0,0,0,0,0],"id":27,"left_children":[1,3,5,7,9,11,13,-1,15,17,19,-1,-1,21,23,25,27,29,31,-1,33,35,-1,37,-1,-1,-1,39,-1,41,-1,43,45,47,49,-1,-1,51,-1,-1,-1,53,-1,55,57,-1,-1,-1,-1,-1,-1,-1,-1,-1,-1,-1,59,61,63,-1,-1,-1,-1,-1,-1],"loss_changes":[3.0812728E0,5.190306E-1,4.170207E0,1.9398296E-1,1.2033395E0,5.2583444E-1,1.9039559E0,0E0,6.44064E-1,5.4519147E-1,2.0094671E0,0E0,0E0,9.667377E-1,1.5648117E0,5.3208387E-1,1.0126754E0,1.3072303E-1,7.0116246E-1,0E0,1.2936509E0,7.7354157E-1,0E0,1.3691835E0,0E0,0E0,0E0,4.6387494E-1,0E0,3.7284225E-1,0E0,6.664133E-1,3.489583E-1,4.1129464E-1,1.2408962E0,0E0,0E0,8.2126045E-1,0E0,0E0,0E0,8.734374E-1,0E0,1.6380002E0,2.2242545E-1,0E0,0E0,0E0,0E0,0E0,0E0,0E0,0E0,0E0,0E0,0E0,5.4550004E-1,1.9870508E-1,2.7395833E-1,0E0,0E0,0E0,0E0,0E0,0E0],"parents":[2147483647,0,0,1,1,2,2,3,3,4,4,5,5,6,6,8,8,9,9,10,10,13,13,14,14,15,15,16,16,17,17,18,18,20,20,21,21,23,23,27,27,29,29,31,31,32,32,33,33,34,34,37,37,41,41,43,43,44,44,56,56,57,57,58,58],"right_children":[2,4,6,8,10,12,14,-1,16,18,20,-1,-1,22,24,26,28,30,32,-1,34,36,-1,38,-1,-1,-1,40,-1,42,-1,44,46,48,50,-1,-1,52,-1,-1,-1,54,-1,56,58,-1,-1,-1,-1,-1,-1,-1,-1,-1,-1,-1,60,62,64,-1,-1,-1,-1,-1,-1],"split_conditions":[1.6447039E0,4.67315E1,4.9224487E3,6.0852456E-1,1.56998E1,3.6543858E-1,1.56998E1,-3.180496E-2,1.56998E1,5.509604E-1,1.6720829E1,-2.2715153E-3,2.2681474E-3,1.9214879E0,2.314829E-1,2.5539571E-2,1.0923864E0,4.015583E-2,1.3282293E-1,-4.4448877E-4,9.09199E-2,2.0245575E3,-1.547098E-4,2.3185559E-1,-8.4714884E-5,2.7247667E-4,-6.74361E-3,6.56331E-1,-1.2752867E-3,7.7407556E0,-3.596884E-2,6.9402826E-1,2.3494932E1,6.1097765E-1,3.034942E1,5.860511E-2,-1.7153081E-1,2.3306961E1,-2.4204253E-5,-8.795422E-2,9.639644E-3,1.000095E0,-4.1547645E-4,2.3619396E1,3.7344112E1,7.0046424E-4,-3.4507883E-1,-1.499319E-4,8.8181015E-4,4.53365E-2,-6.1266724E-2,1.0605517E-1,-8.326149E-4,-6.8316935E-4,1.9163132E-4,-1.4105759E-2,1.8247805E1,5.7602137E-2,1.9128273E1,-1.5907288E-5,1.9601153E-2,-1.9727565E-2,3.4775017E-4,-4.959676E-2,1.6551017E-5],"split_indices":[2,26,12,2,6,19,6,0,6,7,0,0,0,2,19,15,47,10,43,0,43,9,0,15,0,0,0,2,0,33,0,47,0,7,25,0,0,31,0,0,0,14,0,0,25,0,0,0,0,0,0,0,0,0,0,0,1,15,0,0,0,0,0,0,0],"split_type":[0,0,0,0,0,0,0,0,0,0,0,0,0,0,0,0,0,0,0,0,0,0,0,0,0,0,0,0,0,0,0,0,0,0,0,0,0,0,0,0,0,0,0,0,0,0,0,0,0,0,0,0,0,0,0,0,0,0,0,0,0,0,0,0,0],"sum_hessian":[1.288E3,1.206E3,8.2E1,8.47E2,3.59E2,4.7E1,3.5E1,7.72E2,7.5E1,3.24E2,3.5E1,4.6E1,1E0,1.5E1,2E1,6.5E1,1E1,2.48E2,7.6E1,1.9E1,1.6E1,5E0,1E1,1.7E1,3E0,1E0,6.4E1,4E0,6E0,2.7E1,2.21E2,7.3E1,3E0,7E0,9E0,3E0,2E0,1.5E1,2E0,1E0,3E0,7E0,2E1,1.4E1,5.9E1,2E0,1E0,6E0,1E0,7E0,2E0,1.4E1,1E0,5E0,2E0,9E0,5E0,5.6E1,3E0,1E0,4E0,5.2E1,4E0,2E0,1E0],"tree_param":{"num_deleted":"0","num_feature":"56","num_nodes":"65","size_leaf_vector":"1"}},{"base_weights":[-1.5050438E-2,2.953125E-1,-2.293324E-2,5.2499987E-2,6.461538E-1,-4.2353593E-2,3.026705E-2,-1.4062503E-3,3.5999998E-1,7.7272725E-1,-1.0000003E-3,2.1249999E-1,-4.341677E-2,-8.159734E-3,2.51E-1,-1.0000003E-3,1.9E-2,2.565E-2,-7.500002E-4,1.4249999E-2,-1.0000003E-3,-2.0772958E-2,-1.4978966E-3,-2.3791833E-2,2.0249999E-1,-2.2727386E-3,4.3448275E-1,6.862744E-2,-1.4904462E-3,3.1976733E-2,-1.4918481E-3,1.5624989E-2,2.2799999E-2,1.4249999E-2,-1.4285718E-3,6.1944443E-1,1.2083332E-1,-2.375001E-2,3.7083334E-1,-2.152779E-2,2.8666666E-1,1.4249999E-2,-1.4000003E-3,7.03125E-1,-1.0000003E-3,-1.3500003E-3,1.9E-2,-1.4605266E-3,2.9999998E-1,-1.2500002E-3,6.7142856E-1,1.7777777E-1,-1.4765628E-3,6.25E-1,5.499999E-2,-7.500002E-4,7.5333333E-1,-7.500002E-4,1.4249999E-2,2.3749998E-2,-7.500002E-4,1.9E-2,-1.2857146E-3,2.2799999E-2,-7.500002E-4,-1.3333337E-3,1.4249999E-2,-7.500002E-4,2.4321428E-2],"categories":[],"categories_nodes":[],"categories_segments":[],"categories_sizes":[],"default_left":[0,0,0,0,0,0,0,0,0,0,0,0,0,0,0,0,0,0,0,0,0,0,0,0,0,0,0,0,0,0,0,0,0,0,0,0,0,0,0,0,0,0,0,0,0,0,0,0,0,0,0,0,0,0,0,0,0,0,0,0,0,0,0,0,0,0,0,0,0],"id":28,"left_children":[1,3,5,7,9,11,13,-1,15,17,-1,19,21,23,25,-1,-1,-1,-1,-1,-1,27,-1,29,31,33,35,37,-1,39,-1,41,-1,-1,-1,43,45,47,49,51,53,-1,-1,55,-1,-1,-1,-1,57,-1,59,61,-1,63,65,-1,67,-1,-1,-1,-1,-1,-1,-1,-1,-1,-1,-1,-1],"loss_changes":[3.1603484E0,2.6921139E0,1.3010076E0,6.280312E-1,1.1438236E0,2.5904644E-1,2.8605013E0,0E0,5.5866665E-1,7.433181E-1,0E0,2.7395833E-1,1.3449848E-1,9.532173E-1,2.3245463E0,0E0,0E0,0E0,0E0,0E0,0E0,5.383884E-1,0E0,3.9068198E-1,