tree
version=v4
num_class=1
num_tree_per_iteration=1
label_index=0
max_feature_idx=55
objective=regression
feature_names=Column_0 Column_1 Column_2 Column_3 Column_4 Column_5 Column_6 Column_7 Column_8 Column_9 Column_10 Column_11 Column_12 Column_13 Column_14 Column_15 Column_16 Column_17 Column_18 Column_19 Column_20 Column_21 Column_22 Column_23 Column_24 Column_25 Column_26 Column_27 Column_28 Column_29 Column_30 Column_31 Column_32 Column_33 Column_34 Column_35 Column_36 Column_37 Column_38 Column_39 Column_40 Column_41 Column_42 Column_43 Column_44 Column_45 Column_46 Column_47 Column_48 Column_49 Column_50 Column_51 Column_52 Column_53 Column_54 Column_55
feature_infos=[0.75083663650051258:72.358413745447834] [1.3401900476381901:24.999094535231844] [4.2521361139933617e-07:16.59097670136525] [1.1676576661410274:30.88758984300938] [0.0022764227642276423:0.90498200719712107] [0.0033691819423076791:0.0066163272345077084] [3.0489668654672513:16.206679693421005] [0.087145760879715387:0.72728511773602611] none [326.10442177832806:31698.930411208279] [0.038126653398661066:1] [0.083989501312335943:0.19148511454910591] [27.542195174629704:311259.93808514124] [0.51054816564772254:181.19683867462251] [0.53600094082207272:1.4104630710638155] [1.7041012300063953e-08:1.0435056270437197] [0.48925539519465078:0.99999998295898829] [-0.19141262667211581:0.12269955944377776] [-0.20433628322039279:0.13147233219261725] [0.053341455918766371:0.62272415589281038] [34.758982035261539:4305.6964613201162] [0.0002322504637712902:0.028769542185831037] [4818.3114490381768:114089.19945192333] [1.906656977257029:6.3738649484648846] [-0.99999737084251805:0.99999829014828368] [15.093241690892736:41.972112479293855] [10.04707585035181:69.850576822460312] [0.5353679387820196:9.9354871942805296] [0.65381702024834509:7.0010412443219607] [85.047706724908579:97.848068608729903] [6.8163207703100559:12.68835477878368] [17.429888728036559:25.831476378599284] [2.8794837005694931:44.421980882891951] [6.9039080856385153:12.532830492779034] [2.3556946561993479:31.210792259378163] [0.34999999999999998:141.45999999999998] [0.14999999999999999:76.299999999999997] [0.17999999999999999:65.159999999999997] [0.28141135972461273:0.57142857142857151] [0.29999999999999999:0.80000000000000004] [7874:15000] [15:30] [18600:20000] [0.030644464985208023:0.19941978150057399] [0.050025611222997056:0.24988826484995957] [0.070065222734316618:0.29939056324598023] [0.30137249089453549:1.9879619390918601] [0.50010438061444318:2.4687012255564436] [0.03425235991480477:0.61481026359753477] [-0.032873820042597618:0.33888615815852086] [25.249151269682969:58.972112479293855] [-2.1049842672346348:1.7654017573168987] [0.015107641788478787:74.16792874370887] [0.0086560410628976903:36.563562371895159] [0.13729119821939584:358.88179561624418] [0.10595389253268195:179.86861492734101]
tree_sizes=2677 2703 2711 2709 2711 2714 2723 2721 2719 2722 2721 2723 2737 2727 2725 2735 2725 2733 2732 2743 2737 2732 2733 2738 2729 2746 2741 2727 2730 2734 2731 2736 2741 2736 2757 2735 2741 2753 2751 2764 2743 2764 2746 2768 2749 2759 2762 2751 2756 2747 2760 2750 2763 2759 2754 2759 2754 2759 2758 2751 2768 2749 2757 2768 2759 2771 2773 2782 2774 2764 2771 2773 2776 2766 2770 2766 2783 2774 2779 2787 2774 2775 2797 2785 2777 2792 2770 2796 2787 2789 2782 2810 2801 2785 2786 2803 2781 2782 2796 2790 2790 2806 2790 2806 2788 2814 2807 2809 2814 2811 2829 2813 2812 2819 2824 2818 2812 2812 2811 2825 2814 2832 2820 2132 2813 2127 2823 2821 2486 2825 2831 2827 2817 2822 2409 2821 2409 2829 2830 2828 2832 2826 2826 2828 2582 2826 2850 2669 2311 2845 2154 2861 2849 2842 2399 2403 2834 2842 2847 2826 2762 2844 2407 2309 2851 2851 2228 2848 2327 2677 2856 2855 2834 2594 2836 2851 2855 2841 2855 2852 2848 2855 2832 2866 2411 2854 2161 2509 2851 2770 2863 2872

Tree=0
num_leaves=31
num_cat=0
split_feature=10 0 9 38 0 0 38 4 38 19 0 12 0 32 0 2 34 0 0 29 0 29 29 23 0 0 31 28 12 12
split_gain=13818.4 4942.13 2248.84 1108.27 803.238 671.823 614.422 440.481 412.534 273.618 212.375 197.344 167.98 121.033 116.357 109.133 87.8561 71.2858 63.9365 58.047 54.5076 48.1084 30.9915 24.5086 23.9289 22.701 16.52 15.9198 13.571 12.9929
threshold=0.058790169072633104 29.66995779297751 5286.609310399469 0.40231092436974797 46.924599943026884 19.128097906071034 0.4812128159619567 0.0044878048780487819 0.28448250389664115 0.23823442332198863 16.584840296760323 4919.9814571456118 40.159479115232408 12.259996656776174 17.3161584560678 1.3963187918929518 11.861139896233823 11.243529760699099 23.205617823557862 89.809115167376035 23.018183532673465 89.1620151398795 87.989948876593857 4.116287761589148 34.934733910206219 8.3063263278498471 21.25264182776257 3.0104406909554586 1087.9155522688341 3919.804190820269
decision_type=2 2 2 2 2 2 2 2 2 2 2 2 2 2 2 2 2 2 2 2 2 2 2 2 2 2 2 2 2 2
left_child=3 6 4 5 9 25 8 11 14 12 -8 17 16 22 -2 -7 24 -5 29 -4 -12 -19 -13 -23 -3 -1 -14 -9 -27 -10
right_child=1 2 19 7 -6 15 10 27 18 -11 20 13 26 -15 -16 -17 -18 21 -20 -21 -22 23 -24 -25 -26 28 -28 -29 -30 -31
leaf_value=-0.73143641034588913 -0.85089897308573825 -0.993100793697692 -0.81475968206908722 -0.76052114668700554 -1.2129726288453253 -0.60098259436758217 -0.84625808744431241 -0.76916660247228097 -0.79648120753304463 -0.9607545739911566 -0.9234345308326255 -0.63067512171152085 -1.1008206287406455 -0.71954304233162159 -0.94759483251795873 -0.51127155886957232 -1.0785264494140359 -0.7035431613681794 -0.83671954065104315 -0.88074092018360173 -0.98325441705854588 -0.76006929078817187 -0.67852916208524316 -0.7315710569669045 -1.0373938678909 -0.70687613052524256 -1.139379722931243 -0.78637966880750321 -0.6745202588819037 -0.77490068512620591
leaf_weight=20 21 21 21 98 34 26 25 77 105 25 29 21 20 70 24 23 38 49 35 28 26 34 29 135 23 28 20 130 20 33
leaf_count=20 21 21 21 98 34 26 25 77 105 25 29 21 20 70 24 23 38 49 35 28 26 34 29 135 23 28 20 130 20 33
internal_value=-0.810391 -0.928282 -1.03276 -0.728487 -1.08156 -0.643559 -0.847649 -0.743941 -0.821553 -1.05117 -0.918758 -0.726832 -1.0697 -0.694079 -0.90247 -0.558873 -1.04511 -0.739269 -0.800505 -0.852463 -0.951713 -0.729716 -0.65843 -0.737304 -1.01625 -0.704583 -1.1201 -0.779977 -0.693395 -0.791321
internal_weight=1288 528 230 760 181 117 298 643 218 147 80 436 122 120 45 49 82 316 173 49 55 218 50 169 44 68 40 207 48 138
internal_count=1288 528 230 760 181 117 298 643 218 147 80 436 122 120 45 49 82 316 173 49 55 218 50 169 44 68 40 207 48 138
is_linear=0
shrinkage=1


Tree=1
num_leaves=31
num_cat=0
split_feature=10 0 9 38 0 0 38 4 38 30 0 12 52 32 0 2 0 0 0 29 0 29 54 29 23 0 28 12 12 12
split_gain=13001.8 4650.05 2115.93 1042.77 755.766 632.119 578.11 414.448 388.153 259.163 199.824 185.681 145.526 113.88 109.48 102.683 81.2559 67.289 60.1579 54.6164 51.2862 46.2261 32.7445 29.1599 24.351 21.3593 14.9789 12.7689 12.225 14.1331
threshold=0.058790169072633104 29.66995779297751 5286.609310399469 0.40231092436974797 46.924599943026884 19.128097906071034 0.4812128159619567 0.0044878048780487819 0.28448250389664115 9.1372936954877471 16.584840296760323 4919.9814571456118 15.246357088419833 12.259996656776174 17.3161584560678 1.3963187918929518 38.949601739704015 12.16689030430093 23.205617823557862 89.809115167376035 23.018183532673465 89.1620151398795 162.66439012314564 87.989948876593857 4.116287761589148 8.3063263278498471 3.0104406909554586 1087.9155522688341 3919.804190820269 1600.667284582293
decision_type=2 2 2 2 2 2 2 2 2 2 2 2 2 2 2 2 2 2 2 2 2 2 2 2 2 2 2 2 2 2
left_child=3 6 4 5 9 25 8 11 14 12 -8 17 22 23 -2 -7 -11 -5 28 -4 -12 -19 -3 -13 -23 -1 -9 -27 29 -10
right_child=1 2 19 7 -6 15 10 26 18 16 20 13 -14 -15 -16 -17 -18 21 -20 -21 -22 24 -24 -25 -26 27 -28 -29 -30 -31
leaf_value=0.076585788846015926 -0.039292896879570827 -0.19002934026718138 -0.0042377837055495807 0.04963999122659736 -0.39050433102776022 0.20312599209638743 -0.034791237527132035 0.039987503102460464 0.019645093706203622 -0.24557240724563598 -0.10965238957569516 0.17432424409048897 -0.12893191524914333 0.088122354601110731 -0.13308788567781449 0.29014570153277852 -0.31127417117357253 0.10545178724371869 -0.025538848604474747 -0.068239586580145561 -0.16767767979548526 0.048811895023373991 -0.23745326418625681 0.12790582044371243 0.077350929421047834 0.10040925673076084 0.023290828971622081 0.13179445767402648 0.034425443092530421 -0.0061964882254600517
leaf_weight=20 21 20 21 107 34 26 25 77 80 36 29 21 21 70 24 23 32 46 35 28 26 34 38 29 129 28 130 20 33 25
leaf_count=20 21 20 21 107 34 26 25 77 80 36 29 21 21 70 24 23 32 46 35 28 26 34 38 29 129 28 130 20 33 25
internal_value=-1.81955e-10 -0.114355 -0.215694 0.0794465 -0.263038 0.161826 -0.0361399 0.0644566 -0.0108275 -0.233556 -0.105116 0.0810522 -0.1966 0.112822 -0.0893169 0.243972 -0.276491 0.0689878 0.00958887 -0.0408102 -0.137083 0.0788931 -0.2211 0.147402 0.071398 0.102633 0.0295017 0.113486 0.0184981 0.0134923
internal_weight=1288 528 230 760 181 117 298 643 218 147 80 436 79 120 45 49 68 316 173 49 55 209 58 50 163 68 207 48 138 105
internal_count=1288 528 230 760 181 117 298 643 218 147 80 436 79 120 45 49 68 316 173 49 55 209 58 50 163 68 207 48 138 105
is_linear=0
shrinkage=0.03


Tree=2
num_leaves=31
num_cat=0
split_feature=10 0 4 38 0 0 41 4 38 45 32 0 12 32 2 0 28 0 0 0 32 47 0 29 0 0 28 28 23 12
split_gain=12233.4 4377.38 2052.02 981.143 731.606 594.761 457.536 389.954 296.813 253.208 185.041 175.333 174.707 107.15 96.6143 72.1524 70.2737 63.6656 60.4053 59.1217 45.0795 32.5354 28.0226 27.4365 20.097 18.5679 16.3224 14.0937 12.8353 12.0143
threshold=0.058790169072633104 28.339100894315045 0.4710755697720912 0.40231092436974797 46.924599943026884 19.128097906071034 16.500000000000004 0.0044878048780487819 0.4812128159619567 0.23450909879598078 10.547944068091351 16.223741839496991 4919.9814571456118 12.259996656776174 1.3963187918929518 41.234007481668371 2.3941398853097002 13.286836957088807 17.655710534484204 23.205617823557862 11.61431459001909 1.3554584398729059 23.205617823557862 87.989948876593857 8.3063263278498471 34.776923475791925 1.9965419551192931 3.0104406909554586 3.9930168072461245 1087.9155522688341
decision_type=2 2 2 2 2 2 2 2 2 2 2 2 2 2 2 2 2 2 2 2 2 2 2 2 2 2 2 2 2 2
left_child=3 6 4 5 9 24 8 12 19 10 21 -8 17 23 -7 25 -4 -5 -10 -2 26 -3 -13 -14 -1 -12 -19 -9 -22 -26
right_child=1 2 16 7 -6 14 11 27 18 -11 15 22 13 -15 -16 -17 -18 20 -20 -21 28 -23 -24 -25 29 -27 -28 -29 -30 -31
leaf_value=0.074288215577602373 0.017943136686783122 -0.16600369385310582 0.00427176552824676 0.049592481175390613 -0.37245468970707485 0.19703221348615793 -0.034191744879021171 0.038787878060882741 -0.044418895429931576 -0.12390034709657942 -0.22310740256309508 -0.10373545093969865 0.16909451178142001 0.085478683565344132 0.28144132779992143 -0.3069907670754653 -0.066916806885542773 0.11013605093955993 -0.1181513630747795 -0.028524345248937606 0.048064282852060651 -0.21231987513028658 -0.14973972944112926 0.12406864507444973 0.097396979033946993 -0.25995544966310263 0.083629929397417146 0.022592104014295799 0.070873346943408244 0.12784061515331269
leaf_weight=20 138 21 24 119 35 26 28 77 20 21 20 22 21 70 23 26 26 30 20 30 34 39 26 29 28 32 69 130 64 20
leaf_count=20 138 21 24 119 35 26 28 77 20 21 20 22 21 70 23 26 26 30 20 30 34 39 26 29 28 32 69 130 64 20
internal_value=-1.83213e-10 -0.110924 -0.204115 0.0770631 -0.248283 0.156972 -0.0308583 0.0625229 -0.00784126 -0.220949 -0.235718 -0.0938524 0.0786207 0.109437 0.236653 -0.266186 -0.0327463 0.0669181 -0.0812851 0.00964537 0.0773839 -0.196109 -0.128654 0.14298 0.0995543 -0.245783 0.0916621 0.0286166 0.06296 0.110082
internal_weight=1288 528 244 760 194 117 284 643 208 159 138 76 436 120 49 78 50 316 40 168 197 60 48 50 68 52 99 207 98 48
internal_count=1288 528 244 760 194 117 284 643 208 159 138 76 436 120 49 78 50 316 40 168 197 60 48 50 68 52 99 207 98 48
is_linear=0
shrinkage=0.03


Tree=3
num_leaves=31
num_cat=0
split_feature=10 0 9 38 0 0 38 4 38 19 0 12 0 32 0 2 34 0 0 0 0 29 29 0 23 0 28 28 22 12
split_gain=11510.4 4122.4 1876.22 923.158 670.056 559.61 512.766 366.908 343.519 245.833 178.146 164.382 144.319 100.817 96.4941 90.9044 77.0472 60.1043 52.4414 52.3618 45.6727 40.677 25.815 21.4948 20.5387 18.9093 13.2607 12.8469 11.6145 11.5025
threshold=0.058790169072633104 29.66995779297751 5286.609310399469 0.40231092436974797 46.924599943026884 19.128097906071034 0.4812128159619567 0.0044878048780487819 0.28448250389664115 0.23823442332198863 16.584840296760323 4919.9814571456118 40.159479115232408 12.259996656776174 17.3161584560678 1.3963187918929518 11.861139896233823 11.243529760699099 43.239016725615507 23.205617823557862 23.018183532673465 89.1620151398795 87.989948876593857 34.934733910206219 4.116287761589148 8.3063263278498471 3.0104406909554586 2.5325180594642434 53637.540491572225 3919.804190820269
decision_type=2 2 2 2 2 2 2 2 2 2 2 2 2 2 2 2 2 2 2 2 2 2 2 2 2 2 2 2 2 2
left_child=3 6 4 5 9 25 8 11 14 12 -8 17 16 22 -2 -7 23 -5 -4 29 -12 -19 -13 -3 -23 -1 -9 -14 -15 -10
right_child=1 2 18 7 -6 15 10 26 19 -11 20 13 27 28 -16 -17 -18 21 -20 -21 -22 24 -24 -25 -26 -27 -28 -29 -30 -31
leaf_value=0.072059566318988785 -0.036989009182434529 -0.16563917977469308 -0.01031820181550251 0.045396619816215664 -0.3676155483021456 0.19112124268825237 -0.032513114708662028 0.037624241282994096 0.012549271960875817 -0.13413247075080872 -0.10321114564764088 0.16402167388371058 -0.26711273145675657 0.093497170239686969 -0.1250457376241684 0.27299810015636938 -0.24589927460017957 0.097749426316241825 -0.072715140499851921 -0.023679656497069764 -0.15796882840303272 0.045865359201150778 0.12034658505998808 -0.20761897149293321 0.071953592326905985 0.10677937492728233 0.021914340875469722 -0.30111592197418213 0.068803862184286121 0.032854385440322487
leaf_weight=20 21 21 27 98 34 26 25 77 105 25 29 21 20 40 24 23 38 49 22 35 26 34 29 23 135 48 130 20 30 33
leaf_count=20 21 21 27 98 34 26 25 77 105 25 29 21 20 40 24 23 38 49 22 35 26 34 29 23 135 48 130 20 30 33
internal_value=4.88353e-10 -0.107596 -0.203013 0.0747512 -0.247595 0.152262 -0.0339528 0.0606473 -0.0101137 -0.219835 -0.0989143 0.0762621 -0.237397 0.106154 -0.0839526 0.229553 -0.214608 0.0649106 -0.0383332 0.00909295 -0.129097 0.0736829 0.13869 -0.187583 0.0667051 0.0965677 0.0277581 -0.284114 0.0829143 0.0174048
internal_weight=1288 528 230 760 181 117 298 643 218 147 80 436 122 120 45 49 82 316 49 173 55 218 50 44 169 68 207 40 70 138
internal_count=1288 528 230 760 181 117 298 643 218 147 80 436 122 120 45 49 82 316 49 173 55 218 50 44 169 68 207 40 70 138
is_linear=0
shrinkage=0.03


Tree=4
num_leaves=31
num_cat=0
split_feature=10 0 9 38 0 0 38 4 38 19 0 12 0 0 2 34 0 32 34 0 0 0 0 0 2 23 31 28 0 0
split_gain=10830.1 3878.77 1765.33 868.599 630.456 526.537 482.461 345.224 323.217 231.304 167.618 155.458 135.79 90.9914 85.5319 72.4937 72.2152 62.6479 58.845 49.3421 49.2672 42.9734 20.2244 19.5879 18.5487 17.7745 12.4806 12.477 10.9372 10.7995
threshold=0.058790169072633104 29.66995779297751 5286.609310399469 0.40231092436974797 46.924599943026884 19.128097906071034 0.4812128159619567 0.0044878048780487819 0.28448250389664115 0.23823442332198863 16.584840296760323 6366.440323753829 40.159479115232408 16.223741839496991 1.3963187918929518 11.861139896233823 13.286836957088807 12.259996656776174 9.7968411698629705 43.239016725615507 23.205617823557862 23.018183532673465 34.934733910206219 20.749181995996143 1.0454243686160234 4.116287761589148 21.25264182776257 3.0104406909554586 18.223624557794398 8.4517929937582554
decision_type=2 2 2 2 2 2 2 2 2 2 2 2 2 2 2 2 2 2 2 2 2 2 2 2 2 2 2 2 2 2
left_child=3 6 4 5 9 24 8 11 13 12 -8 16 15 -2 -7 22 -5 -13 23 -4 28 -12 -3 -18 -1 -20 -14 -9 29 -10
right_child=1 2 19 7 -6 14 10 27 20 -11 21 17 26 -15 -16 -17 18 -19 25 -21 -22 -23 -24 -25 -26 -27 -28 -29 -30 -31
leaf_value=0.0793288283412521 -0.033739307217299938 -0.16067000763756886 -0.010008655364314716 0.046569697340997328 -0.35658710339490107 0.18538760607059185 -0.031537720935791727 0.036495514155014765 0.020659968508407473 -0.13010849876403807 -0.10011481120668608 0.14229701328277586 -0.25883340311050418 -0.11958978939056396 0.26480814270351244 -0.23852229595184327 0.084947865582429435 0.08795180946588517 0.048584818720817567 -0.070533683672547337 -0.022969266286918092 -0.15322976850546324 -0.20139039703037429 0.11571997379434519 0.11078828088698849 0.070851741213547551 -0.29234838867187501 0.02125691081010378 0.037397188112139705 0.0020511030792461139
leaf_weight=37 20 21 27 119 34 26 25 77 72 25 29 35 20 25 23 38 52 42 45 22 35 26 23 29 31 114 20 130 20 46
leaf_count=37 20 21 27 119 34 26 25 77 72 25 29 35 20 25 23 38 52 42 45 22 35 26 23 29 31 114 20 130 20 46
internal_value=-1.22453e-10 -0.104369 -0.196923 0.0725086 -0.240167 0.147695 -0.0329342 0.0588278 -0.00981029 -0.21324 -0.0959468 0.0739742 -0.230275 -0.081434 0.222667 -0.208169 0.0656779 0.112654 0.0751524 -0.0371832 0.00882016 -0.125224 -0.181956 0.095965 0.0936706 0.0645498 -0.275591 0.0269254 0.0168827 0.0134057
internal_weight=1288 528 230 760 181 117 298 643 218 147 80 436 122 45 49 82 359 77 240 49 173 55 44 81 68 159 40 207 138 118
internal_count=1288 528 230 760 181 117 298 643 218 147 80 436 122 45 49 82 359 77 240 49 173 55 44 81 68 159 40 207 138 118
is_linear=0
shrinkage=0.03


Tree=5
num_leaves=31
num_cat=0
split_feature=10 0 4 52 0 12 4 38 4 38 19 0 0 0 12 32 50 32 32 22 23 1 29 41 0 23 27 28 2 28
split_gain=10190 3650.86 1747.65 821.237 680.449 357.922 352.495 347.562 207.219 199.965 174.284 159.157 120.15 115.287 98.5331 76.6898 74.4446 68.6482 45.009 38.6252 46.9171 34.7766 28.7106 26.4046 24.0284 23.4744 20.9622 12.9003 12.4114 12.3235
threshold=0.058790169072633104 27.045309529064465 0.4710755697720912 16.227533596473446 41.234007481668371 4919.9814571456118 0.0044878048780487819 0.4812128159619567 0.0037195121951219515 0.28448250389664115 0.20764821924941687 46.924599943026884 34.221631260057727 15.486952311062486 3310.8107503778401 12.154530246245004 37.886513097032143 9.508652424321113 12.607426089862653 70085.971499525214 3.4444753265314865 11.01529897527517 89.787236059824423 19.000000000000004 21.167274226222002 4.0451903042769226 3.1583934291286684 3.057294842734513 2.3800671033540612 1.9965419551192931
decision_type=2 2 2 2 2 2 2 2 2 2 2 2 2 2 2 2 2 2 2 2 2 2 2 2 2 2 2 2 2 2
left_child=3 7 4 6 10 28 8 9 14 -2 12 -6 23 -9 21 -4 -7 26 -14 29 -21 -1 -23 -3 -15 -19 -16 -27 -5 -11
right_child=1 2 15 5 11 16 -8 13 -10 19 -12 -13 18 24 17 -17 -18 25 -20 20 -22 22 -24 -25 -26 27 -28 -29 -30 -31
leaf_value=0.041960144369832926 -0.065738612562417975 -0.13890348613262177 0.019934479851275683 0.089143987074494363 -0.25193099471238944 0.2584193474905831 0.026117615386627723 -0.025208643673157147 0.15390299942758348 0.028997096742757342 -0.1069322982430458 -0.34005291938781734 -0.19691987718854631 -0.086506937120271771 0.090531931264059881 -0.054951729015447197 0.17853839703968594 0.050165128394961359 -0.24900247871875761 0.011949172401800752 -0.046623966291546817 0.082604005011645235 0.056213242521411494 -0.18295728092193603 -0.12941740229725837 0.097708214010511121 0.12887346831235019 0.072912430557711363 0.11927013552188874 0.0085002698413286868
leaf_weight=93 38 24 20 32 39 21 207 22 27 66 24 35 28 23 21 32 21 30 32 32 20 55 114 25 24 28 33 58 20 44
leaf_count=93 38 24 20 32 39 21 207 22 27 66 24 35 28 23 21 32 21 30 32 32 20 55 114 25 24 28 33 58 20 44
internal_value=-1.17881e-10 -0.101237 -0.181632 0.0703334 -0.220691 0.153342 0.0586175 -0.0238313 0.0732743 -0.00380176 -0.180119 -0.29361 -0.196234 -0.0818879 0.068235 -0.0261493 0.218479 0.0860218 -0.224697 0.0107266 -0.010579 0.056694 0.064802 -0.16138 -0.108419 0.0730147 0.113963 0.0809855 0.100731 0.0207984
internal_weight=1288 528 259 760 207 94 666 269 459 200 133 74 109 69 432 52 42 170 60 162 52 262 169 49 47 116 54 86 52 110
internal_count=1288 528 259 760 207 94 666 269 459 200 133 74 109 69 432 52 42 170 60 162 52 262 169 49 47 116 54 86 52 110
is_linear=0
shrinkage=0.03


Tree=6
num_leaves=31
num_cat=0
split_feature=10 0 9 52 0 38 12 4 38 19 4 0 0 12 0 50 32 34 28 1 43 0 1 29 23 27 0 28 28 28
split_gain=9587.81 3439.57 1567.01 772.701 558.629 428.527 336.769 331.662 286.083 208.747 194.972 148.885 122.071 92.7098 83.7867 70.0449 64.5911 64.3792 47.6599 45.3773 68.6683 38.5896 32.7258 26.5197 22.0871 19.7233 17.9014 13.7296 12.1379 11.7396
threshold=0.058790169072633104 29.66995779297751 5286.609310399469 16.227533596473446 46.924599943026884 0.4812128159619567 4919.9814571456118 0.0044878048780487819 0.28448250389664115 0.23823442332198863 0.0037195121951219515 16.584840296760323 40.159479115232408 3310.8107503778401 16.223741839496991 37.886513097032143 9.508652424321113 11.861139896233823 2.3941398853097002 22.190850060196308 0.10988094374167377 23.018183532673465 8.9503330197542521 89.6261205475232 4.0451903042769226 3.1583934291286684 34.934733910206219 1.9965419551192931 3.057294842734513 3.0104406909554586
decision_type=2 2 2 2 2 2 2 2 2 2 2 2 2 2 2 2 2 2 2 2 2 2 2 2 2 2 2 2 2 2
left_child=3 5 4 7 9 8 -5 10 14 12 13 -7 17 22 -2 -8 25 26 -4 27 -21 -13 -1 -24 -18 -15 -3 -10 -26 -9
right_child=1 2 18 6 -6 11 15 29 19 -11 -12 21 -14 16 -16 -17 24 -19 -20 20 -22 -23 23 -25 28 -27 -28 -29 -30 -31
leaf_value=0.037932917671660848 -0.030754969627596437 -0.15124804190226962 -0.0058683816745877266 0.097709037065505974 -0.33568790211397059 -0.029614656467735766 0.2506667716162545 0.034617120289763846 0.030231208630272597 -0.12177928318977356 0.14928591132164001 -0.094116647613459614 -0.25990220046043394 0.087815975121089379 -0.11313653326034546 0.17318224736622403 0.048660173684358599 -0.22458078033045717 -0.065054579123388981 -0.055551334917545318 0.0090934970766305932 -0.14444957490150745 0.078060172796249383 0.053918567091919653 0.094776967763900752 0.12500726374712856 -0.18955846620642619 0.0077824163230181464 0.07072505821441781 0.01983567485786401
leaf_weight=73 20 21 25 52 34 25 21 77 61 25 27 29 40 21 25 21 30 38 24 21 50 26 60 129 28 33 23 41 58 130
leaf_count=73 20 21 25 52 34 25 21 77 61 25 27 29 40 21 25 21 30 38 24 21 50 26 60 129 28 33 23 41 58 130
internal_value=-3.18378e-10 -0.0982003 -0.185357 0.0682234 -0.2261 -0.0309318 0.148741 0.056859 -0.00913868 -0.200753 0.0710761 -0.090318 -0.216936 0.066188 -0.0765225 0.211925 0.0834411 -0.195977 -0.0348575 0.0083889 -0.0100268 -0.11791 0.0549932 0.0615826 0.0708243 0.110544 -0.171274 0.0212077 0.0785559 0.0253341
internal_weight=1288 528 230 760 181 298 94 666 218 147 459 80 122 432 45 42 170 82 49 173 71 55 262 189 116 54 44 102 86 207
internal_count=1288 528 230 760 181 298 94 666 218 147 459 80 122 432 45 42 170 82 49 173 71 55 262 189 116 54 44 102 86 207
is_linear=0
shrinkage=0.03


Tree=7
num_leaves=31
num_cat=0
split_feature=10 0 4 2 0 4 38 12 38 45 12 32 0 4 0 0 29 28 0 27 43 34 28 0 1 0 1 48 12 1
split_gain=9021.17 3236.47 1521.92 730.006 539.602 340.131 335.424 327.857 219.099 212.918 211.118 143.2 116.09 99.5669 62.9119 61.0574 62.363 59.6301 57.7044 47.2592 64.1481 32.7382 26.7519 22.7535 19.2169 14.5086 13.7147 12.3109 11.7361 11.6264
threshold=0.058790169072633104 28.339100894315045 0.4710755697720912 1.1721670360470431 46.924599943026884 0.0044878048780487819 0.4812128159619567 4215.9352688449262 0.28448250389664115 0.23450909879598078 6290.4863453332046 10.547944068091351 16.584840296760323 0.0037195121951219515 16.223741839496991 11.243529760699099 89.787236059824423 2.3941398853097002 41.234007481668371 5.1516550919771973 0.13152312055433615 9.0107592775577121 1.6367567263204708 21.167274226222002 24.717107561441171 34.776923475791925 19.149732787646137 0.3781590714910667 3381.6763635480352 24.0495924842904
decision_type=2 2 2 2 2 2 2 2 2 2 2 2 2 2 2 2 2 2 2 2 2 2 2 2 2 2 2 2 2 2
left_child=3 6 4 5 9 10 8 -5 14 11 15 22 -8 21 -2 -1 28 -4 25 26 -21 -12 -3 -14 -18 -13 27 -10 -17 -23
right_child=1 2 17 7 -6 -7 12 -9 19 -11 13 18 23 -15 -16 16 24 -19 -20 20 -22 29 -24 -25 -26 -27 -28 -29 -30 -31
leaf_value=0.042607479727786515 -0.029832320451736449 -0.18867938423156738 0.0062972954893484711 0.094204011162122098 -0.32006338773454934 0.024574064173722179 -0.028726216533780095 0.22314978463309151 0.022221641700136765 -0.10095512696674891 0.1244811639578446 -0.19200389885902402 -0.083554291069507597 0.17083222174644469 -0.10334903272715482 0.08280648738145828 0.063220099743848998 -0.059278981613998229 -0.26678576616140509 -0.049317285096645354 0.011378119319145168 0.093429122992924288 -0.14861549019813536 -0.12514820657927414 0.037068028837442396 -0.22457602299749851 0.041584017335072804 -0.005073478764854371 0.10727158269882202 0.063480906330049033
leaf_weight=115 20 30 24 36 35 207 25 35 58 21 23 20 20 20 22 60 161 26 26 25 42 28 30 29 30 32 23 20 25 20
leaf_count=115 20 30 24 36 35 207 25 35 58 21 23 20 20 20 22 60 161 26 26 25 42 28 30 29 30 32 23 20 25 20
internal_value=-1.046e-10 -0.0952543 -0.175386 0.0661767 -0.213423 0.0567383 -0.0264088 0.157769 -0.00705504 -0.189949 0.0705516 -0.203491 -0.0813316 0.111707 -0.0683411 0.0609732 0.0686256 -0.0278024 -0.230294 0.00826647 -0.0112694 0.0950521 -0.168647 -0.108171 0.0591124 -0.212048 0.0212259 0.0152229 0.0900021 0.0809507
internal_weight=1288 528 244 760 194 689 284 71 210 159 482 138 74 91 42 391 276 50 78 168 67 71 60 49 191 52 101 78 85 48
internal_count=1288 528 244 760 194 689 284 71 210 159 482 138 74 91 42 391 276 50 78 168 67 71 60 49 191 52 101 78 85 48
is_linear=0
shrinkage=0.03


Tree=8
num_leaves=31
num_cat=0
split_feature=10 0 9 38 0 0 38 4 38 30 0 52 12 34 0 2 0 0 0 1 43 0 32 54 29 2 28 28 28 1
split_gain=8488.02 3049.14 1389.43 690.095 495.332 421.711 380.033 268.983 253.435 191.877 131.834 126.853 124.501 76.4125 74.5684 65.0894 53.6152 45.5981 43.1696 40.0657 61.1903 34.6648 34.2201 30.0415 21.5501 15.179 12.925 12.7064 11.0458 10.176
threshold=0.058790169072633104 29.66995779297751 5286.609310399469 0.40231092436974797 46.924599943026884 15.486952311062486 0.4812128159619567 0.0044878048780487819 0.28448250389664115 9.1372936954877471 16.584840296760323 15.246357088419833 4880.8547363907355 11.261518225727377 17.346244159560808 1.3963187918929518 38.949601739704015 13.286836957088807 43.239016725615507 22.190850060196308 0.10988094374167377 23.018183532673465 11.61431459001909 162.66439012314564 87.989948876593857 0.79549153603708833 1.9965419551192931 1.9965419551192931 3.0104406909554586 19.757235668168587
decision_type=2 2 2 2 2 2 2 2 2 2 2 2 2 2 2 2 2 2 2 2 2 2 2 2 2 2 2 2 2 2
left_child=3 6 4 5 9 25 8 12 14 11 -8 23 17 24 -2 -7 -11 -5 -4 27 -21 -12 26 -3 -14 -1 -19 -10 -9 -30
right_child=1 2 18 7 -6 15 10 28 19 16 21 -13 13 -15 -16 -17 -18 22 -20 20 -22 -23 -24 -25 -26 -27 -28 -29 29 -31
leaf_value=0.063516070073650732 -0.032474245869300582 -0.15026957541704178 -0.0073244877780477202 0.040782443109680627 -0.31601536568473365 0.16214593772230476 -0.027864430341124534 0.03284138491353044 0.028685135148068676 -0.2007828978697459 -0.088399264812469486 -0.093978183610098701 0.1427862000465393 0.071226369622097885 -0.10972978965095852 0.22820071678161621 -0.25415243357419964 0.093262754559516908 -0.063937347047030926 -0.052319508620670856 0.0087039994440972802 -0.13610397756099701 0.051789437261771182 -0.19569399306648655 0.10288170452775626 0.092970927134156223 0.069623474163167623 0.0070890177332046554 0.023998155842770586 0.0056822456698864699
leaf_weight=31 22 20 27 119 34 29 25 77 61 36 29 21 21 71 23 25 32 30 22 21 50 26 98 38 29 32 68 41 91 39
leaf_count=31 22 20 27 119 34 29 25 77 61 36 29 21 21 71 23 25 32 30 22 21 50 26 98 38 29 32 68 41 91 39
internal_value=-6.16061e-12 -0.0923967 -0.174458 0.0641914 -0.212823 0.131208 -0.029061 0.0519971 -0.00853801 -0.188955 -0.0849862 -0.157156 0.0653668 0.0912327 -0.0719604 0.192727 -0.225898 0.055431 -0.0327425 0.00795915 -0.00934521 -0.110951 0.0643247 -0.18003 0.119642 0.0784773 0.07686 0.0200043 0.0238368 0.0185034
internal_weight=1288 528 230 760 181 117 298 643 218 147 80 79 436 121 45 54 68 315 49 173 71 55 196 58 50 63 98 102 207 130
internal_count=1288 528 230 760 181 117 298 643 218 147 80 79 436 121 45 54 68 315 49 173 71 55 196 58 50 63 98 102 207 130
is_linear=0
shrinkage=0.03


Tree=9
num_leaves=31
num_cat=0
split_feature=10 0 4 52 0 12 4 38 4 38 19 0 0 0 12 32 50 32 28 32 22 1 1 29 28 23 0 27 28 0
split_gain=7986.38 2870.67 1377.42 651.524 541.532 286.345 275.051 271.845 163.873 154.892 151.543 124.274 96.3087 91.3914 78.1005 65.8963 58.2587 53.9665 48.5597 37.0994 31.2083 42.645 28.0283 23.2719 22.3344 20.1947 18.6787 16.823 11.1822 10.4891
threshold=0.058790169072633104 27.045309529064465 0.4710755697720912 16.227533596473446 41.234007481668371 4919.9814571456118 0.0044878048780487819 0.4812128159619567 0.0037195121951219515 0.28448250389664115 0.20764821924941687 49.035628140033793 34.221631260057727 15.486952311062486 3310.8107503778401 12.154530246245004 37.886513097032143 9.508652424321113 2.3478941468244421 12.607426089862653 70085.971499525214 24.886972509238067 11.01529897527517 89.787236059824423 2.5459533859742938 4.0451903042769226 21.167274226222002 3.1583934291286684 3.057294842734513 18.223624557794398
decision_type=2 2 2 2 2 2 2 2 2 2 2 2 2 2 2 2 2 2 2 2 2 2 2 2 2 2 2 2 2 2
left_child=3 7 4 6 10 -5 8 9 14 -2 12 18 24 -9 22 -4 -7 27 -6 -14 29 -22 -1 -24 -3 -19 -15 -16 -27 -11
right_child=1 2 15 5 11 16 -8 13 -10 20 -12 -13 19 26 17 -17 -18 25 -20 -21 21 -23 23 -25 -26 28 -28 -29 -30 -31
leaf_value=0.036793696745749442 -0.057783352791478761 -0.12567635178565978 0.019839056370779869 0.089144006279798654 -0.19811514713547446 0.22979497092110768 0.023121737172401954 -0.021866225149821148 0.13647893336084152 0.01354370643614846 -0.091150017082691187 -0.31047122980867109 -0.17468629360198973 -0.076633441189061041 0.079914633546556743 -0.049577577277086671 0.15912956442151752 0.043405550459399818 -0.25982025802135467 -0.22197158306837081 -0.041361659832976079 0.013628534637391568 0.0733273911042647 0.049567377684932003 -0.16660406180790494 0.087561253053801399 -0.11446674734354019 0.11426280390132557 0.064475688543812984 0.035649602437019347
leaf_weight=93 38 28 20 52 22 21 207 22 27 85 24 28 28 23 21 32 21 30 24 32 22 30 55 114 21 28 24 33 58 25
leaf_count=93 38 28 20 52 22 21 207 22 27 85 24 28 28 23 21 32 21 30 24 32 22 30 55 114 21 28 24 33 58 25
internal_value=4.95067e-10 -0.0896248 -0.160914 0.0622656 -0.195589 0.136201 0.0518303 -0.020986 0.0647773 -0.00327206 -0.159395 -0.260641 -0.174421 -0.0723308 0.060296 -0.0228789 0.194462 0.0761315 -0.230309 -0.199905 0.00951453 -0.00963655 0.050021 0.0572999 -0.143217 0.0645989 -0.0959526 0.100905 0.0719919 0.0185678
internal_weight=1288 528 259 760 207 94 666 269 459 200 133 74 109 69 432 52 42 170 46 60 162 52 262 169 49 116 47 54 86 110
internal_count=1288 528 259 760 207 94 666 269 459 200 133 74 109 69 432 52 42 170 46 60 162 52 262 169 49 116 47 54 86 110
is_linear=0
shrinkage=0.03


Tree=10
num_leaves=31
num_cat=0
split_feature=10 0 9 2 0 38 4 12 38 19 12 0 0 4 0 34 0 29 28 1 43 0 34 1 0 1 48 28 1 12
split_gain=7514.38 2703.96 1233.2 615.308 440.249 337.305 282.335 277.883 224.817 179.506 178.015 116.969 99.1732 84.821 68.8433 53.0304 51.9579 53.5732 41.4257 35.141 55.3549 31.0444 27.237 17.2372 15.0612 12.1656 10.9309 10.393 10.2702 9.79014
threshold=0.058790169072633104 29.66995779297751 5286.609310399469 1.1721670360470431 46.924599943026884 0.4812128159619567 0.0044878048780487819 4215.9352688449262 0.28448250389664115 0.23823442332198863 6290.4863453332046 16.584840296760323 40.159479115232408 0.0037195121951219515 17.3161584560678 11.861139896233823 11.243529760699099 89.787236059824423 2.3941398853097002 22.190850060196308 0.10988094374167377 23.018183532673465 9.0107592775577121 24.717107561441171 34.934733910206219 19.149732787646137 0.3781590714910667 3.0104406909554586 24.0495924842904 3310.8107503778401
decision_type=2 2 2 2 2 2 2 2 2 2 2 2 2 2 2 2 2 2 2 2 2 2 2 2 2 2 2 2 2 2
left_child=3 5 4 6 9 8 10 -5 14 12 16 -7 15 22 -2 24 -1 29 -4 25 -21 -13 -12 -19 -3 26 -10 -8 -24 -18
right_child=1 2 18 7 -6 11 27 -9 19 -11 13 21 -14 -15 -16 -17 17 23 -20 20 -22 -23 28 -25 -26 -27 -28 -29 -30 -31
leaf_value=0.038580056625863779 -0.028024299825940811 -0.13318162270954678 -0.0036754860933870077 0.085966842671235402 -0.29764249647364899 -0.026175348629057408 0.031162490693779733 0.20467923545837402 0.019767309237208406 -0.10462124891281127 0.11357958430829256 -0.083096043508628314 -0.2315890885591507 0.15668055653572083 -0.10240204095840454 -0.19993105210756001 0.075067343051944457 0.05765427065191802 -0.058855090513825412 -0.049500069192477639 0.0085407896328717463 -0.12824090941594196 0.085602575412818349 0.032885879307985304 -0.16832176737163376 0.038062068016632741 -0.0058965922789648174 0.017254628969213138 0.057455258924514058 0.096542297848339731
leaf_weight=115 21 21 25 36 34 25 77 35 59 25 23 29 40 20 24 38 56 161 24 21 50 26 28 30 23 23 20 130 20 29
leaf_count=115 21 21 25 36 34 25 77 35 59 25 23 29 40 20 24 38 56 161 24 21 50 26 28 30 23 23 20 130 20 29
internal_value=-2.20936e-10 -0.086936 -0.164213 0.0603977 -0.200357 -0.0272929 0.0517324 0.144487 -0.00795805 -0.177855 0.0643175 -0.0799804 -0.192862 0.102109 -0.0676924 -0.173971 0.055522 0.0625812 -0.0307022 0.0075798 -0.00862622 -0.104437 0.0867367 0.0537639 -0.15155 0.0188605 0.0132701 0.0224281 0.0738745 0.0823941
internal_weight=1288 528 230 760 181 298 689 71 218 147 482 80 122 91 45 82 391 276 49 173 71 55 71 191 44 102 79 207 48 85
internal_count=1288 528 230 760 181 298 689 71 218 147 482 80 122 91 45 82 391 276 49 173 71 55 71 191 44 102 79 207 48 85
is_linear=0
shrinkage=0.03


Tree=11
num_leaves=31
num_cat=0
split_feature=10 0 4 38 0 0 38 4 19 38 0 12 0 0 34 28 2 28 0 32 29 22 1 2 29 29 23 2 33 28
split_gain=7070.28 2544.36 1222.73 580.984 482.366 356.548 240.404 223.021 136.542 136.438 110.718 105.393 85.1726 81.1987 65.4921 59.973 48.7827 44.0382 38.8325 33.4543 28.831 28.0393 39.7288 20.6813 18.5769 17.7482 13.0601 12.2042 10.1683 9.7788
threshold=0.058790169072633104 27.045309529064465 0.4710755697720912 0.40231092436974797 41.234007481668371 14.482001242844314 0.4812128159619567 0.0044878048780487819 0.20764821924941687 0.28448250389664115 49.035628140033793 4880.8547363907355 34.221631260057727 15.486952311062486 11.261518225727377 2.3941398853097002 1.3963187918929518 2.3478941468244421 8.6858099094535568 12.607426089862653 89.787236059824423 70085.971499525214 24.886972509238067 0.30687503084360851 87.989948876593857 90.868337811567599 3.9930168072461245 0.79549153603708833 8.9510396295614765 3.0104406909554586
decision_type=2 2 2 2 2 2 2 2 2 2 2 2 2 2 2 2 2 2 2 2 2 2 2 2 2 2 2 2 2 2
left_child=3 6 4 5 8 27 9 11 12 -2 17 18 23 -8 24 -4 -7 -6 -5 -14 -20 28 -23 -3 -13 -15 -22 -1 -11 -9
right_child=1 2 15 7 10 16 13 29 -10 21 -12 14 19 25 -16 -17 -18 -19 20 -21 26 22 -24 -25 -26 -27 -28 -29 -30 -31
leaf_value=0.05550175607204437 -0.054210896005755974 -0.15105732753359039 0.01082799246104864 0.030164022205480888 -0.1862203567678278 0.147478280544281 -0.020424977877092632 0.030227616727352143 -0.085174178779125212 0.024025798459371476 -0.29254279349531448 0.13115870475769043 -0.16423412510326929 -0.072210739776492117 0.064847583804332032 -0.053607826427771489 0.20306218412187363 -0.24498256564140317 0.071896624366442355 -0.20913642838597296 0.030573366656899453 -0.039823009788312699 0.01325365909934044 -0.11140271097421646 0.094109004119346876 -0.10908967463866523 0.05291633688114785 0.082561915516853324 0.004720407252174777 0.016736990241692042
leaf_weight=30 38 29 26 67 22 30 22 77 24 73 28 21 28 24 71 26 27 24 72 32 28 22 30 20 29 23 148 30 37 130
leaf_count=30 38 29 26 67 22 30 22 77 24 73 28 21 28 24 71 26 27 24 72 32 28 22 30 20 29 23 148 30 37 130
internal_value=1.75946e-10 -0.084328 -0.151443 0.0585857 -0.184113 0.120076 -0.019708 0.0473969 -0.149954 -0.00304986 -0.245508 0.0595709 -0.164217 -0.0679923 0.0833692 -0.0213899 0.173807 -0.216879 0.0504293 -0.188182 0.0559041 0.00895088 -0.00920185 -0.134872 0.10967 -0.0902579 0.0493618 0.0690318 0.0175322 0.0217552
internal_weight=1288 528 259 760 207 117 269 643 133 200 74 436 109 69 121 52 57 46 315 60 248 162 52 49 50 47 176 60 110 207
internal_count=1288 528 259 760 207 117 269 643 133 200 74 436 109 69 121 52 57 46 315 60 248 162 52 49 50 47 176 60 110 207
is_linear=0
shrinkage=0.03


Tree=12
num_leaves=31
num_cat=0
split_feature=10 0 9 52 0 38 12 4 38 19 4 0 0 12 0 50 34 32 0 48 43 0 28 34 0 23 34 27 0 28
split_gain=6652.43 2399.05 1093.74 549.716 391.214 299.467 244.217 228.038 199.566 161.562 137.354 103.743 88.5783 66.0217 63.7366 48.6296 47.211 45.2415 38.2066 31.5265 67.0401 28.1348 25.0739 21.5568 19.0823 18.5127 14.2385 14.2085 13.3745 10.3625
threshold=0.058790169072633104 29.66995779297751 5286.609310399469 16.227533596473446 46.924599943026884 0.4812128159619567 4919.9814571456118 0.0044878048780487819 0.28448250389664115 0.23823442332198863 0.0037195121951219515 16.584840296760323 40.159479115232408 3310.8107503778401 16.223741839496991 37.886513097032143 11.861139896233823 9.508652424321113 40.159479115232408 0.3781590714910667 0.10988094374167377 23.018183532673465 3.0024016757107659 8.6143597418930238 7.3487619243441431 4.0451903042769226 10.802158891624737 3.1583934291286684 34.934733910206219 3.057294842734513
decision_type=2 2 2 2 2 2 2 2 2 2 2 2 2 2 2 2 2 2 2 2 2 2 2 2 2 2 2 2 2 2
left_child=3 5 4 7 9 8 -5 10 14 12 13 -7 16 22 -2 -8 28 27 -4 23 -21 -13 24 -10 -1 -19 -25 -15 -3 -27
right_child=1 2 18 6 -6 11 15 -9 19 -11 -12 21 -14 17 -16 -17 -18 25 -20 20 -22 -23 -24 26 -26 29 -28 -29 -30 -31
leaf_value=0.031887142206060475 -0.023762566834688185 -0.12533406615257262 -0.00068747170107520141 0.081283915455524741 -0.28033439229516421 -0.024590910132718271 0.21082769938877649 0.021102585040869704 0.026923866257728898 -0.097937568283081047 0.12467565284834968 -0.077979033178296589 -0.21825193297863008 0.072880507707595826 -0.095614259433746324 0.14626568334443227 -0.18829276536640369 0.038637481048703189 -0.053768306754242913 -0.05535524260997772 0.013864688373663845 -0.12095633172071897 0.034988858979681257 -0.017823820067569614 0.059048726083868637 0.080995332087789265 0.014384473759680987 0.10444698203693736 -0.15844821546388707 0.058772002057782533
leaf_weight=29 20 21 23 52 34 25 21 207 68 25 27 29 40 21 25 21 38 30 26 20 34 26 115 21 118 28 30 33 23 58
leaf_count=29 20 21 23 52 34 25 21 207 68 25 27 29 40 21 25 21 38 30 26 20 34 26 115 21 118 28 30 33 23 58
internal_value=3.35268e-11 -0.0817981 -0.154587 0.0568282 -0.188626 -0.0256184 0.124742 0.0472428 -0.00740026 -0.167415 0.0590315 -0.0752629 -0.181652 0.0549287 -0.0636802 0.178547 -0.163798 0.0694883 -0.0288528 0.00723903 -0.0117723 -0.0982956 0.0454817 0.015866 0.0536903 0.0589291 0.00112224 0.0921711 -0.142644 0.0660075
internal_weight=1288 528 230 760 181 298 94 666 218 147 459 80 122 432 45 42 82 170 49 173 54 55 262 119 147 116 51 54 44 86
internal_count=1288 528 230 760 181 298 94 666 218 147 459 80 122 432 45 42 82 170 49 173 54 55 262 119 147 116 51 54 44 86
is_linear=0
shrinkage=0.03


Tree=13
num_leaves=31
num_cat=0
split_feature=10 0 9 2 0 38 12 4 38 30 12 52 0 4 0 0 29 0 28 1 43 0 54 28 1 28 28 1 1 12
split_gain=6259.27 2257.26 1029.1 518.806 368.093 281.768 236.482 234.329 187.772 152.928 150.155 114.213 98.0643 72.3787 60.2069 44.8241 45.9968 40.4539 37.0118 29.8844 47.966 29.8248 28.6077 23.5671 15.0444 11.2675 9.20087 9.5746 8.77714 8.02388
threshold=0.058790169072633104 29.66995779297751 5286.609310399469 1.1721670360470431 46.924599943026884 0.4812128159619567 4215.9352688449262 0.0044878048780487819 0.28448250389664115 9.1372936954877471 6290.4863453332046 15.246357088419833 15.486952311062486 0.0037195121951219515 17.346244159560808 11.243529760699099 89.787236059824423 37.308222512179491 2.3941398853097002 22.190850060196308 0.10988094374167377 23.018183532673465 162.66439012314564 3.0267996371052965 24.717107561441171 1.9965419551192931 3.0104406909554586 19.757235668168587 9.0955024113544045 3381.6763635480352
decision_type=2 2 2 2 2 2 2 2 2 2 2 2 2 2 2 2 2 2 2 2 2 2 2 2 2 2 2 2 2 2
left_child=3 5 4 7 9 8 -5 10 14 11 15 22 -7 23 -2 -1 29 -11 -4 25 -21 -14 -3 -12 -18 28 -9 -28 -10 -17
right_child=1 2 18 6 -6 12 -8 26 19 17 13 -13 21 -15 -16 16 24 -19 -20 20 -22 -23 -24 -25 -26 -27 27 -29 -30 -31
leaf_value=0.034817971680475318 -0.02628920096226714 -0.12666667270660398 -0.002440873249992728 0.078352478295564645 -0.27192435727399938 -0.019074501352892681 0.18786508635112215 0.028687710504640234 0.011469593383371829 -0.16853969705515895 0.09110454577952623 -0.074056110552379054 -0.07407002259045839 0.14375075250864028 -0.095707703155020016 0.069519414484500872 0.052575064523619888 -0.21532664188971884 -0.054598014950752255 -0.045971166746956962 0.0080572632081806657 -0.11732764060680682 -0.17099381842111286 0.054171204495689143 0.029435645505785941 0.0052625574956352752 0.0209317328445204 0.0031653000500339729 0.034764247659493132 0.089748552846908566
leaf_weight=115 22 20 25 36 34 22 35 77 24 29 48 21 32 20 23 60 161 39 24 21 50 26 38 23 30 41 91 39 37 25
leaf_count=115 22 20 25 36 34 22 35 77 24 29 48 21 32 20 23 60 161 39 24 21 50 26 38 23 30 41 91 39 37 25
internal_value=-4.99899e-11 -0.0793442 -0.14995 0.0551233 -0.182967 -0.0248499 0.132338 0.0471666 -0.00717825 -0.162392 0.0586319 -0.134004 -0.073005 0.0933403 -0.0617698 0.050554 0.0571106 -0.195373 -0.0279872 0.00702186 -0.00792298 -0.0934614 -0.155709 0.0791402 0.0489406 0.0174246 0.0204695 0.0156018 0.0255991 0.0754692
internal_weight=1288 528 230 760 181 298 71 689 218 147 482 79 80 91 45 391 276 68 49 173 71 58 58 71 191 102 207 130 61 85
internal_count=1288 528 230 760 181 298 71 689 218 147 482 79 80 91 45 391 276 68 49 173 71 58 58 71 191 102 207 130 61 85
is_linear=0
shrinkage=0.03


Tree=14
num_leaves=31
num_cat=0
split_feature=10 0 4 38 0 0 38 4 52 38 0 12 0 29 32 0 2 28 0 28 32 22 1 32 32 29 28 2 0 28
split_gain=5889.35 2124.83 1024.24 489.56 407.926 300.916 199.852 184.833 124.981 112.527 92.8533 89.2583 67.6965 56.8053 54.8983 50.3459 42.2531 37.6275 34.0418 28.3903 27.2883 24.4919 36.669 17.9697 17.4199 15.773 14.5097 10.3173 9.92071 8.6571
threshold=0.058790169072633104 27.045309529064465 0.4710755697720912 0.40231092436974797 41.234007481668371 14.482001242844314 0.4812128159619567 0.0044878048780487819 14.831409355783004 0.28448250389664115 49.035628140033793 4880.8547363907355 15.486952311062486 88.41906117149766 12.154530246245004 34.221631260057727 1.3963187918929518 2.3478941468244421 13.286836957088807 1.9763699475673826 15.067437930773655 70085.971499525214 24.886972509238067 16.510790687350696 10.118826289433354 90.868337811567599 1.9835128961098449 0.79549153603708833 18.223624557794398 3.0104406909554586
decision_type=2 2 2 2 2 2 2 2 2 2 2 2 2 2 2 2 2 2 2 2 2 2 2 2 2 2 2 2 2 2
left_child=3 6 4 5 8 27 9 11 15 -2 17 18 -8 -13 -4 24 -7 -6 -5 -17 26 28 -23 -15 -3 -14 -20 -1 -11 -9
right_child=1 2 14 7 10 16 12 29 -10 21 -12 13 25 23 -16 19 -18 -19 20 -21 -22 22 -24 -25 -26 -27 -28 -29 -30 -31
leaf_value=0.050581465423107146 -0.049185100935007393 -0.11117665653643401 0.019723440370056779 0.033211892545223234 -0.17009975455024023 0.13477300548553467 -0.018502266511998395 0.027827079131618724 -0.086159884821284893 0.011309882604208885 -0.2677302235364914 0.11364413022994994 -0.065251976661384103 0.077949951684221308 -0.043636167913209643 -0.14623668846876722 0.18650335020489162 -0.22441677510738373 0.078390616870695554 -0.18939256836386287 0.034678614490172441 -0.038208194437267425 0.012783650211989879 0.051574174790926602 -0.14945910286903383 -0.10001822886259659 0.05524325889976401 0.075461901307106005 0.032808445036411282 0.015133748866617678
leaf_weight=30 38 23 20 119 22 30 22 77 33 85 28 28 24 47 32 23 27 24 31 34 51 22 30 46 20 23 114 30 25 130
leaf_count=30 38 23 20 119 22 30 22 77 33 85 28 28 24 47 32 23 27 24 31 34 51 22 30 46 20 23 114 30 25 130
internal_value=8.01435e-11 -0.0769639 -0.138297 0.0534696 -0.168198 0.109915 -0.017911 0.0431988 -0.136784 -0.00272277 -0.224657 0.0542816 -0.061935 0.0761826 -0.0192671 -0.15349 0.159277 -0.198439 0.0458688 -0.171979 0.0535533 0.0081758 -0.00878982 0.0649039 -0.128982 -0.0822652 0.060192 0.0630217 0.0161959 0.0198554
internal_weight=1288 528 259 760 207 117 269 643 133 200 74 436 69 121 52 100 57 46 315 57 196 162 52 93 43 47 145 60 110 207
internal_count=1288 528 259 760 207 117 269 643 133 200 74 436 69 121 52 100 57 46 315 57 196 162 52 93 43 47 145 60 110 207
is_linear=0
shrinkage=0.03


Tree=15
num_leaves=31
num_cat=0
split_feature=10 0 9 52 0 0 12 4 41 19 38 4 34 28 0 48 0 23 50 0 0 18 0 23 39 26 12 0 31 52
split_gain=5541.29 2001.37 913.26 463.469 327.09 252.963 208.366 189.105 160.328 147.344 135.481 115.128 76.5316 56.3694 49.5011 47.2184 35.0183 34.1884 33.5551 28.2636 28.0775 27.9577 25.4125 23.4849 15.1549 14.3673 13.6108 13.5813 13.4915 12.7159
threshold=0.058790169072633104 29.66995779297751 5286.609310399469 16.227533596473446 46.924599943026884 14.22690153547229 5137.3226767435308 0.0044878048780487819 16.500000000000004 0.23823442332198863 0.4812128159619567 0.0037195121951219515 11.495594524733599 3.0024016757107659 19.90811552624103 0.3781590714910667 40.159479115232408 4.0451903042769226 37.886513097032143 37.82883360885139 36.266626400795019 -0.037558264758716299 24.177126834452263 4.1262082401603513 0.60500000000000009 50.323076188605349 3310.8107503778401 5.8464606438092481 20.353013412552382 28.241450602985982
decision_type=2 2 2 2 2 2 2 2 2 2 2 2 2 2 2 2 2 2 2 2 2 2 2 2 2 2 2 2 2 2
left_child=3 5 4 7 9 24 29 11 10 12 15 13 19 14 27 21 -4 -16 -8 -3 -14 -7 -10 -15 28 -19 -25 -1 -2 -5
right_child=1 2 16 6 -6 8 18 -9 22 -11 -12 -13 20 23 17 -17 -18 25 -20 -21 -22 -23 -24 26 -26 -27 -28 -29 -30 -31
leaf_value=0.02534353640946475 0.017250960325822236 -0.12305387020111083 0.00072001911213864453 0.064617211608325731 -0.25609809679143564 -0.009865505552810171 0.19359783411025999 0.019259759757829748 -0.071449869678866476 -0.086496881389617919 -0.078613551326336392 0.11389808264043597 -0.16292263299226761 0.015483701271670203 0.045679797119107739 -0.040339422907148086 -0.050097850968058286 0.075496915012109478 0.13864370119571687 -0.16584068655967713 -0.20377895645978975 0.036420669162180272 -0.11166734851323641 0.035390873295920236 -0.013717779198597218 0.10250061979293823 0.053705554223451454 0.051204267210430567 -0.0055465813971717244 0.094763733029365541
leaf_weight=22 80 33 23 34 34 23 20 207 31 25 31 27 24 35 29 21 26 61 20 24 41 24 26 91 29 25 61 108 33 20
leaf_count=22 80 33 23 34 34 23 20 207 31 25 31 27 24 35 29 21 26 61 20 24 41 24 26 91 29 25 61 108 33 20
internal_value=-1.23277e-10 -0.0746549 -0.141138 0.0518655 -0.172242 -0.0233424 0.114224 0.0430641 -0.0497132 -0.152847 -0.0266359 0.0537994 -0.166443 0.0500433 0.0595109 -0.00294027 -0.0262446 0.0738482 0.166121 -0.141069 -0.188694 0.01377 -0.0897947 0.0376392 0.00562834 0.0833468 0.0427408 0.0468278 0.0105933 0.0757826
internal_weight=1288 528 230 760 181 298 94 666 156 147 99 459 122 432 245 68 49 115 40 57 65 47 57 187 142 86 152 130 113 54
internal_count=1288 528 230 760 181 298 94 666 156 147 99 459 122 432 245 68 49 115 40 57 65 47 57 187 142 86 152 130 113 54
is_linear=0
shrinkage=0.03


Tree=16
num_leaves=31
num_cat=0
split_feature=10 0 4 52 0 12 4 38 52 12 38 0 0 4 28 0 29 28 22 43 0 28 22 28 34 0 28 12 31 28
split_gain=5213.8 1885.07 936.594 436.664 336.112 203.856 196.168 191.691 135.695 125.56 105.867 82.2611 64.0419 61.7774 51.2378 38.5592 38.8277 33.6539 29.9168 43.715 26.3901 25.3497 20.3244 16.0798 12.662 12.6035 11.1128 9.35978 8.16268 8.14546
threshold=0.058790169072633104 27.671726087384513 0.4710755697720912 21.214821647115098 41.234007481668371 4215.9352688449262 0.0044878048780487819 0.4812128159619567 14.831409355783004 6290.4863453332046 0.28448250389664115 49.035628140033793 15.486952311062486 0.0037195121951219515 2.3941398853097002 10.158742323316917 89.787236059824423 2.3478941468244421 70085.971499525214 0.13258075031081878 34.221631260057727 1.9763699475673826 53877.77880179081 2.6773007199199319 17.77922082790014 18.223624557794398 2.8599595445001991 3128.9351569213545 20.557497813730762 3.0104406909554586
decision_type=2 2 2 2 2 2 2 2 2 2 2 2 2 2 2 2 2 2 2 2 2 2 2 2 2 2 2 2 2 2
left_child=3 7 4 6 8 -5 9 10 20 15 -2 17 -9 22 -4 -1 -17 -6 25 -20 -3 -22 26 -14 27 28 -11 -18 -12 -8
right_child=1 2 14 5 11 -7 29 12 -10 13 18 -13 23 -15 -16 16 24 -19 19 -21 21 -23 -24 -25 -26 -27 -28 -29 -30 -31
leaf_value=0.030030816332860425 -0.047554919692472768 -0.12989186243007059 0.011749406162864313 0.071448000311851487 -0.16021552497690375 0.17458967685699461 0.026414473921834648 -0.01744781673293222 -0.077829279787838462 0.093512006267424549 0.016024988880380987 -0.25223609983921053 -0.064392441500877501 0.1319038610458374 -0.047809238227514116 0.067960893485572313 0.042075310967017693 -0.21158453643321989 -0.046104112252593039 0.010104449888352643 -0.13784281658089678 -0.17862232320448931 0.046581036530435084 -0.098862161295754564 0.029013630633170789 0.03456850274394338 0.064829147994518277 0.05665514660415364 -0.0055299825287823158 0.014101943736824279
leaf_weight=99 39 38 26 35 22 34 77 22 32 31 64 28 29 20 26 91 97 24 20 33 23 34 20 21 39 26 20 67 21 130
leaf_count=99 39 38 26 35 22 34 77 22 32 31 64 28 29 20 26 91 97 24 20 33 23 34 20 21 39 26 20 67 21 130
internal_value=-2.74191e-11 -0.0724153 -0.131513 0.0503096 -0.160872 0.122271 0.0431238 -0.018045 -0.13126 0.0535772 -0.00312821 -0.211694 -0.0601019 0.0853314 -0.0180299 0.0462245 0.0516775 -0.187017 0.00743668 -0.0111063 -0.149257 -0.162167 0.0722123 -0.0788697 0.044378 0.0162905 0.0822638 0.0480317 0.0106996 0.018682
internal_weight=1288 528 253 760 201 69 691 275 127 484 203 74 72 91 52 393 294 46 164 53 95 57 71 50 203 111 51 164 85 207
internal_count=1288 528 253 760 201 69 691 275 127 484 203 74 72 91 52 393 294 46 164 53 95 57 71 50 203 111 51 164 85 207
is_linear=0
shrinkage=0.03


Tree=17
num_leaves=31
num_cat=0
split_feature=10 0 9 52 0 0 12 4 41 19 38 4 0 28 0 48 34 50 0 23 18 0 23 50 26 0 12 0 12 28
split_gain=4905.66 1774.41 809.579 411.973 290.758 226.416 185.322 167.162 143.012 137.419 120.7 102.451 69.3287 51.0186 44.3965 43.1224 37.3917 36.7229 32.2283 31.0994 25.7118 22.8969 21.5757 13.3509 13.103 12.2038 12.1117 10.3734 8.31353 7.66666
threshold=0.058790169072633104 29.66995779297751 5286.609310399469 16.227533596473446 46.924599943026884 14.22690153547229 4919.9814571456118 0.0044878048780487819 16.500000000000004 0.23823442332198863 0.4812128159619567 0.0037195121951219515 40.159479115232408 3.0024016757107659 19.90811552624103 0.3781590714910667 11.861139896233823 37.886513097032143 40.159479115232408 4.0451903042769226 -0.037558264758716299 24.177126834452263 4.1262082401603513 44.908226475732839 50.323076188605349 5.8464606438092481 3310.8107503778401 34.934733910206219 2435.9642331991176 3.0408456333756329
decision_type=2 2 2 2 2 2 2 2 2 2 2 2 2 2 2 2 2 2 2 2 2 2 2 2 2 2 2 2 2 2
left_child=3 5 4 7 9 23 -5 11 10 12 15 13 16 14 25 20 27 -8 -4 -16 -7 -10 -15 28 -21 -1 -24 -3 -2 -9
right_child=1 2 18 6 -6 8 17 29 21 -11 -12 -13 -14 22 19 -17 -18 -19 -20 24 -22 -23 26 -25 -26 -27 -28 -29 -30 -31
leaf_value=0.023682306923649529 0.015036445506540238 -0.10710611990519932 0.0012004729117388311 0.069736037231408629 -0.24118980604059559 -0.00941203932399335 0.18251517738614764 0.025395891018211839 -0.067318026135044701 -0.079765391921997067 -0.074141023788721325 0.10728906717565324 -0.18935176599025724 0.014015631296804974 0.042771420910440637 -0.038455071619578771 -0.16297589364804718 0.12641099384852816 -0.047550997756994687 0.0711999777105988 0.03497607032768428 -0.10549309046222613 0.033207952989326724 -0.010015084314713808 0.096988176155090325 0.048196438898642856 0.050484638214111324 -0.13626922721448151 -0.0064608705304563044 0.013539219177144719
leaf_weight=22 85 21 23 52 34 23 21 80 31 25 31 27 40 35 29 21 38 21 26 61 24 26 91 37 25 108 61 23 20 127
leaf_count=22 85 21 23 52 34 23 21 80 31 25 31 27 40 35 29 21 38 21 26 61 24 26 91 37 25 108 61 23 20 127
internal_value=-2.15555e-10 -0.0702428 -0.132843 0.0488003 -0.162128 -0.0219273 0.107593 0.0405022 -0.046876 -0.143842 -0.0250806 0.0505955 -0.156972 0.0470522 0.0560592 -0.00271482 -0.141177 0.154463 -0.0246677 0.0696372 0.0132542 -0.0847312 0.0352515 0.00548114 0.0786965 0.0440479 0.0401414 -0.12235 0.0109417 0.0181215
internal_weight=1288 528 230 760 181 298 94 666 156 147 99 459 122 432 245 68 82 42 49 115 47 57 187 142 86 130 152 44 105 207
internal_count=1288 528 230 760 181 298 94 666 156 147 99 459 122 432 245 68 82 42 49 115 47 57 187 142 86 130 152 44 105 207
is_linear=0
shrinkage=0.03


Tree=18
num_leaves=31
num_cat=0
split_feature=10 0 12 38 0 0 38 4 52 0 38 12 0 32 34 0 2 17 0 28 28 22 1 29 32 29 23 0 2 0
split_gain=4615.74 1671.6 807.747 389.582 334.289 242.515 157.061 143.888 108.539 90.97 88.5487 71.7133 52.2066 47.5854 47.5238 39.2688 34.8793 33.1602 28.0802 22.7872 21.3566 21.0614 33.5804 15.0319 14.3326 13.8631 10.613 8.79622 8.29121 7.74537
threshold=0.058790169072633104 27.045309529064465 42505.849961799817 0.40231092436974797 41.234007481668371 14.482001242844314 0.4812128159619567 0.0044878048780487819 14.831409355783004 52.512605332063139 0.28448250389664115 4880.8547363907355 15.486952311062486 11.888444707796884 11.861139896233823 34.221631260057727 1.6543813509269205 -0.050997330955262085 8.6858099094535568 1.9763699475673826 1.9965419551192931 70085.971499525214 24.886972509238067 87.989948876593857 10.118826289433354 90.868337811567599 4.116287761589148 18.223624557794398 0.79549153603708833 14.482001242844314
decision_type=2 2 2 2 2 2 2 2 2 2 2 2 2 2 2 2 2 2 2 2 2 2 2 2 2 2 2 2 2 2
left_child=3 6 4 5 8 28 10 11 15 17 -2 18 -8 -4 23 24 -7 -6 -5 -17 -20 27 -23 -13 -3 -14 -22 -12 -1 -28
right_child=1 2 13 7 9 16 12 -9 -10 -11 21 14 25 -15 -16 19 -18 -19 20 -21 26 22 -24 -25 -26 -27 29 -29 -30 -31
leaf_value=0.04443955093622208 -0.043509339064751795 -0.09886810043583745 0.018428009253926573 0.023178996114588495 -0.15225110454992813 0.12126027882099151 -0.016644079959528015 0.017577862810559459 -0.073918154022910368 -0.2555088987350464 0.010210721713874269 0.10836742213794164 -0.056688926033675674 -0.040216029394756658 0.050704541985890757 -0.12992959374966828 0.16855335130691526 -0.20040987599280571 0.064289588429207026 -0.16859308046453139 0.026490239565436904 -0.036510524922050536 0.012286537512671201 0.075899195562709465 -0.13359286201000214 -0.08928245000217272 0.034053853824734685 0.030454243603348728 0.066743641734123227 0.048312747865915294
leaf_weight=30 38 23 20 67 22 32 22 207 33 20 85 21 24 33 67 23 25 31 43 34 37 22 30 33 20 23 48 25 30 120
leaf_count=30 38 23 20 67 22 32 22 207 33 20 85 21 24 33 67 23 25 31 43 34 37 22 30 33 20 23 48 25 30 120
internal_value=-7.31356e-11 -0.0681355 -0.122535 0.0473363 -0.149408 0.0976894 -0.0157581 0.038174 -0.121095 -0.200992 -0.00229361 0.0479525 -0.0547855 -0.0180862 0.0675834 -0.136664 0.142003 -0.180419 0.0404117 -0.152992 0.0450674 0.00737427 -0.00835837 0.0885257 -0.115019 -0.0726389 0.0410354 0.0148115 0.0555916 0.0442388
internal_weight=1288 528 259 760 206 117 269 643 133 73 200 436 69 53 121 100 57 53 315 57 248 162 52 54 43 47 205 110 60 168
internal_count=1288 528 259 760 206 117 269 643 133 73 200 436 69 53 121 100 57 53 315 57 248 162 52 54 43 47 205 110 60 168
is_linear=0
shrinkage=0.03


Tree=19
num_leaves=31
num_cat=0
split_feature=10 0 12 2 0 12 4 38 52 12 38 0 0 4 32 0 29 17 22 43 0 28 22 0 34 0 28 48 28 1
split_gain=4342.95 1573.67 783.339 368.389 290.627 173.237 161.463 160.222 119.573 106.886 88.7515 85.5937 52.7729 52.7136 44.7731 32.7567 34.6688 31.2004 26.3983 39.0665 21.5372 21.4405 17.8858 14.9551 11.4683 11.3636 9.32525 7.58202 7.22458 8.99648
threshold=0.058790169072633104 27.671726087384513 42505.849961799817 1.1721670360470431 41.234007481668371 4919.9814571456118 0.0044878048780487819 0.4812128159619567 14.831409355783004 6290.4863453332046 0.28448250389664115 52.512605332063139 15.486952311062486 0.0037195121951219515 11.888444707796884 11.243529760699099 89.787236059824423 -0.050997330955262085 70085.971499525214 0.13258075031081878 34.221631260057727 1.9763699475673826 53877.77880179081 21.167274226222002 17.77922082790014 18.223624557794398 2.8599595445001991 0.36374193514530678 3.0104406909554586 19.757235668168587
decision_type=2 2 2 2 2 2 2 2 2 2 2 2 2 2 2 2 2 2 2 2 2 2 2 2 2 2 2 2 2 2
left_child=3 7 4 6 8 -5 9 10 20 15 -2 17 -9 22 -4 -1 -17 -6 25 -20 -3 -22 26 -14 -18 27 -11 -12 -8 -30
right_child=1 2 14 5 11 -7 28 12 -10 13 18 -13 23 -15 -16 16 24 -19 19 -21 21 -23 -24 -25 -26 -27 -28 -29 29 -31
leaf_value=0.028461123821528059 -0.043454137622163845 -0.11924490621215418 0.017875168992206453 0.068533468659107505 -0.14768357244404878 0.16271454915404318 0.024332826605864933 -0.016144757709381254 -0.069688660651445383 0.085626954801620969 0.016693126620310875 -0.24784363889694216 -0.054124756973722703 0.12103289428353309 -0.039009548114104703 0.06345654134189381 0.044148814633096521 -0.19439757977762528 -0.043606958448886866 0.0095290871889499775 -0.12603170591851939 -0.16353528646861804 0.041849354211241002 -0.087044439315795891 0.025912669226527213 0.032568839562053864 0.059352078258991234 -0.0019211238628673939 0.017903678384456004 0.00068196494956142631
leaf_weight=115 39 38 20 39 22 32 77 22 32 31 54 20 23 20 33 85 152 31 20 33 23 34 20 27 39 26 20 31 91 39
leaf_count=115 39 38 20 39 22 32 77 22 32 31 54 20 23 20 33 85 152 31 20 33 23 34 20 27 39 26 20 31 91 39
internal_value=-1.57643e-10 -0.0660915 -0.120088 0.0459162 -0.147263 0.110981 0.0392114 -0.0164145 -0.119845 0.0487286 -0.00277698 -0.194962 -0.0548646 0.0780123 -0.0175436 0.0419132 0.0475182 -0.175007 0.00689625 -0.0105223 -0.136739 -0.148402 0.0658939 -0.0719014 0.0404252 0.0152132 0.0753231 0.0099044 0.0170505 0.0127372
internal_weight=1288 528 253 760 200 71 689 275 127 482 203 73 72 91 53 391 276 53 164 53 95 57 71 50 191 111 51 85 207 130
internal_count=1288 528 253 760 200 71 689 275 127 482 203 73 72 91 53 391 276 53 164 53 95 57 71 50 191 111 51 85 207 130
is_linear=0
shrinkage=0.03


Tree=20
num_leaves=31
num_cat=0
split_feature=10 0 9 52 0 0 4 0 4 19 41 38 34 28 0 48 28 0 18 0 23 0 23 0 26 50 12 30 12 28
split_gain=4086.28 1481.85 674.9 348.16 244.328 193.927 163.046 137.092 127.452 126.369 121.679 106.368 61.1536 50.6485 41.6504 38.4256 29.9946 24.4233 23.7894 22.7996 21.8584 21.7246 19.1648 14.5701 13.2358 11.9221 10.9073 9.72663 7.3069 6.7976
threshold=0.058790169072633104 29.66995779297751 5286.609310399469 24.270378573566251 46.924599943026884 14.22690153547229 0.0044878048780487819 20.559665065862237 0.0037195121951219515 0.23823442332198863 19.000000000000004 0.4812128159619567 11.495594524733599 3.0024016757107659 21.527345586655947 0.3781590714910667 2.3941398853097002 24.177126834452263 -0.037558264758716299 36.266626400795019 4.0451903042769226 37.82883360885139 4.1262082401603513 6.7618675783027582 45.070174545486495 44.908226475732839 3310.8107503778401 8.4919784044228823 2435.9642331991176 3.0104406909554586
decision_type=2 2 2 2 2 2 2 2 2 2 2 2 2 2 2 2 2 2 2 2 2 2 2 2 2 2 2 2 2 2
left_child=3 5 4 6 9 25 8 -5 13 12 11 15 21 14 23 18 -4 -12 -7 -14 -16 -3 -15 -1 -13 28 -24 -22 -2 -8
right_child=1 2 16 7 -6 10 29 -9 -10 -11 17 24 19 22 20 -17 -18 -19 -20 -21 27 -23 26 -25 -26 -27 -28 -29 -30 -31
leaf_value=0.023128217767391886 0.014409313024405171 -0.10540675163269042 0.0004500597730278969 0.070157440106074012 -0.22052923195502336 -0.0092752518731614823 0.023602842104125332 0.16575816022025214 0.10178399717485583 -0.069845442008972164 -0.063915298117531674 -0.081457165108993645 -0.14054993987083433 0.012939368873532558 0.043745886087417606 -0.036284885151045658 -0.046503168372437356 -0.1070525438444955 0.033421218584117014 -0.17736657456653873 0.092507202284676682 -0.14291888326406479 0.030333724687708185 0.0469698920914235 -0.046943019357975575 -0.009233247943323206 0.046244946826588022 0.068678938582025728 -0.0057445384562015535 0.012355049458009979
leaf_weight=28 85 33 25 27 34 23 77 27 37 25 27 20 24 37 27 21 24 21 24 41 21 24 94 131 20 37 66 58 20 130
leaf_count=28 85 33 25 27 34 23 77 27 37 25 27 20 24 37 27 21 24 21 24 41 21 24 94 131 20 37 66 58 20 130
internal_value=-1.79883e-11 -0.0641087 -0.121316 0.0445387 -0.148054 -0.0199555 0.0389231 0.117958 0.0482086 -0.131291 -0.043045 -0.0253816 -0.143883 0.043918 0.0524823 -0.00254712 -0.0225474 -0.0827878 0.0125272 -0.163773 0.0670488 -0.121201 0.0323974 0.0427714 -0.0642001 0.00541036 0.0368971 0.075013 0.0105705 0.016539
internal_weight=1288 528 230 760 181 298 706 54 499 147 156 108 122 462 265 68 49 48 47 65 106 57 197 159 40 142 160 79 105 207
internal_count=1288 528 230 760 181 298 706 54 499 147 156 108 122 462 265 68 49 48 47 65 106 57 197 159 40 142 160 79 105 207
is_linear=0
shrinkage=0.03


Tree=21
num_leaves=31
num_cat=0
split_feature=10 0 4 52 0 12 38 4 19 4 32 38 0 28 32 28 0 23 17 50 34 0 23 0 29 26 0 48 49 0
split_gain=3844.78 1394.53 676.385 329.115 272.819 149.379 131.618 130.081 101.219 80.3927 74.8721 73.8878 42.978 42.7197 42.6091 41.8129 36.1744 28.9106 26.0014 23.6041 19.6089 22.8556 18.2837 12.8249 12.31 11.994 11.6963 11.406 10.7983 10.507
threshold=0.058790169072633104 27.045309529064465 0.4710755697720912 16.227533596473446 41.234007481668371 5137.3226767435308 0.4812128159619567 0.0044878048780487819 0.1822665991854297 0.0037195121951219515 18.135369340445767 0.28448250389664115 15.486952311062486 2.3941398853097002 12.607426089862653 3.0024016757107659 19.03747836571554 4.0451903042769226 -0.035565572733121296 37.886513097032143 8.4811162117958432 21.527345586655947 4.0451903042769226 35.791167571866275 90.868337811567599 50.323076188605349 33.902048901880576 0.37524052469230856 0.11248420975248176 21.964244905165462
decision_type=2 2 2 2 2 2 2 2 2 2 2 2 2 2 2 2 2 2 2 2 2 2 2 2 2 2 2 2 2 2
left_child=3 6 4 7 8 -5 11 9 14 15 18 -2 -8 -4 26 16 -1 -18 -6 -7 27 28 -17 -16 -14 -19 -3 -13 -22 -24
right_child=1 2 13 5 10 19 12 -9 -10 -11 -12 20 24 -15 23 22 17 25 -20 -21 21 -23 29 -25 -26 -27 -28 -29 -30 -31
leaf_value=0.038035039739175276 -0.039669075370030969 -0.091893650814890857 0.012046720472952493 0.063202324989769187 -0.14423349454485135 0.16273761928081512 -0.015465558425269345 0.016042840744814147 -0.066688430990491598 0.094910181926356418 -0.23028355325971331 0.02343911837786436 -0.05124073730316013 -0.042336347951338837 -0.13138688057661058 0.01022216879611733 0.036530305389314892 0.062836454727432933 -0.18644716322422028 0.11664670979976655 -0.0099251647666096683 -0.030844969919749669 0.028837727127557104 -0.16273611421170442 -0.08195431748162145 0.08689334062429574 -0.12067712889777289 -0.0012973368427027826 0.016852424232162194 0.044825845868861083
leaf_weight=121 38 24 26 54 29 20 22 207 35 27 21 62 24 26 24 32 32 66 24 20 23 21 94 23 23 26 27 23 33 61
leaf_count=121 38 24 26 54 29 20 22 207 35 27 21 62 24 26 24 32 32 66 24 20 23 21 94 23 23 26 27 23 33 61
internal_value=1.98742e-11 -0.0621855 -0.111873 0.0432025 -0.136171 0.0957512 -0.0143454 0.0357858 -0.110482 0.0446894 -0.182344 -0.00201966 -0.050072 -0.0151448 -0.126122 0.0415506 0.0497047 0.061092 -0.163349 0.139692 0.00681169 -0.00415446 0.0308676 -0.146728 -0.0662708 0.0696351 -0.107132 0.0167457 0.00585449 0.0351298
internal_weight=1288 528 259 760 207 94 269 666 133 459 74 200 69 52 98 432 245 124 53 40 162 77 187 47 47 92 51 85 56 155
internal_count=1288 528 259 760 207 94 269 666 133 459 74 200 69 52 98 432 245 124 53 40 162 77 187 47 47 92 51 85 56 155
is_linear=0
shrinkage=0.03


Tree=22
num_leaves=31
num_cat=0
split_feature=10 0 9 52 0 0 4 0 19 4 41 38 34 28 0 48 0 18 0 0 23 0 23 0 26 31 12 12 0 30
split_gain=3617.55 1314.79 597.906 311.434 221.257 172.286 143.967 122.521 114.453 112.617 109.822 95.0208 54.1532 44.8856 37.0571 35.362 28.9237 22.3963 22.0003 19.6366 19.4112 19.1543 17.0048 13.6168 11.8714 11.157 11.0594 9.71968 8.9971 8.8659
threshold=0.058790169072633104 29.66995779297751 5286.609310399469 24.270378573566251 46.924599943026884 14.22690153547229 0.0044878048780487819 20.559665065862237 0.23823442332198863 0.0037195121951219515 19.000000000000004 0.4812128159619567 11.495594524733599 3.0024016757107659 21.527345586655947 0.3781590714910667 40.159479115232408 -0.037558264758716299 24.177126834452263 37.308222512179491 4.0451903042769226 37.82883360885139 4.1262082401603513 5.8464606438092481 45.070174545486495 20.320568121351311 2435.9642331991176 3310.8107503778401 7.2540500088859217 8.4919784044228823
decision_type=2 2 2 2 2 2 2 2 2 2 2 2 2 2 2 2 2 2 2 2 2 2 2 2 2 2 2 2 2 2
left_child=3 5 4 6 8 25 9 -5 12 13 11 15 21 14 23 17 -4 -7 -12 -14 -16 -3 -15 -1 -13 26 -2 -24 -27 -22
right_child=1 2 16 7 -6 10 -8 -9 -10 -11 18 24 19 22 20 -17 -18 -19 -20 -21 29 -23 27 -25 -26 28 -28 -29 -30 -31
leaf_value=0.019368032366037367 0.016537439870220182 -0.099229490052569994 0.0032640716101488341 0.066156646940443237 -0.2083414334409377 -0.0088237202167510981 0.015561555575417435 0.15653417004479303 -0.064944132900238039 0.09568148234406032 -0.060337929858101741 -0.076745268691331137 -0.1339260993554042 0.012113327930958286 0.041129927866988707 -0.034495039752551485 -0.042920365574268191 0.032603817482013256 -0.10127950702394757 -0.16758440366158117 0.087297022342681885 -0.13445271253585817 0.02848485802082305 0.043891681578424241 -0.044058489292860034 0.0063992783427238463 -0.008605743728578091 0.043504904020916328 -0.019577296832576394 0.064547486161363535
leaf_weight=24 74 33 23 27 34 23 207 27 25 37 27 20 26 37 27 21 26 24 21 39 21 24 94 135 20 24 20 66 24 58
leaf_count=24 74 33 23 27 34 23 207 27 25 37 27 20 26 37 27 21 26 24 21 39 21 24 94 135 20 24 20 66 24 58
internal_value=-8.26693e-11 -0.0603199 -0.114206 0.0419065 -0.139373 -0.01873 0.0365953 0.111345 -0.123421 0.0453207 -0.0404931 -0.0237123 -0.135404 0.0412875 0.0493498 -0.00213014 -0.021242 0.0123308 -0.0782499 -0.154121 0.0630896 -0.11406 0.0304421 0.04019 -0.0604019 0.00517876 0.0111878 0.0346806 -0.00658901 0.0705948
internal_weight=1288 528 230 760 181 298 706 54 147 499 156 108 122 462 265 68 49 47 48 65 106 57 197 159 40 142 94 160 48 79
internal_count=1288 528 230 760 181 298 706 54 147 499 156 108 122 462 265 68 49 47 48 65 106 57 197 159 40 142 94 160 48 79
is_linear=0
shrinkage=0.03


Tree=23
num_leaves=31
num_cat=0
split_feature=10 0 9 38 0 0 0 14 4 41 38 12 30 34 48 3 54 2 0 18 0 0 28 1 29 0 31 12 23 0
split_gain=3403.76 1237.09 562.762 293.748 198.356 186.333 162.104 112.081 105.054 103.332 89.405 54.9633 44.1001 37.9759 33.2721 32.837 27.6554 27.5333 22.3052 21.0727 20.7001 20.0988 17.4542 16.2099 11.7779 11.2244 10.4976 10.4058 8.86911 8.46537
threshold=0.058790169072633104 29.66995779297751 18612.682538485893 0.40231092436974797 46.924599943026884 14.482001242844314 14.22690153547229 0.9917234162360794 0.0044878048780487819 19.000000000000004 0.4812128159619567 4880.8547363907355 9.1713948339782778 11.861139896233823 0.3781590714910667 21.416589125766706 144.61315421219362 1.6543813509269205 8.6858099094535568 -0.037558264758716299 24.177126834452263 38.949601739704015 1.9965419551192931 23.966855914576804 87.989948876593857 20.860302434474189 20.320568121351311 2435.9642331991176 4.116287761589148 7.2540500088859217
decision_type=2 2 2 2 2 2 2 2 2 2 2 2 2 2 2 2 2 2 2 2 2 2 2 2 2 2 2 2 2 2
left_child=3 6 4 5 7 -1 26 -3 11 10 14 18 16 24 19 -4 -9 -7 -5 -8 -11 -14 -20 -18 -13 -12 27 -2 -24 -28
right_child=1 2 15 8 -6 17 9 12 -10 20 25 13 21 -15 -16 -17 23 -19 22 -21 -22 -23 28 -25 -26 -27 29 -29 -30 -31
leaf_value=0.047472011819481845 0.016041316591404581 -0.053066056966781613 0.0095474928515878587 0.019088238993687414 -0.19851100608280728 0.10478636652231216 -0.0085590090440667184 -0.08511381691152399 0.015094708838648553 -0.058527792559729681 -0.042698003813624381 0.094518819536481571 -0.13151822134852409 0.043146399452503939 -0.033460189359528672 -0.041194230951368808 -0.10657839809145246 0.14680509967803954 0.055973931370779523 0.031625702818855642 -0.098241122109549384 -0.16600062181209696 0.021654840142440956 -0.14233122425079345 0.065778881121765484 -0.074481640018522741 0.0062072999286465341 -0.008347571589052678 0.037879765725561551 -0.018989978136451098
leaf_weight=60 74 20 22 67 35 32 23 22 207 27 20 21 32 67 21 24 21 25 43 24 21 29 37 25 33 20 24 20 168 24
leaf_count=60 74 20 22 67 35 32 23 22 207 27 20 21 32 67 21 24 21 25 43 24 21 29 37 25 33 20 24 20 168 24
internal_value=-3.5349e-11 -0.0585103 -0.11078 0.0406493 -0.134243 0.0843728 -0.0181681 -0.119147 0.0326934 -0.0392783 -0.0230009 0.0410487 -0.129392 0.0582348 -0.00206624 -0.0169265 -0.112778 0.123216 0.0344471 0.0119608 -0.0759024 -0.147911 0.0385964 -0.126009 0.0769555 -0.0585898 0.00502339 0.0108522 0.0349514 -0.00639134
internal_weight=1288 528 230 760 184 117 298 149 643 156 108 436 129 121 68 46 68 57 315 47 48 61 248 46 54 40 142 94 205 48
internal_count=1288 528 230 760 184 117 298 149 643 156 108 436 129 121 68 46 68 57 315 47 48 61 248 46 54 40 142 94 205 48
is_linear=0
shrinkage=0.03


Tree=24
num_leaves=31
num_cat=0
split_feature=10 0 9 52 41 0 12 19 38 4 0 12 34 34 28 0 1 0 0 29 34 50 3 0 0 29 3 52 1 23
split_gain=3202.59 1166.06 456.298 279.469 200.714 179.383 126.993 124.442 111.715 107.568 88.4196 67.8837 43.9616 40.3231 35.0853 30.0373 26.9494 31.4175 25.6232 25.7946 19.5739 19.4386 13.2194 10.7267 10.488 10.152 9.31752 8.18915 6.65224 5.72161
threshold=0.058790169072633104 31.60684627675526 5286.609310399469 16.227533596473446 16.500000000000004 46.924599943026884 5137.3226767435308 0.23823442332198863 0.4812128159619567 0.0044878048780487819 18.602162804280791 6290.4863453332046 9.7805225657439134 11.495594524733599 2.3941398853097002 18.062569748488773 22.190850060196308 21.527345586655947 11.243529760699099 89.787236059824423 9.1362495249212916 37.886513097032143 19.113691751712782 37.82883360885139 40.159479115232408 86.896896827274801 23.767753990963673 28.241450602985982 22.563219906428312 4.0892275725722405
decision_type=2 2 2 2 2 2 2 2 2 2 2 2 2 2 2 2 2 2 2 2 2 2 2 2 2 2 2 2 2 2
left_child=3 4 5 9 8 7 27 13 16 11 -6 18 -13 23 -4 -10 22 -18 -1 -20 -12 -8 25 -3 -15 -2 -21 -5 -11 -14
right_child=1 2 14 6 10 -7 21 -9 15 28 20 12 29 24 -16 -17 17 -19 19 26 -22 -23 -24 -25 -26 -27 -28 -29 -30 -31
leaf_value=0.023047563250458567 0.027558191679418087 -0.099200448577220615 0.0014633363891731609 0.048881910092690412 -0.022694986885270246 -0.19613585913882536 0.1492812623977661 -0.055440228192702584 -0.025728470778465271 0.016400658737153392 -0.06247737815173772 0.091529219816712776 0.034687302913516758 -0.13740802634146906 -0.05274884253540741 -0.075054121881723404 0.0065544183090447475 -0.033751133041722434 0.05456674017012119 0.039197558388729729 -0.098041022181510923 0.10745449572801589 0.033965415054559703 -0.12701341331005095 -0.16298318094677394 0.0029284319055617831 0.025252504047465079 0.073074536919593813 -0.0018028307212516665 0.055696373411587306
leaf_weight=109 20 26 22 34 39 34 20 23 25 187 26 34 20 31 21 20 46 28 80 121 30 20 25 24 27 61 67 20 20 28
leaf_count=109 20 26 22 34 39 34 20 23 25 187 26 34 20 31 21 20 46 28 80 121 30 20 25 24 27 61 67 20 20 28
internal_value=1.46713e-10 -0.056755 -0.112053 0.0394298 -0.0208114 -0.134736 0.0878531 -0.1188 -0.00537284 0.0325953 -0.0573763 0.0406919 0.0654297 -0.132294 -0.0250124 -0.047651 0.00519669 -0.00869633 0.0353113 0.0402991 -0.0815293 0.128368 0.0148956 -0.112551 -0.149314 0.00900985 0.0342278 0.0578421 0.0146419 0.0469426
internal_weight=1288 528 208 760 320 165 94 131 225 666 95 459 82 108 43 45 180 74 377 268 56 40 106 50 58 81 188 54 207 48
internal_count=1288 528 208 760 320 165 94 131 225 666 95 459 82 108 43 45 180 74 377 268 56 40 106 50 58 81 188 54 207 48
is_linear=0
shrinkage=0.03


Tree=25
num_leaves=31
num_cat=0
split_feature=10 0 4 52 0 0 0 38 19 32 30 50 4 38 34 4 0 27 28 17 0 34 45 23 0 48 29 3 32 23
split_gain=3013.32 1098.89 556.353 263.982 223.24 121.549 105.139 101.956 84.8133 67.1536 65.8567 57.9721 57.0212 56.5259 44.4672 37.6584 31.6704 24.6542 23.4056 22.1635 15.6068 15.0189 12.5145 12.4039 11.8272 10.4861 10.4111 8.98415 8.26725 7.43559
threshold=0.058790169072633104 26.057300243581512 0.4710755697720912 24.270378573566251 41.234007481668371 27.045309529064465 20.559665065862237 0.4812128159619567 0.20764821924941687 18.135369340445767 9.277884302681807 45.942087861074718 0.0044878048780487819 0.28448250389664115 11.861139896233823 0.0037195121951219515 15.486952311062486 1.8179693473181979 1.9835128961098449 -0.035565572733121296 33.902048901880576 8.4811162117958432 0.22780500520677474 4.1262082401603513 34.467070292764753 0.37524052469230856 90.868337811567599 23.992503669060305 13.526559122290442 4.5513881032716306
decision_type=2 2 2 2 2 2 2 2 2 2 2 2 2 2 2 2 2 2 2 2 2 2 2 2 2 2 2 2 2 2
left_child=3 7 4 5 8 12 -5 13 14 19 15 -4 17 -2 20 29 -9 -1 -19 -6 -3 25 28 -12 -16 -15 -18 -20 -23 -7
right_child=1 2 11 6 9 10 -8 16 -10 -11 23 -13 -14 21 24 -17 26 18 27 -21 -22 22 -24 -25 -26 -27 -28 -29 -30 -31
leaf_value=0.021347268045563059 -0.033851690881860415 -0.077002388130534782 0.010257159242273441 0.060316508743498053 -0.12650508962828536 0.054673024217287702 0.1440380525588989 -0.013871810951651159 -0.046258891522884371 -0.20754416738237652 0.018763238444924352 -0.053769807949662206 0.014355058534317375 0.022532197555801905 -0.11135519674846103 0.11409306836128234 -0.043679635829251745 0.055867827174992397 0.037981608191992616 -0.16547901481389998 -0.10745375275611876 -0.0051150792403026456 -0.02278414956992492 0.046101666426885936 -0.14051422603668703 -0.0012383750275425287 -0.072546539970419613 0.023498458681413186 0.018623459248439125 0.078807115852832788
leaf_weight=97 37 33 35 27 29 27 27 22 24 21 20 20 204 61 21 20 23 58 149 24 28 31 20 59 31 23 22 52 23 20
leaf_count=97 37 33 35 27 29 27 27 22 24 21 20 20 204 61 21 20 23 58 149 24 28 31 20 59 31 23 22 52 23 20
internal_value=9.93616e-11 -0.0550524 -0.0980051 0.0382469 -0.120156 0.033357 0.102177 -0.0114438 -0.0974774 -0.162143 0.0577359 -0.0130254 0.0270011 -0.000474062 -0.108356 0.0796146 -0.0433707 0.0342477 0.0390792 -0.144154 -0.0909801 0.00734222 -0.00251231 0.0391805 -0.128738 0.0160236 -0.0577923 0.0342347 0.00499578 0.0649429
internal_weight=1288 528 266 760 211 706 54 262 137 74 146 55 560 195 113 67 67 356 259 53 61 158 74 79 52 84 45 201 54 47
internal_count=1288 528 266 760 211 706 54 262 137 74 146 55 560 195 113 67 67 356 259 53 61 158 74 79 52 84 45 201 54 47
is_linear=0
shrinkage=0.03


Tree=26
num_leaves=31
num_cat=0
split_feature=10 0 4 38 0 0 38 4 52 32 50 38 12 28 0 0 2 28 28 23 34 0 45 29 48 29 28 32 27 23
split_gain=2835.23 1033.95 523.472 249.418 210.047 159.48 95.9302 86.9462 83.7205 63.1848 54.5459 53.1852 46.8329 38.3058 29.7986 27.7024 22.9764 21.4006 15.4372 15.412 14.1313 14.0664 11.7748 11.5087 9.8664 9.79579 9.4303 7.77866 7.33347 6.43296
threshold=0.058790169072633104 26.057300243581512 0.4710755697720912 0.40231092436974797 41.234007481668371 14.482001242844314 0.4812128159619567 0.0044878048780487819 14.831409355783004 18.135369340445767 45.942087861074718 0.28448250389664115 3310.8107503778401 1.9835128961098449 15.486952311062486 29.886869077462443 1.6543813509269205 1.8046196566923194 1.9763699475673826 4.0451903042769226 8.4811162117958432 8.4517929937582554 0.22780500520677474 88.79671876177666 0.37524052469230856 90.868337811567599 3.057294842734513 13.526559122290442 5.6991008168377624 3.9841324893253263
decision_type=2 2 2 2 2 2 2 2 2 2 2 2 2 2 2 2 2 2 2 2 2 2 2 2 2 2 2 2 2 2
left_child=3 6 4 5 8 -1 11 12 15 17 -4 -2 21 -14 -8 -3 -7 -6 -17 -15 24 -5 27 -23 -13 -16 -21 -22 -20 -9
right_child=1 2 10 7 9 16 14 29 -10 -11 -12 20 13 19 25 18 -18 -19 28 26 22 23 -24 -25 -26 -27 -28 -29 -30 -31
leaf_value=0.043250479415059093 -0.032836140786373133 -0.078477064750411288 0.0099494444794420694 0.016299433305126721 -0.12040268677931565 0.096488885236904021 -0.013455656532367521 0.0031166382928992189 -0.054517758352415902 -0.20131784234728131 -0.05215671452879906 0.021856231491279896 0.075131285282281718 0.021677067263184913 -0.042369246482849121 -0.10154651294435772 0.1348732539653778 -0.15853592104381983 -0.11727942066192626 0.055704615612824755 -0.004961627046314759 0.047387784765316888 -0.022100624894723298 0.029069221157429589 -0.0012012238282224405 -0.070370144126090134 0.038856849147757486 0.018064755343872568 -0.14165175676345826 0.016386483910182176
leaf_weight=60 37 22 35 61 26 32 22 41 35 21 20 61 39 28 23 35 25 27 25 54 31 39 20 148 23 22 67 23 20 166
leaf_count=60 37 22 35 61 26 32 22 41 35 21 20 61 39 28 23 35 25 27 25 54 31 39 20 148 23 22 67 23 20 166
internal_value=4.0692e-11 -0.0534008 -0.095065 0.0370995 -0.116552 0.0773889 -0.0111005 0.0297684 -0.094553 -0.157279 -0.0126346 -0.00045984 0.0373697 0.0486624 -0.0420696 -0.108291 0.113324 -0.139829 -0.116489 0.0417343 0.00712195 0.028809 -0.00243694 0.0328897 0.0155429 -0.0560586 0.0463757 0.00484591 -0.128112 0.0137582
internal_weight=1288 528 266 760 211 117 262 643 137 74 55 195 436 188 67 102 57 53 80 149 158 248 74 187 84 45 121 54 45 207
internal_count=1288 528 266 760 211 117 262 643 137 74 55 195 436 188 67 102 57 53 80 149 158 248 74 187 84 45 121 54 45 207
is_linear=0
shrinkage=0.03


Tree=27
num_leaves=31
num_cat=0
split_feature=10 0 41 38 52 41 12 38 0 28 52 0 0 4 32 0 1 0 49 23 0 34 28 0 3 0 29 1 28 52
split_gain=2667.67 974.978 384.33 267.397 236.8 167.464 108.034 94.0725 93.5992 90.1695 89.3873 76.6043 62.9498 41.7552 36.3562 25.8393 23.1166 27.1109 20.0885 19.1057 18.432 16.8028 16.4489 14.6769 12.508 10.1639 9.27687 7.94148 7.63467 6.74056
threshold=0.058790169072633104 31.60684627675526 16.500000000000004 0.4812128159619567 16.227533596473446 16.500000000000004 5137.3226767435308 0.4812128159619567 49.035628140033793 2.1818866085035635 10.245550329535378 18.602162804280791 27.468027335305564 0.0044878048780487819 9.313908783666939 18.062569748488773 22.190850060196308 21.527345586655947 0.12022559368047755 4.0451903042769226 19.488646917124608 9.1362495249212916 2.0049374494561589 11.243529760699099 19.113691751712782 39.528656576512269 86.896896827274801 19.757235668168587 3.057294842734513 28.241450602985982
decision_type=2 2 2 2 2 2 2 2 2 2 2 2 2 2 2 2 2 2 2 2 2 2 2 2 2 2 2 2 2 2
left_child=4 5 3 10 9 7 29 16 14 12 -3 -7 23 19 -4 -9 24 -18 -14 -11 -21 -13 -8 -1 26 -16 -2 -15 -22 -6
right_child=1 2 8 -5 6 11 22 15 -10 13 -12 21 18 27 25 -17 17 -19 -20 20 28 -23 -24 -25 -26 -27 -28 -29 -30 -31
leaf_value=0.024147185170176354 0.025857518032193185 -0.046716969094493167 -0.10071461379528046 -0.12606692695617674 0.044750676575828999 -0.020050021055727625 0.13716661262512206 -0.023293428493291139 -0.19594343018531798 0.016116762668926917 0.030325855290436226 -0.057160591666515055 0.061464146137004717 0.016056263593628124 -0.12359115985723643 -0.069042585656046859 0.0061688843708606837 -0.031272461725664988 0.10217406499385834 0.026011072515055189 0.051746955818318299 -0.090110889434814448 0.098690665662288665 0.046258560023137496 0.032401513865590093 -0.14768509715795516 0.0023132784282941308 0.0021747046257095302 0.036364942424391443 0.066699521765112874
leaf_weight=44 20 33 36 30 34 39 20 25 20 69 23 26 24 136 26 20 46 28 20 129 47 30 20 70 25 40 61 51 76 20
leaf_count=44 20 33 36 30 34 39 20 25 20 69 23 26 24 136 26 20 46 28 20 129 47 30 20 70 25 40 61 51 76 20
internal_value=1.8862e-10 -0.0517988 -0.102363 -0.0537927 0.0359865 -0.0189319 0.0805602 -0.00483 -0.136601 0.0296953 -0.0150744 -0.0523311 0.0494886 0.0235392 -0.124966 -0.0436264 0.0048691 -0.00799811 0.0799687 0.0301038 0.0339336 -0.0748125 0.117929 0.0377243 0.0138519 -0.138194 0.00812667 0.0122704 0.0422426 0.0528799
internal_weight=1288 528 208 86 760 320 94 225 122 666 56 95 158 508 102 45 180 74 44 321 252 56 40 114 106 66 81 187 123 54
internal_count=1288 528 208 86 760 320 94 225 122 666 56 95 158 508 102 45 180 74 44 321 252 56 40 114 106 66 81 187 123 54
is_linear=0
shrinkage=0.03


Tree=28
num_leaves=31
num_cat=0
split_feature=10 0 9 52 0 0 0 38 52 0 30 23 38 50 4 0 0 28 18 0 28 22 1 0 0 23 29 34 28 26
split_gain=2510.01 917.578 464.477 224.316 199.838 101.84 90.5982 84.3841 77.1645 60.146 55.9995 47.3889 46.9591 44.7827 32.0241 26.6813 24.3803 22.2196 18.7521 15.527 13.7118 12.725 25.4821 11.8533 11.4732 11.1042 9.01691 8.51341 8.17597 6.75584
threshold=0.058790169072633104 26.057300243581512 5286.609310399469 24.270378573566251 41.234007481668371 27.045309529064465 20.559665065862237 0.4812128159619567 14.831409355783004 52.512605332063139 9.277884302681807 5.1837297948411249 0.28448250389664115 45.942087861074718 0.0037195121951219515 15.415842620898232 29.886869077462443 3.0024016757107659 -0.030422201736316049 16.361184237409862 1.9763699475673826 70085.971499525214 24.886972509238067 18.223624557794398 7.8005770240776862 4.1262082401603513 90.868337811567599 7.4477865359550597 1.9835128961098449 52.659330442203746
decision_type=2 2 2 2 2 2 2 2 2 2 2 2 2 2 2 2 2 2 2 2 2 2 2 2 2 2 2 2 2 2
left_child=3 7 4 5 8 11 -5 12 16 18 14 17 -2 -4 29 -9 -3 24 -6 -13 -18 23 -23 -14 -1 -12 -17 -21 -26 -7
right_child=1 2 13 6 9 10 -8 15 -10 -11 25 19 21 -15 -16 26 20 -19 -20 27 -22 22 -24 -25 28 -27 -28 -29 -30 -31
leaf_value=0.014203999226584154 -0.030838420077201882 -0.074150705825198782 0.0059657292204242001 0.054980445669756989 -0.1182299530506134 0.048225044459104534 0.13269709481133354 -0.011422303627644266 -0.050494994504111157 -0.19487473905086516 0.016285857057664544 0.029054276885524873 0.0073310148920863868 -0.049752586930990217 0.10468402272462846 -0.039516197666525837 -0.09572794675827026 0.011823458246671189 -0.15469488989223135 0.061130435696014992 -0.12076441844304402 -0.032034628800814972 0.011682154018431902 0.031607145569894628 0.042700530023951279 0.042152321783503144 -0.066105818558822971 0.040415292805746982 0.026184970974441495 0.0709781353370003
leaf_weight=51 37 22 37 27 30 24 27 21 35 20 20 93 85 20 20 24 35 202 22 26 45 20 30 23 38 59 22 57 93 23
leaf_count=51 37 22 37 27 30 24 27 21 35 20 20 93 85 20 20 24 35 202 22 26 45 20 30 23 38 59 22 57 93 23
internal_value=5.21476e-11 -0.0502448 -0.0894944 0.0349069 -0.110197 0.0303994 0.0938388 -0.0103959 -0.0889308 -0.150662 0.0527143 0.0245816 -0.000416148 -0.0135846 0.0728892 -0.0394416 -0.10212 0.0186733 -0.133657 0.0374722 -0.109811 0.00670805 -0.00580456 0.0125009 0.026276 0.0356038 -0.052233 0.0469044 0.0309757 0.0593595
internal_weight=1288 528 266 760 209 706 54 262 137 72 146 560 195 57 67 67 102 384 52 176 80 158 50 108 182 79 46 83 131 47
internal_count=1288 528 266 760 209 706 54 262 137 72 146 560 195 57 67 67 102 384 52 176 80 158 50 108 182 79 46 83 131 47
is_linear=0
shrinkage=0.03


Tree=29
num_leaves=31
num_cat=0
split_feature=10 0 41 38 38 41 12 38 0 52 4 0 0 28 32 2 0 1 0 27 23 23 3 28 0 29 30 0 2 1
split_gain=2361.67 865.19 344.884 242.377 212.278 148.35 135.871 83.8103 82.9823 82.7867 73.4753 70.5262 39.474 40.9429 32.8366 29.0499 23.2983 20.5864 24.5792 19.9805 18.5607 13.847 11.7538 9.29253 9.01593 8.7798 8.57286 7.55053 6.94961 5.97343
threshold=0.058790169072633104 31.60684627675526 16.500000000000004 0.4812128159619567 0.40231092436974797 16.500000000000004 3343.0026611033268 0.4812128159619567 49.035628140033793 10.245550329535378 0.0044878048780487819 11.741512101746697 21.527345586655947 1.9763699475673826 9.313908783666939 1.6543813509269205 18.062569748488773 22.190850060196308 21.527345586655947 3.7684615806677457 4.0451903042769226 4.6841024107219988 19.113691751712782 3.057294842734513 39.528656576512269 86.896896827274801 9.2359338346438342 14.482001242844314 0.79549153603708833 22.563219906428312
decision_type=2 2 2 2 2 2 2 2 2 2 2 2 2 2 2 2 2 2 2 2 2 2 2 2 2 2 2 2 2 2
left_child=4 5 3 9 6 7 28 17 14 -3 12 -7 21 -14 -4 -8 -9 22 -19 26 -15 -6 25 -22 -16 -2 -13 -23 -1 -12
right_child=1 2 8 -5 10 11 15 16 -10 -11 29 19 13 20 24 -17 -18 18 -20 -21 23 27 -24 -25 -26 -27 -28 -29 -30 -31
leaf_value=0.03108461262285709 0.024827495042234658 -0.043948875719850712 -0.094800285597642253 -0.11916945660114288 0.016887724817740719 -0.0021264910551888699 0.088561867293901739 -0.021815496875345706 -0.18467875564098357 0.030194909361029122 0.01404524957591837 -0.038019898921251294 0.072704318423528924 0.018347300800361802 -0.11666589287611154 0.13397141695022582 -0.065256938852369786 0.0059978698238568459 -0.029652452119293488 -0.088099454811641151 0.05253876341963714 0.024754049694538115 0.031109804020822043 0.035554246651008724 -0.13935836416482925 0.0019227079305126043 -0.063057675920426839 0.037963936582759573 0.050894928285304231 -0.0032044836357235907
leaf_weight=30 20 33 36 30 91 22 32 25 20 23 187 20 37 35 26 21 20 46 28 21 53 75 25 64 40 61 32 81 34 20
leaf_count=30 20 33 36 30 91 22 32 25 20 23 187 20 37 35 26 21 20 46 28 21 53 75 25 64 40 61 32 81 34 20
internal_value=5.62481e-11 -0.0487375 -0.0963699 -0.0503595 0.0338597 -0.0177763 0.0710286 -0.00450361 -0.128804 -0.013497 0.0270965 -0.0492117 0.0340841 0.0444034 -0.117848 0.106554 -0.0411228 0.00465119 -0.00749144 -0.0634018 0.0375144 0.0261879 0.0131281 0.0432481 -0.130419 0.00757821 -0.0534278 0.031613 0.0416088 0.0123786
internal_weight=1288 528 208 86 760 320 117 225 122 56 643 95 436 189 102 53 45 180 74 73 152 247 106 117 66 81 52 156 64 207
internal_count=1288 528 208 86 760 320 117 225 122 56 643 95 436 189 102 53 45 180 74 73 152 247 106 117 66 81 52 156 64 207
is_linear=0
shrinkage=0.03


Tree=30
num_leaves=31
num_cat=0
split_feature=10 0 41 38 52 41 0 0 38 0 52 0 30 4 32 4 0 0 28 1 1 52 0 3 32 23 0 26 3 23
split_gain=2222.1 814.057 324.501 228.053 200.471 139.582 90.161 81.0887 78.8571 78.078 77.894 66.3581 50.413 42.5792 30.8959 28.8257 21.9213 19.4224 20.8139 19.3698 23.6827 30.8132 18.8554 11.0592 10.5359 10.3516 8.50057 8.31192 7.13118 6.3403
threshold=0.058790169072633104 31.60684627675526 16.500000000000004 0.4812128159619567 24.270378573566251 16.500000000000004 27.045309529064465 20.559665065862237 0.4812128159619567 49.035628140033793 10.245550329535378 11.741512101746697 9.277884302681807 0.0044878048780487819 9.313908783666939 0.0037195121951219515 18.062569748488773 10.158742323316917 1.9835128961098449 22.190850060196308 24.966020276429365 6.6850597809349193 23.953811343253314 19.113691751712782 10.248857623339232 4.1262082401603513 40.159479115232408 51.247349547189614 24.458007748440266 4.5513881032716306
decision_type=2 2 2 2 2 2 2 2 2 2 2 2 2 2 2 2 2 2 2 2 2 2 2 2 2 2 2 2 2 2
left_child=4 5 3 10 6 8 13 -6 19 14 -3 -7 15 17 -4 29 -10 -1 -19 23 21 -21 -13 27 -24 -14 -16 -2 -20 -8
right_child=1 2 9 -5 7 11 12 -9 16 -11 -12 22 25 -15 26 -17 -18 18 28 20 -22 -23 24 -25 -26 -27 -28 -29 -30 -31
leaf_value=0.018159044453501701 0.00055547302899261312 -0.042630409815094687 -0.091956276794274636 -0.11559437358379364 0.051793076627784297 -0.0020626964733343233 0.046401732282506089 0.12531800919108921 -0.021161031898856163 -0.17913839435577392 0.029289061214936813 -0.044241571328602729 0.0146927525466308 0.012180733282447738 -0.11434517482231403 0.098886646270751943 -0.063299229606986043 0.050294799904028575 0.031996587563644756 0.010367623519152403 0.018005460993103357 -0.037393991386577966 -0.059386272445321082 0.030176510268542914 -0.089810784203665589 0.039667251110392605 -0.13603806089710543 0.020941648114886545 0.01742406651377678 0.068687535524368279
leaf_weight=100 54 33 36 30 27 22 27 27 25 20 23 32 20 204 29 20 20 54 165 20 23 31 20 25 21 59 37 27 37 20
leaf_count=100 54 33 36 30 27 22 27 27 25 20 23 32 20 204 29 20 20 54 165 20 23 31 20 25 21 59 37 27 37 20
internal_value=-3.13942e-11 -0.0472753 -0.0934788 -0.0488487 0.0328439 -0.017243 0.0285827 0.0885555 -0.0043685 -0.124939 -0.0130921 -0.0477354 0.0495791 0.0231086 -0.114312 0.0687213 -0.0398891 0.0293706 0.0337502 0.00451165 -0.0072667 -0.0186639 -0.0614998 0.0127343 -0.0749696 0.0333446 -0.126506 0.00735086 0.0293274 0.0558851
internal_weight=1288 528 208 86 760 320 706 54 225 122 56 95 146 560 102 67 45 356 256 180 74 51 73 106 41 79 66 81 202 47
internal_count=1288 528 208 86 760 320 706 54 225 122 56 95 146 560 102 67 45 356 256 180 74 51 73 106 41 79 66 81 202 47
is_linear=0
shrinkage=0.03


Tree=31
num_leaves=31
num_cat=0
split_feature=10 0 9 38 0 0 38 52 4 28 50 38 9 28 0 22 0 0 23 2 34 28 45 44 28 48 32 12 27 1
split_gain=2090.77 767.585 388.11 189.414 169.87 121.298 70.0867 69.7573 64.9725 52.6217 40.3665 38.7516 38.5607 35.7222 25.9031 22.8512 20.129 18.3469 19.4296 17.5728 11.5976 11.5814 10.4357 10.0761 9.48149 9.14153 7.341 7.31651 6.35985 5.75128
threshold=0.058790169072633104 26.057300243581512 5286.609310399469 0.40231092436974797 41.234007481668371 14.482001242844314 0.4812128159619567 14.831409355783004 0.0044878048780487819 1.8046196566923194 45.942087861074718 0.28448250389664115 1085.4361082017228 1.9835128961098449 22.354868445483223 28059.3765467638 29.886869077462443 14.482001242844314 4.0451903042769226 1.6543813509269205 8.4811162117958432 1.9763699475673826 0.22780500520677474 0.13584908700263473 3.0104406909554586 0.37524052469230856 13.526559122290442 4919.9814571456118 5.6991008168377624 9.0955024113544045
decision_type=2 2 2 2 2 2 2 2 2 2 2 2 2 2 2 2 2 2 2 2 2 2 2 2 2 2 2 2 2 2
left_child=3 6 4 5 7 -1 11 16 13 -6 -4 -2 -11 14 -5 -8 -3 -15 -19 -7 25 -18 26 -17 27 29 -22 -20 -23 -13
right_child=1 2 10 8 9 19 15 -9 -10 12 -12 20 -14 17 -16 23 21 18 24 -21 22 28 -24 -25 -26 -27 -28 -29 -30 -31
leaf_value=0.03719613309204578 -0.02795136862207909 -0.068199211413210087 0.0061951115863347374 0.034349068865180014 -0.10282241020202637 0.083585325353778897 -0.010824079552284356 -0.044528511132512771 0.011629877789696827 -0.13330572658114961 -0.04670459875836968 0.0084246027551125729 -0.18826563620567321 0.017221624715958984 0.067987704512320057 -0.060828613758087152 -0.087658689124243586 0.016700440639459496 0.037536264699080897 0.11715396466255187 -0.0051746077883628103 -0.10058064622879029 -0.021014994551427663 -0.032260090582072735 0.030590655025309665 -0.0023321296792963276 0.017194613464500592 0.055405483469367023 -0.12327752315998076 0.027281144704871082
leaf_weight=60 37 22 37 45 25 32 22 35 207 27 20 24 20 103 38 25 35 56 58 25 31 25 20 20 104 23 23 32 20 37
leaf_count=60 37 22 37 45 25 32 22 35 207 27 20 24 20 103 38 25 35 56 58 25 31 25 20 20 104 23 23 32 20 37
internal_value=1.34899e-12 -0.0458571 -0.0817556 0.0318586 -0.10068 0.0669688 -0.00941042 -0.081073 0.02547 -0.137988 -0.0123662 -0.0003153 -0.156693 0.0320408 0.0497499 -0.0358813 -0.0936128 0.0278769 0.0322669 0.0983084 0.00615644 -0.100602 -0.0025032 -0.0481315 0.0367603 0.0137852 0.00435302 0.0438898 -0.110668 0.0198622
internal_weight=1288 528 266 760 209 117 262 137 643 72 57 195 47 436 83 67 102 353 250 57 158 80 74 45 194 84 54 90 45 61
internal_count=1288 528 266 760 209 117 262 137 643 72 57 195 47 436 83 67 102 353 250 57 158 80 74 45 194 84 54 90 45 61
is_linear=0
shrinkage=0.03


Tree=32
num_leaves=31
num_cat=0
split_feature=10 0 39 28 52 0 9 12 23 30 28 0 38 0 4 38 23 0 2 28 0 0 28 0 17 0 49 3 32 1
split_gain=1967.21 724.815 265.099 264.755 180.127 154.769 121.39 82.4205 81.1114 69.6222 56.8043 55.6196 43.1577 40.9286 37.056 21.3439 17.8505 20.1591 16.0111 13.2507 12.5779 10.9343 10.0595 7.99463 6.95597 6.83174 9.92939 5.95041 5.52941 5.50317
threshold=0.058790169072633104 34.467070292764753 0.60500000000000009 3.0932867796746999 16.227533596473446 22.354868445483223 14493.371771682321 5137.3226767435308 4.2599950144716781 8.5005608512197526 1.4019925928081736 46.924599943026884 0.4812128159619567 27.671726087384513 0.0044878048780487819 0.28448250389664115 4.0451903042769226 19.488646917124608 0.34440417364618786 2.0049374494561589 15.415842620898232 13.745140664765245 3.057294842734513 16.361184237409862 -0.039074216908159716 8.4517929937582554 0.13114125872469842 24.652024216271968 12.678001395369025 19.757235668168587
decision_type=2 2 2 2 2 2 2 2 2 2 2 2 2 2 2 2 2 2 2 2 2 2 2 2 2 2 2 2 2 2
left_child=4 5 3 -3 9 12 10 -6 11 13 -7 27 15 21 16 -2 -11 -18 24 -9 -14 -1 -19 25 -12 -17 -27 -4 -16 -30
right_child=1 2 8 -5 7 6 -8 19 -10 14 18 -13 20 -15 28 23 17 22 -20 -21 -22 -23 -24 -25 -26 26 -28 -29 29 -31
leaf_value=0.02576938291868338 -0.019068848721442683 0.011042125218680927 -0.11117920673411825 -0.10935058438008832 0.04560109756886959 -0.020598289594054221 0.01085173828734292 0.11968450766801833 -0.085964469176072339 0.014284712386698546 -0.095419093370437608 -0.17940307682210749 -0.0095982965081930147 0.079268896068845476 0.01449086980900908 0.01085094701188306 0.022613109248475385 0.047139125872742042 -0.050499003566801544 0.085151037991046896 -0.03947819001157768 0.049232883182438937 0.031129704006996592 0.024631247850863829 -0.073579210281372057 0.0095341566022993495 -0.019672425996512172 -0.1314610811471939 0.014581689164042472 -0.0032365720039412662
leaf_weight=39 31 35 23 31 54 24 27 20 39 77 21 22 21 28 139 72 143 66 20 20 32 33 76 23 35 22 20 30 26 39
leaf_count=39 31 35 23 31 54 24 27 20 39 77 21 22 21 28 139 72 143 66 20 20 32 33 76 23 35 22 20 30 26 39
internal_value=2.10985e-11 -0.0444814 -0.0933546 -0.045506 0.0309028 -0.0192021 -0.0455938 0.0697784 -0.121056 0.0254159 -0.0608341 -0.139304 -0.0040358 0.0484922 0.0213388 0.00341045 0.0271012 0.0305639 -0.0735402 0.102418 -0.027639 0.0365235 0.0385707 0.00849701 -0.0817692 0.00524185 -0.00437374 -0.12266 0.0111134 0.00389073
internal_weight=1288 528 180 66 760 348 127 94 114 666 100 75 221 100 566 168 362 285 76 40 53 72 142 137 56 114 42 53 204 65
internal_count=1288 528 180 66 760 348 127 94 114 666 100 75 221 100 566 168 362 285 76 40 53 72 142 137 56 114 42 53 204 65
is_linear=0
shrinkage=0.03


Tree=33
num_leaves=31
num_cat=0
split_feature=10 0 39 28 52 0 9 27 0 0 28 0 30 38 23 4 38 28 2 0 0 0 23 30 0 34 47 17 29 26
split_gain=1850.94 681.978 249.432 249.108 170.897 145.622 114.216 76.3445 75.5074 69.6448 53.4472 51.522 42.6083 40.607 37.0329 25.491 20.0825 18.497 15.0724 12.1983 11.8346 9.76889 9.21076 8.99928 7.52214 6.81845 6.69783 6.3468 6.08977 5.68392
threshold=0.058790169072633104 34.467070292764753 0.60500000000000009 3.0932867796746999 24.270378573566251 22.354868445483223 14493.371771682321 6.0065997200579178 27.045309529064465 20.559665065862237 1.4019925928081736 46.924599943026884 9.277884302681807 0.4812128159619567 5.1837297948411249 0.0037195121951219515 0.28448250389664115 3.0024016757107659 0.31305354357136639 16.361184237409862 15.415842620898232 7.8005770240776862 4.1262082401603513 8.7926814589539806 16.361184237409862 7.4477865359550597 0.91231146515127126 -0.039074216908159716 88.870370538905917 52.659330442203746
decision_type=2 2 2 2 2 2 2 2 2 2 2 2 2 2 2 2 2 2 2 2 2 2 2 2 2 2 2 2 2 2
left_child=4 5 3 -3 8 13 10 23 14 -6 -7 -9 15 16 17 29 -2 21 27 -16 -15 -1 -14 -4 26 -21 -18 -12 -23 -10
right_child=1 2 7 -5 9 6 -8 11 12 -11 18 -13 22 20 19 -17 24 -19 -20 25 -22 28 -24 -25 -26 -27 -28 -29 -30 -31
leaf_value=0.011606223313685726 -0.018496783339688856 0.010710862046905925 -0.077658488835607262 -0.10607006538298822 0.047344432307614218 -0.019980339631438252 0.010526186058090792 -0.12088378367216689 0.040570138692855834 0.11548387785752615 -0.092556521211351661 -0.17855983185768126 0.012736835926130879 -0.00931034741923213 0.024966011374227461 0.091221025228500355 -0.008293379364678494 0.0095591437903009262 -0.049712880679539266 0.053518867286352009 -0.038293843816209115 0.035587817188352341 0.036295004317821081 -0.10400673365592956 0.023892309821170309 0.03498018095367833 0.009037179992195556 -0.071580128389246309 0.022163326036274793 0.061440241440482768
leaf_weight=51 31 35 28 31 27 24 27 46 24 27 21 20 20 21 93 20 26 202 21 26 32 48 59 20 23 57 88 34 83 23
leaf_count=51 31 35 28 31 27 24 27 46 24 27 21 20 20 21 93 20 26 202 21 26 32 48 59 20 23 57 88 34 83 23
internal_value=4.83521e-11 -0.0431469 -0.090554 -0.0441408 0.0299758 -0.018626 -0.044226 -0.117425 0.0260414 0.0814142 -0.0590091 -0.138361 0.045256 -0.00391472 0.0210318 0.0628542 0.00330814 0.0158089 -0.071334 0.0324273 -0.0268098 0.0227455 0.0303309 -0.0886369 0.0082421 0.0407875 0.0050846 -0.0795893 0.0270822 0.0507832
internal_weight=1288 528 180 66 760 348 127 114 706 54 100 66 146 221 560 67 168 384 76 176 53 182 79 48 137 83 114 55 131 47
internal_count=1288 528 180 66 760 348 127 114 706 54 100 66 146 221 560 67 168 384 76 176 53 182 79 48 137 83 114 55 131 47
is_linear=0
shrinkage=0.03


Tree=34
num_leaves=31
num_cat=0
split_feature=10 0 9 38 0 12 19 0 4 32 33 39 50 28 34 12 2 52 28 44 23 52 0 0 47 1 12 0 23 46
split_gain=1741.55 642.182 324.896 162.288 144.216 103.725 64.5892 58.7671 54.5267 48.2066 42.3708 36.5092 33.3135 30.8585 30.4508 28.1865 21.9337 17.5509 16.6795 11.3835 10.6778 10.6112 8.77097 7.76921 10.7054 7.57597 6.69901 5.52028 5.47272 5.31709
threshold=0.058790169072633104 26.057300243581512 5286.609310399469 0.40231092436974797 41.234007481668371 3343.0026611033268 0.20764821924941687 14.22690153547229 0.0044878048780487819 18.135369340445767 8.9621470548762172 0.60500000000000009 45.942087861074718 3.0024016757107659 11.861139896233823 4812.4242667893941 1.6543813509269205 9.1308308345197933 1.8046196566923194 0.094016240597262934 4.0451903042769226 14.270164636583539 8.6858099094535568 7.9815207125039018 1.2651725634727595 24.877008830780102 2051.3422740598699 8.5686150499733671 3.9841324893253263 0.79908637827530271
decision_type=2 2 2 2 2 2 2 2 2 2 2 2 2 2 2 2 2 2 2 2 2 2 2 2 2 2 2 2 2 2
left_child=3 7 4 5 6 27 14 23 13 18 11 -9 -4 15 21 22 -7 -12 -6 -17 -15 -3 -5 -2 -25 -16 -22 -1 -10 -24
right_child=1 2 12 8 9 16 -8 10 28 -11 17 -13 -14 20 25 19 -18 -19 -20 -21 26 -23 29 24 -26 -27 -28 -29 -30 -31
leaf_value=0.023262798597237892 0.0099606368653057647 -0.078448867522753193 0.0056615356678092806 0.015668949427252468 -0.093130081415176383 0.076981313394207967 -0.029240235984325406 0.010885133776004965 0.00066895483470544575 -0.16463282108306884 -0.060340189440497037 -0.032247179584069689 -0.042395070411264897 0.0052673284680183436 -0.091244499161839479 0.067742477678335633 0.11643894229616437 -0.023809753976762292 -0.12744964173206916 0.043095321892760698 0.015102989988570863 -0.052391895455392926 0.04021423069553242 -0.019368813931941987 0.0077178488581858828 -0.11478154814243317 0.028048741627224861 0.042027774162070694 0.012908406650867727 0.028061172774544469
leaf_weight=21 89 39 37 33 25 32 24 38 41 21 29 33 20 35 32 26 21 20 26 48 55 22 54 24 29 20 104 43 166 81
leaf_count=21 89 39 37 33 25 32 24 38 41 21 29 33 20 35 32 26 21 20 26 48 55 22 54 24 29 20 104 43 166 81
internal_value=-6.19668e-11 -0.0418525 -0.074688 0.0290765 -0.0920028 0.0615755 -0.0739368 -0.00851572 0.023163 -0.126378 -0.0239715 -0.00916228 -0.0112004 0.0291825 -0.0834299 0.0363284 0.0926155 -0.0454298 -0.110626 0.0517551 0.0202685 -0.0690513 0.0295333 0.00454551 -0.00454781 -0.100297 0.0235707 0.0358705 0.0104842 0.0329224
internal_weight=1288 528 266 760 209 117 137 262 643 72 120 71 57 436 113 242 53 49 51 74 194 61 168 142 53 52 159 64 207 135
internal_count=1288 528 266 760 209 117 137 262 643 72 120 71 57 436 113 242 53 49 51 74 194 61 168 142 53 52 159 64 207 135
is_linear=0
shrinkage=0.03


Tree=35
num_leaves=31
num_cat=0
split_feature=10 0 39 28 52 41 23 38 0 0 0 0 30 23 48 43 4 0 54 32 28 34 0 7 0 0 23 29 23 3
split_gain=1638.63 607.036 225.875 224.278 153.33 129.476 69.0275 68.453 66.6397 61.9626 61.9584 48.088 38.2603 33.1867 23.8056 54.1203 23.0428 21.3508 20.6882 22.1127 16.6829 14.5928 13.3168 12.1195 11.0493 9.65532 8.65322 6.19519 5.53899 5.10583
